4832 50
</s> 0.008005 0.008839 -0.007661 -0.006556 0.002733 0.006042 0.001882 0.000423 -0.007207 0.004437 -0.008713 0.002499 -0.001503 -0.001914 -0.006631 -0.003764 0.005159 0.006051 0.005938 0.003195 0.003090 -0.007605 -0.008192 0.009939 0.007603 0.006180 -0.001208 0.008031 -0.000990 0.001469 -0.000298 -0.005966 0.002625 -0.002675 -0.007651 0.009508 0.008759 -0.002190 -0.000452 0.001018 -0.007275 -0.008014 0.009109 0.000126 -0.005165 -0.006084 -0.006153 0.003394 0.000403 0.002662 
min 0.055100 0.047132 -0.114894 -0.175793 0.013558 -0.059622 0.151822 -0.113633 0.102440 0.215182 0.256622 0.074106 -0.158366 0.176875 0.147817 0.102465 0.106473 -0.090991 0.140374 -0.052431 0.090102 0.181683 0.111844 -0.063185 0.014810 -0.147266 -0.029641 0.074707 0.029623 0.061642 -0.091153 -0.038421 -0.032852 0.085758 -0.152097 0.167414 0.036239 0.169365 -0.134816 -0.110680 0.014716 -0.018685 0.041073 -0.140546 0.100322 -0.119062 0.021768 0.129027 0.137650 0.085676 
{ll~ah 0.129498 0.062525 -0.125914 -0.152113 0.081455 0.049983 0.098804 -0.079126 0.109201 0.004848 0.223559 0.027269 -0.303625 0.285765 0.033859 0.197350 0.148400 0.074234 0.268534 -0.040303 -0.023721 0.109258 -0.047897 -0.133252 0.042957 -0.153653 -0.197642 -0.022280 -0.071131 0.033692 -0.051143 -0.132690 0.018745 -0.013242 -0.197417 0.114590 0.087769 0.078696 -0.136618 -0.129270 -0.022949 -0.041405 0.153809 -0.054739 0.088364 -0.084136 0.086437 0.042041 0.112447 0.171977 
maA 0.088681 0.143736 -0.061002 -0.174362 0.172013 -0.056983 0.138848 -0.090691 0.067852 0.152190 0.209848 -0.043928 -0.207594 0.185787 0.105887 0.006425 0.156630 -0.086478 0.126424 -0.189635 -0.089375 0.093629 0.040110 -0.195319 -0.074128 -0.124767 -0.046972 0.085349 -0.028950 0.017324 -0.140546 -0.013364 0.015862 0.030351 -0.102898 0.093707 -0.011945 0.140287 -0.164204 -0.081073 0.009411 0.042681 0.040158 -0.140172 0.168867 -0.043937 -0.002466 0.134008 0.018121 0.250138 
laA 0.042084 -0.042154 -0.217544 -0.145695 -0.012015 0.069717 0.116833 -0.093328 0.347386 -0.052177 0.242525 -0.047441 -0.097584 0.123751 0.108538 -0.025278 0.070922 -0.129938 0.254634 -0.061955 -0.056800 0.218657 0.032105 -0.179277 0.084465 -0.067289 -0.141127 0.117446 -0.088583 -0.078897 -0.024122 -0.098459 -0.028574 0.101488 -0.095476 0.178713 0.007010 -0.059064 -0.044962 -0.014743 -0.001924 -0.026086 0.081757 -0.171163 0.104345 -0.079504 0.086651 0.004827 0.144589 0.126778 
fiY 0.133570 0.143795 -0.194507 -0.079010 0.128678 0.086357 0.108666 -0.071025 0.227246 0.154521 0.163013 -0.032337 -0.127727 0.188118 0.111176 0.202070 0.077303 -0.133660 0.219518 -0.104860 0.066968 0.175320 -0.059084 -0.124792 0.056842 -0.106262 -0.128800 0.093493 -0.112131 0.067931 -0.014912 -0.117241 0.000896 0.021230 -0.114470 -0.026689 0.054656 -0.002586 -0.174780 -0.059933 -0.061632 0.086637 0.035555 -0.172704 0.022847 -0.108113 0.013170 0.107842 0.121661 0.142562 
<in~ 0.125554 0.268901 -0.117408 0.023805 -0.049436 0.040589 0.145799 -0.014743 0.246781 0.080697 0.243935 -0.006123 -0.078437 0.202718 0.020802 0.000143 -0.066187 -0.163434 0.119491 -0.210455 -0.166816 0.135632 0.079494 -0.112082 -0.026241 -0.074121 -0.131964 0.072232 -0.016929 0.049193 0.001493 0.125219 -0.048835 -0.016994 -0.126854 0.052472 0.063938 0.099352 -0.112757 -0.076450 -0.063408 0.034094 -0.011001 -0.108803 -0.037679 -0.063512 0.051878 0.060687 0.154648 0.149208 
qaAla -0.126395 -0.029274 -0.057221 -0.220092 0.039932 -0.019567 0.174329 -0.130329 0.139799 0.166443 0.066260 -0.006812 0.026298 0.159580 0.115364 0.022219 0.179298 -0.124193 0.139716 -0.052978 -0.060886 0.050174 0.081832 -0.156803 0.015894 -0.051268 -0.099530 0.140817 -0.149928 0.148790 -0.157556 0.037283 -0.082127 0.043257 0.010674 0.169473 -0.000514 0.028305 -0.201370 -0.177689 -0.036508 0.085313 0.065800 -0.094922 0.151639 -0.156462 0.160840 0.060396 0.129164 0.068395 
{l~a*iY 0.048816 0.030802 -0.055266 -0.037884 0.007368 -0.025477 0.072759 -0.113687 0.212831 0.045272 0.201843 0.035923 -0.200433 0.147513 0.115026 -0.004884 0.091622 -0.159667 0.161744 -0.080075 -0.009855 0.076325 0.010922 -0.123832 0.009456 -0.158246 -0.155689 0.079541 0.022131 0.037402 -0.123695 -0.073762 0.013927 0.133077 -0.091710 0.075243 0.031544 0.086717 -0.159673 -0.088397 -0.003615 -0.011842 0.131788 -0.091116 0.090468 -0.106930 0.065228 0.089553 0.126740 0.119201 
EalaY` -0.000558 0.024673 -0.167944 -0.225230 0.050077 0.099687 0.036981 -0.024452 0.175475 0.025930 0.263116 -0.058841 -0.176042 0.093833 0.149141 0.119150 0.130798 -0.078990 0.237657 -0.094517 -0.120557 0.143906 0.024306 -0.208031 -0.000982 -0.198700 -0.152460 -0.030882 0.070910 -0.122547 -0.031944 -0.040666 0.028743 0.069119 -0.223805 0.188109 0.116528 0.091211 -0.088454 -0.184141 0.027431 0.044863 0.079105 -0.150539 0.076691 -0.089754 0.025950 0.114984 0.064045 0.099732 
kaAna 0.035735 0.253758 -0.066540 -0.008248 0.154978 -0.058998 0.020851 -0.020295 0.010560 0.081043 0.171195 -0.081372 -0.200191 0.366381 0.101122 0.073777 0.100636 -0.195879 0.132122 -0.178473 -0.216682 0.045680 -0.001032 -0.065213 -0.168770 -0.131925 -0.159066 0.015359 -0.068150 0.009929 -0.108306 0.114771 0.197174 -0.070952 -0.158067 0.173785 0.034949 0.163646 -0.135177 -0.142851 0.034527 -0.106536 0.080006 0.077110 0.130538 -0.060903 0.067514 0.282727 0.028649 0.097875 
rab~ -0.023145 -0.053018 -0.096080 -0.119056 0.065774 0.068771 0.120834 -0.000389 0.125696 0.125575 0.116362 -0.033492 -0.043492 0.208165 0.189043 0.012349 0.152564 -0.175825 0.184851 0.054168 -0.068426 0.023645 0.035418 -0.210104 -0.126489 -0.134420 0.015326 -0.050275 0.003062 0.035854 -0.072626 0.085820 -0.037743 0.023561 -0.001411 0.052599 0.023160 0.010998 -0.213052 0.013851 0.041518 0.028062 0.083775 -0.126017 -0.034184 -0.079965 0.143428 0.118834 0.101551 0.075033 
man -0.039030 0.113764 -0.136880 -0.079745 0.079802 0.062613 0.133125 -0.091252 0.263815 0.029917 0.197977 -0.053044 -0.027736 0.115519 0.097186 0.001060 0.047204 -0.218123 0.104213 -0.186913 0.006722 0.244878 0.056438 -0.097572 0.042268 -0.118775 -0.203087 0.020264 0.065364 0.011349 0.072673 0.056915 0.011145 0.018080 -0.152975 0.057008 0.035755 0.094386 -0.129411 -0.088166 -0.069553 -0.019925 -0.083314 -0.087546 0.024974 -0.214806 -0.018082 0.088404 0.211096 0.107651 
<ilaY` -0.012693 0.106353 -0.075625 -0.110530 0.107774 -0.066138 0.281790 -0.029016 0.138119 0.140093 0.238155 0.056519 -0.123716 0.084647 0.130697 0.057427 0.094202 -0.130415 0.242559 0.000887 -0.101019 0.177318 -0.011790 -0.092667 -0.054580 -0.069497 -0.096482 -0.017067 0.047958 0.011385 -0.075628 -0.013592 -0.136250 -0.022110 -0.043622 -0.003024 -0.029894 0.019272 -0.149549 -0.047144 0.093635 0.045437 0.164664 -0.082177 -0.072041 -0.056282 0.086199 0.032970 0.143462 0.133862 
<in -0.079001 0.077948 -0.149516 -0.194166 0.003216 0.002467 -0.011123 0.065614 0.090211 -0.094783 0.133677 -0.354642 -0.203993 0.246374 0.076059 0.077054 -0.007144 -0.137388 0.041312 -0.056647 -0.151357 0.188081 0.155249 -0.085299 -0.176504 -0.087238 -0.206844 0.079234 -0.016746 -0.040621 -0.051638 -0.024501 0.039099 0.146133 -0.197715 0.193204 0.186505 0.081301 -0.134050 -0.081565 0.141485 -0.179725 0.187680 -0.017321 -0.009998 -0.191611 0.134221 0.033838 0.049967 0.155934 
<il~aA 0.007957 0.001242 -0.102733 -0.149181 -0.068737 -0.083296 0.020282 -0.045212 0.175805 0.051622 0.222263 -0.007122 -0.138193 0.174220 0.090540 -0.069448 0.122058 -0.195098 -0.001600 -0.117100 0.001682 0.165064 0.010588 -0.173995 -0.057984 -0.114304 -0.006487 -0.043482 0.065723 0.073726 0.021101 0.083757 0.066039 0.001996 -0.108302 0.159851 0.060381 0.123630 -0.086636 -0.008148 -0.041436 0.006162 0.159605 -0.175328 0.027847 -0.079818 -0.022611 -0.061808 0.121803 0.171618 
>an -0.009443 -0.009506 -0.094247 -0.188380 -0.007443 0.002610 -0.000315 -0.065401 0.174382 -0.053331 0.354558 -0.011954 -0.032993 0.220477 0.122220 -0.005571 0.067916 -0.210299 0.134686 -0.103858 -0.165487 0.133925 0.069807 -0.062513 -0.090617 -0.173457 -0.078428 0.040513 -0.041310 -0.169590 0.061326 0.089926 0.048130 -0.064834 -0.087051 0.273484 0.095716 -0.077014 -0.192810 -0.056175 0.010010 -0.051052 0.125215 -0.154987 0.039002 -0.213748 -0.010368 0.089064 0.098612 0.229596 
'aAmana -0.010790 -0.085515 -0.075697 -0.066350 -0.082090 -0.103861 0.204514 -0.158367 0.134962 0.076484 0.203901 0.062514 -0.179533 -0.000188 -0.043452 -0.016199 -0.048383 -0.209970 0.305920 -0.127743 0.015543 0.164500 0.009640 -0.052509 0.037033 -0.109710 -0.140109 0.088666 -0.006038 -0.049442 -0.080092 -0.032972 0.087608 -0.028501 -0.040361 0.124616 -0.000497 0.146795 -0.001296 -0.201309 -0.009774 -0.001978 0.216931 -0.008846 -0.047745 -0.086932 0.140044 0.173024 0.171269 0.152269 
*a`lik 0.199470 -0.047258 -0.337066 -0.217785 -0.016010 0.144698 0.147946 0.052124 0.226535 0.125205 0.131670 -0.031412 -0.119654 0.130430 0.147369 0.085638 0.100066 -0.071060 0.196165 -0.129518 -0.180311 0.119958 0.089681 -0.125068 0.009718 -0.139615 0.063850 0.147210 -0.087896 -0.112916 -0.056700 0.174175 -0.087351 0.057749 -0.117018 0.093095 -0.015885 0.019710 -0.037767 -0.135346 -0.153390 0.078437 0.119754 -0.112395 -0.109844 -0.001932 0.103858 0.124706 0.056813 0.131292 
Ean 0.074817 0.035942 -0.034213 -0.091330 0.058979 -0.103329 -0.001072 -0.008722 0.160640 0.105167 0.369792 -0.072050 -0.145661 0.171044 -0.043642 0.074408 0.042141 -0.065338 0.174297 -0.082085 -0.125820 0.099008 0.010375 -0.063371 -0.073050 -0.073957 -0.221193 0.012725 -0.081496 0.053262 -0.040182 -0.018404 -0.007453 0.023298 -0.215832 0.051799 -0.005517 0.104951 -0.210271 -0.123470 -0.074497 -0.071282 0.162812 -0.035741 -0.042441 -0.012797 0.068982 0.096405 0.081011 0.166472 
>aroD 0.192893 0.031043 -0.295395 -0.144265 0.011965 -0.026708 0.049816 -0.074137 0.179894 0.248465 0.110500 0.091016 -0.025640 0.088137 0.098470 0.015649 0.204416 -0.010194 0.103380 -0.101038 0.017135 0.006928 0.058592 -0.111325 -0.078860 -0.115050 0.011634 0.092354 0.011676 0.110901 0.017349 0.040631 -0.006448 0.098747 -0.148956 0.004306 0.027456 0.153576 -0.051067 -0.120912 -0.046685 0.149056 0.096527 -0.014437 0.001203 -0.162841 -0.047164 0.045698 0.163271 -0.008163 
<i*aA 0.011620 0.030593 0.054532 -0.025465 -0.001927 -0.169740 0.113480 -0.110717 0.155094 0.068780 0.244614 0.043254 -0.011941 0.172945 0.138352 0.049472 0.012776 -0.238697 0.205878 -0.212405 -0.055821 0.137292 0.097192 -0.164849 0.036149 -0.172277 -0.133576 0.041595 -0.018000 -0.152494 0.250201 0.170270 -0.053615 -0.007085 -0.119712 0.156328 0.230163 0.047994 -0.040254 -0.148119 -0.038945 -0.044187 0.238168 0.055369 -0.016883 -0.143746 0.158746 0.031755 0.076567 0.183864 
qad 0.019246 0.074131 -0.154666 -0.078771 0.126607 -0.055686 0.057456 -0.058204 0.178486 0.108509 -0.019641 -0.054510 -0.173715 0.114397 0.148164 -0.027695 0.116629 0.007905 0.217797 -0.056311 -0.170964 0.194577 0.008195 -0.109147 -0.003009 -0.042255 0.047449 0.136990 0.012696 0.073515 -0.232483 0.018986 0.047473 0.144318 -0.114746 0.011031 -0.073419 0.108794 -0.220282 -0.239772 0.030097 0.016863 0.097406 -0.066474 0.032703 0.024826 0.189166 0.102981 -0.018376 0.053254 
yawom 0.153721 0.128613 -0.071800 -0.000448 -0.112650 0.010849 0.160647 0.007990 0.209972 0.056293 0.346408 0.045554 -0.163628 0.121736 0.179054 0.097637 0.079924 -0.135804 0.261039 -0.145349 -0.106800 0.216028 -0.104606 -0.219476 0.124908 -0.213707 -0.097361 -0.093014 -0.103991 -0.016895 0.084138 -0.014964 -0.030945 0.012762 -0.108959 0.023077 0.005129 0.153923 -0.029617 -0.071165 0.006486 -0.076817 0.094925 -0.059017 -0.058726 -0.046129 0.133111 0.094855 0.097675 0.130657 
qawom 0.029902 -0.021278 -0.083957 -0.172167 0.051477 -0.084386 0.179654 -0.020659 0.116963 0.395143 0.230738 0.136233 -0.010709 0.165314 0.065827 -0.055018 0.278558 0.058413 -0.037229 -0.092601 -0.003806 0.013848 0.084330 -0.109187 -0.039287 -0.226888 -0.024999 0.144630 -0.020508 0.162124 -0.193873 0.047241 -0.091761 -0.056245 0.146687 0.011156 0.090642 0.057347 -0.187770 -0.101389 0.024056 0.062560 0.165389 -0.040796 0.009083 -0.112407 0.181003 0.055404 0.164586 0.129350 
Ealima 0.018869 -0.103729 -0.257998 -0.177467 0.074258 -0.044173 0.218060 -0.067435 0.271146 -0.058063 0.187535 -0.055562 -0.110438 0.201443 0.017761 0.116961 0.062235 -0.249711 0.274859 -0.073820 -0.028951 0.160780 -0.068154 -0.065210 0.085358 0.042208 -0.063807 0.178052 -0.006904 -0.000932 -0.047566 -0.076615 -0.024416 -0.061675 -0.094198 0.136439 0.079880 0.022327 -0.089480 -0.067703 -0.110598 -0.088690 0.077409 -0.140337 0.215694 -0.083550 0.107742 -0.032942 0.061760 0.194514 
'aAyap 0.023382 0.124964 -0.134689 -0.169427 0.117085 -0.164043 0.014530 -0.011848 0.138279 0.295199 0.218343 -0.119214 -0.194571 0.065092 0.110566 0.072198 0.037853 -0.137287 0.055690 -0.185439 -0.057578 0.014525 0.020417 -0.134064 -0.043726 -0.053275 0.063527 0.027793 0.065698 0.005000 -0.159967 0.065574 -0.076495 0.097657 0.034511 -0.014698 -0.123075 0.166896 -0.070481 -0.291460 -0.029767 -0.026301 0.143845 -0.068050 0.012934 -0.119403 0.100784 0.119796 0.113782 -0.154121 
>an~ 0.066114 -0.090906 -0.184785 -0.185290 -0.031622 0.018952 0.291044 -0.136921 0.208160 0.166798 0.281277 0.101171 -0.150941 0.077874 0.110319 0.059002 -0.010425 -0.198329 0.334625 -0.046121 0.092494 0.049162 -0.016553 -0.148280 0.090673 -0.127843 -0.088600 0.081914 -0.082869 -0.046261 -0.037006 0.040702 0.049062 0.002338 -0.065377 0.007641 0.067217 0.084480 -0.080848 -0.089716 -0.068962 -0.019652 0.172642 0.032757 -0.081093 -0.085944 0.077108 0.028963 0.032302 0.199508 
kul~ 0.151978 0.129249 -0.135801 -0.045264 0.127880 0.107383 0.051378 -0.185276 0.077873 0.111896 0.003476 -0.151052 -0.128315 0.327312 0.179791 0.092541 0.120242 -0.085292 0.121082 -0.127133 -0.208535 0.007693 0.073508 -0.147224 -0.286508 -0.218313 -0.098119 0.114706 0.022369 0.091080 -0.169491 0.004705 -0.044170 0.041380 -0.067177 0.147276 -0.024615 0.239513 -0.186480 -0.010058 -0.007500 -0.023989 0.105588 -0.073227 0.050876 0.004552 -0.025068 0.110878 0.047582 0.050938 
lam -0.052062 0.023778 -0.125782 -0.197160 0.024577 -0.070137 0.159215 -0.261190 0.131770 0.201573 0.273052 -0.131566 -0.229057 0.227327 0.113047 0.089657 0.014050 -0.116382 0.221340 -0.120400 -0.251211 0.125977 0.128579 -0.170321 0.019428 -0.092216 -0.072683 0.069089 0.043669 0.026076 -0.093482 -0.127770 -0.056504 0.045758 -0.056340 0.150947 0.234837 0.093106 -0.075752 -0.128151 0.019349 -0.032004 0.150439 0.078383 0.057912 -0.183787 -0.072329 0.075168 -0.066680 0.259501 
jaEala 0.051006 0.093527 -0.122951 -0.122074 -0.007873 -0.052970 0.204428 -0.013096 0.272311 0.197469 0.182022 0.085324 -0.106709 0.142230 0.193669 0.055604 0.078594 -0.158594 0.176859 -0.237672 -0.109527 0.107387 -0.017959 -0.134506 0.027156 -0.152137 0.076338 0.032796 0.018940 -0.024286 -0.071468 -0.061160 0.009275 0.019618 -0.052103 0.018255 0.008347 0.109173 0.003885 -0.163081 0.113927 0.020421 0.069852 -0.198405 -0.023001 -0.218219 0.080428 0.138594 0.014765 0.083369 
vum~ 0.216066 0.078509 -0.217568 -0.159374 0.156787 -0.067040 0.204295 -0.131731 0.250083 -0.063797 0.112956 0.014438 -0.185060 -0.174772 0.095487 0.146629 0.022080 -0.158288 0.309278 -0.338678 0.038427 0.278362 -0.068375 -0.187060 -0.117074 0.025233 -0.202443 -0.143519 0.283555 0.030719 -0.048216 0.207485 0.275079 0.135781 -0.234018 -0.053707 -0.023690 0.318448 0.176937 -0.213030 0.032042 -0.068557 0.047621 -0.043162 -0.299306 -0.251956 0.034974 0.370846 0.080621 0.095734 
rasuwl -0.025526 -0.093855 -0.047763 -0.230062 0.174555 -0.171672 0.102007 -0.240927 0.084347 0.114638 0.199435 -0.023125 -0.247812 0.072264 0.013633 0.191457 0.168723 -0.103129 0.254090 0.043406 0.083810 0.009719 0.030388 0.005198 -0.093961 -0.154038 -0.215625 -0.031593 -0.041198 0.167087 -0.064445 -0.012500 0.006990 -0.028274 -0.025609 0.025244 0.162780 0.182456 -0.152219 -0.169252 0.064662 -0.199690 0.141179 0.043606 0.007934 -0.026140 0.101517 0.059050 0.203278 0.290932 
Ea*aAb 0.137884 0.062102 0.054122 -0.074859 0.119717 -0.142895 0.201240 -0.023299 0.144083 0.103043 0.256562 -0.006573 -0.278178 0.060814 -0.028306 0.102994 0.212346 -0.178857 0.229464 -0.114211 -0.078029 0.150164 0.108952 -0.030918 0.186092 -0.097357 -0.116456 0.079273 -0.082997 0.129075 0.006255 -0.078393 -0.090630 -0.092775 0.088221 0.010601 0.018165 0.225771 -0.011222 -0.197810 0.018006 0.157173 0.204356 -0.084793 -0.086167 -0.117607 0.175740 0.073530 0.072472 0.155064 
ha`*aA -0.007773 -0.113905 0.046775 -0.054611 0.052196 0.082508 -0.007651 0.029268 0.076384 0.216453 0.093802 -0.066838 0.010250 0.154792 0.117512 -0.067633 0.090484 -0.241210 0.125523 -0.300149 -0.021499 0.164884 0.132418 -0.075864 0.090289 -0.107369 -0.017659 0.022892 -0.034404 0.007979 -0.092022 0.188266 -0.039232 0.067119 0.036394 -0.088807 -0.042095 0.190560 -0.097134 -0.152382 0.004460 0.175182 0.162735 -0.082196 0.033692 -0.180075 0.100626 0.070107 0.146553 0.063884 
samaA^' 0.278745 0.018201 -0.357932 -0.125300 -0.089520 0.117399 0.114311 0.089594 0.238129 0.304084 0.068574 -0.062325 -0.096239 0.013435 0.316856 0.106775 0.065754 -0.077720 0.175683 -0.172122 -0.072423 0.048436 -0.004994 -0.228121 -0.030970 0.025113 0.015207 0.017374 0.027980 0.130968 0.078047 0.002192 -0.124463 0.161345 0.083289 -0.143142 -0.051438 0.008567 -0.066018 -0.055152 -0.059231 0.181048 0.057347 -0.150561 -0.112639 -0.077699 -0.125966 -0.023325 -0.026170 0.076424 
nafos 0.098901 0.010495 -0.265924 -0.108845 0.110028 -0.105947 0.018091 -0.112722 0.051859 0.155945 0.166871 -0.026563 -0.104127 0.056572 -0.101633 0.005121 0.194416 -0.106784 0.224889 -0.287053 -0.189071 0.190949 -0.025517 -0.169133 0.011882 -0.056584 0.085348 0.087085 -0.122972 0.056225 -0.120457 -0.143508 -0.111519 -0.032893 -0.067396 0.222449 -0.022289 0.151521 -0.121891 -0.170488 -0.007808 0.014184 0.047260 -0.097609 0.158865 0.000739 0.077424 0.028228 0.069533 0.154330 
kafara 0.129884 0.004196 -0.133948 -0.118990 0.097611 -0.197678 0.139128 -0.268289 0.105071 0.086615 0.253825 -0.029477 -0.233532 0.112697 0.045744 -0.045627 0.100995 -0.057559 0.352304 0.019070 0.105894 -0.072047 -0.136858 -0.001442 0.070345 -0.079708 -0.139107 0.111478 0.036748 0.163105 -0.061422 -0.026666 -0.022571 -0.030450 -0.076842 -0.022987 -0.080222 -0.005501 -0.079949 -0.118202 -0.045923 -0.178956 0.111246 -0.069763 0.022025 -0.104389 0.056060 0.073409 0.095057 0.016635 
$aYo' 0.062282 0.026652 -0.288109 -0.138689 0.061685 0.137402 0.059718 0.009400 0.121805 0.081799 0.126432 -0.095323 -0.186470 0.171997 0.151277 0.148374 0.107427 -0.275543 0.196169 -0.177041 -0.115392 0.044491 0.050866 -0.195276 -0.167917 -0.105710 -0.260232 0.031380 0.021753 -0.026139 -0.137585 0.091066 0.077030 0.117704 -0.056775 0.214986 -0.076349 0.210245 -0.141283 -0.188900 -0.084906 -0.040727 0.100065 -0.001450 -0.055241 0.053293 0.032887 0.165546 0.013455 0.013723 
>aw 0.147452 0.212224 -0.170975 -0.282158 -0.082441 0.095157 -0.014865 -0.069029 0.191927 0.162266 0.381508 -0.095771 -0.218697 0.098850 -0.030338 0.204398 -0.018141 -0.377312 -0.029069 -0.189043 -0.563687 0.051068 0.212228 -0.261745 -0.054802 -0.264768 -0.067407 -0.035868 -0.135789 -0.217712 -0.236932 -0.055171 -0.059817 -0.031970 -0.116854 0.311064 0.224635 0.116102 0.218455 -0.075984 -0.048852 0.029617 0.253580 0.084537 0.034968 -0.134526 0.059306 0.212646 -0.043724 0.128981 
jaA^'a 0.002785 0.067463 0.021125 -0.136279 0.157154 -0.176572 -0.018977 -0.031214 0.095391 0.283013 0.132025 0.054198 -0.145029 0.081312 -0.036039 0.051322 0.155758 -0.038441 0.083352 -0.043960 -0.218331 0.080204 0.080778 -0.148725 -0.089036 -0.268619 0.050102 0.072682 -0.058050 0.156922 -0.207444 0.101163 -0.030517 -0.041331 0.036571 0.034398 -0.038983 0.110504 -0.127833 -0.205226 0.113654 0.060048 0.165719 -0.046043 -0.028940 -0.034094 0.097802 0.102105 0.030496 0.130420 
Eamila -0.099969 0.028580 -0.199195 -0.110860 0.057621 -0.030408 0.006868 -0.038390 0.127243 0.146220 0.156046 -0.125980 -0.046553 0.285143 0.020278 -0.077927 0.072239 -0.149562 0.270101 -0.063612 0.020820 0.003778 -0.072586 -0.246804 -0.015646 -0.017201 -0.039821 -0.001395 0.036321 -0.079196 0.097744 -0.017592 0.042968 0.024464 -0.157140 0.144585 0.081961 0.034511 -0.139821 -0.175853 0.037249 0.066149 0.133198 -0.114248 -0.098603 -0.057048 0.056906 -0.036998 0.116779 0.135209 
A^taY 0.101198 -0.006766 0.039678 -0.198289 0.085726 -0.051422 0.118566 -0.087326 0.345728 0.097327 0.333538 -0.223619 -0.105683 0.107571 0.106281 -0.028977 0.116915 -0.151415 0.225210 -0.015643 0.033867 -0.079696 0.050035 -0.185556 -0.054593 -0.058090 -0.172237 0.193280 0.142221 0.004157 0.001143 -0.140915 0.057499 0.055913 -0.118694 0.336968 0.092424 -0.033355 -0.123339 -0.099439 -0.021324 -0.027324 -0.181305 -0.045095 -0.043011 -0.182004 0.061522 0.113699 0.080712 0.101617 
ra'aA 0.208718 -0.074980 -0.131891 -0.278467 0.049861 -0.007139 0.231896 0.012666 0.057013 0.179469 0.109682 -0.036090 -0.262756 0.017037 0.077227 -0.002968 0.026410 -0.159705 0.079918 -0.238273 -0.065822 0.045970 0.106402 -0.319916 -0.086974 0.030365 0.035200 0.042649 0.038181 0.088322 -0.112685 -0.009021 0.029078 0.147332 -0.004686 -0.123645 -0.004654 0.205133 -0.122183 -0.170676 -0.122173 0.035524 0.099766 -0.088298 -0.152711 -0.145898 -0.017848 0.150485 0.061551 0.184921 
bayon -0.092603 -0.092834 0.070851 -0.120870 0.144675 -0.057120 0.149386 -0.026542 0.193628 0.001619 0.128307 -0.078289 -0.180823 0.072852 0.211528 0.086681 0.211057 -0.093609 0.351873 -0.118267 -0.127855 0.219618 0.183566 -0.186696 -0.111064 -0.125602 -0.096460 0.190109 0.003545 -0.058247 0.005603 -0.003297 -0.018682 -0.047615 -0.022908 -0.022203 0.038180 0.142129 -0.161489 -0.103488 0.042829 -0.034028 0.118904 0.071834 -0.037703 -0.346800 -0.007107 0.190257 -0.007086 0.143352 
>ataY 0.038730 -0.015073 -0.167433 -0.034543 0.183707 -0.048884 0.037550 0.066604 0.085771 0.187314 0.132585 0.025087 0.034460 0.056095 0.110652 0.093999 0.085795 -0.076887 0.174074 -0.105441 -0.080105 0.081542 0.179942 -0.147310 -0.036771 -0.041000 0.054235 0.093736 -0.143871 -0.061460 -0.090979 -0.052894 0.025884 0.059532 -0.004286 0.089375 0.159728 0.139396 -0.124902 -0.142939 0.048539 0.018250 0.160992 -0.178254 0.052379 -0.206349 0.264633 0.041828 0.032000 -0.038607 
kita`b -0.006497 0.002711 -0.065627 -0.135540 0.091956 -0.134447 -0.019162 0.006494 0.320681 0.090609 0.258733 -0.086038 -0.246318 0.146417 0.179814 0.056774 0.184725 -0.076781 0.172196 -0.095413 0.149726 -0.033743 0.035274 -0.105269 -0.144364 -0.007753 -0.174699 0.160249 0.182375 0.127365 -0.164602 -0.025765 0.034152 0.144215 -0.190403 0.140009 -0.023981 0.079188 -0.116462 -0.118986 0.019341 -0.130782 -0.011211 0.123627 0.083885 0.038587 0.038508 0.167981 0.041160 0.082121 
Haq~ 0.027486 -0.009261 -0.096116 -0.078513 0.142185 0.004586 0.179981 -0.066188 0.233405 0.174549 0.077782 0.002449 -0.083450 0.237364 0.119295 -0.072553 0.210996 -0.154285 0.285148 -0.214991 -0.059835 0.054093 0.016046 -0.141607 -0.121831 -0.170953 -0.001894 0.098165 -0.033096 -0.008974 -0.105661 0.164776 0.024248 -0.075186 -0.128853 0.243212 -0.180746 0.030426 -0.176549 -0.067963 0.046100 0.040085 -0.038391 -0.087564 -0.110716 0.009646 0.042400 0.230728 0.106854 0.112194 
qabol -0.119780 -0.002137 -0.028486 -0.060050 0.225914 -0.156579 0.112933 -0.174756 0.124098 0.149169 0.023304 -0.159028 -0.061763 0.085211 0.166765 0.117466 0.086793 -0.192912 0.132794 -0.093287 -0.143232 0.271637 0.051787 -0.139865 -0.101803 -0.001044 -0.037034 0.080854 0.006922 0.095318 -0.131174 -0.060536 0.064797 0.017516 0.058277 0.128368 0.092017 0.115113 -0.147188 -0.215885 0.016707 -0.025575 -0.088977 0.057592 0.014461 -0.209651 0.190027 0.193884 0.087450 0.138717 
n~aAs 0.164679 0.128182 -0.176287 -0.229201 0.066035 0.099344 0.108785 -0.052388 0.242982 0.035510 0.046574 0.043664 -0.063008 -0.005756 0.097990 -0.114095 0.026050 -0.029629 0.185705 -0.022501 -0.090665 0.093014 -0.122895 -0.149292 -0.080336 -0.090975 -0.237392 0.163326 0.104446 0.096983 0.016724 -0.062697 0.043560 0.060609 -0.130987 0.066831 -0.011052 0.191103 -0.009206 -0.138632 -0.109812 -0.039124 -0.105463 -0.109410 -0.080448 -0.186370 0.188817 0.112392 0.260645 -0.094157 
<i* 0.075449 -0.107953 -0.371507 -0.214317 -0.117901 -0.130465 0.182916 -0.066513 0.212122 0.151913 0.010795 0.160565 -0.068411 0.048323 0.193900 -0.067635 0.259316 -0.096296 0.282034 0.102988 0.120694 -0.158840 0.141053 -0.094564 -0.022266 -0.082898 -0.205834 0.115857 0.105128 0.234696 -0.328053 0.056829 -0.007055 0.176364 -0.193061 -0.009078 -0.014709 0.096390 -0.191485 -0.170450 -0.021008 -0.259628 0.191145 -0.076485 -0.013779 -0.105536 0.194100 0.177034 0.173006 0.013636 
$aA^'a 0.044913 -0.031794 -0.185476 -0.123767 0.127563 0.095991 0.069828 -0.121051 0.165852 0.029842 0.057244 -0.126153 -0.135848 0.183516 0.166341 0.044804 0.209550 -0.121186 0.242715 -0.088417 -0.004559 0.188021 0.049070 -0.157307 -0.014235 -0.136172 0.005391 0.079672 0.217150 0.017972 -0.111026 -0.018808 -0.031438 0.146921 -0.073512 0.081149 -0.033419 0.057948 -0.043867 -0.194318 0.054906 0.053887 -0.026937 -0.101744 -0.009125 -0.195163 -0.072112 0.063820 0.231866 0.142986 
>uwla`^}ik -0.031363 0.064030 -0.101879 -0.108579 0.108284 -0.004915 0.081046 -0.057181 0.034213 -0.010474 0.229983 -0.036315 -0.231294 0.232652 0.009055 -0.065414 0.033657 -0.133668 0.234818 -0.123111 -0.106679 0.265153 -0.104254 -0.113064 0.032166 0.042145 -0.190247 0.225050 0.021326 0.042618 0.015742 -0.022181 -0.026340 -0.008023 -0.030703 0.041043 0.172474 0.129961 -0.035910 -0.311218 0.075106 -0.032078 0.253939 0.022788 -0.065968 -0.103987 0.106921 -0.044151 0.151375 0.322261 
mu&omin -0.038495 0.001872 -0.055272 -0.064321 0.070697 -0.015329 0.133316 -0.221676 -0.098611 0.104430 0.206571 -0.029066 -0.268029 0.188859 0.044549 0.168338 0.104408 0.042998 0.319783 0.030347 -0.071981 -0.035573 0.100793 -0.072661 -0.159938 -0.149967 -0.121322 0.037543 -0.011260 -0.005161 -0.182554 -0.135043 0.007384 -0.052844 -0.239045 0.189537 0.174397 0.176721 -0.174288 -0.219178 0.097188 -0.239751 0.177576 -0.050295 -0.017137 -0.246808 0.205459 0.061903 0.201201 0.302919 
law -0.032910 0.029159 -0.162579 -0.052818 0.044761 -0.058008 0.099534 -0.071729 0.172008 0.055023 0.275187 -0.026917 -0.161469 0.174407 0.100880 0.058081 0.074086 -0.135420 0.147817 0.027897 -0.095813 0.085993 -0.053898 -0.065127 -0.095444 -0.115646 -0.193828 0.048428 -0.040540 0.119941 0.059156 -0.106220 0.015641 -0.075789 -0.140966 0.090288 0.107777 0.108179 -0.089887 -0.155555 -0.043397 -0.091819 0.126692 0.037851 0.068761 -0.025578 0.168531 -0.072152 0.155293 0.214291 
baEod 0.104718 0.024172 -0.174313 -0.238817 0.007510 0.093736 0.119134 -0.147621 0.251858 0.043583 0.185934 -0.181164 -0.115512 0.286958 -0.010839 -0.000665 0.084169 -0.075555 0.166625 -0.208349 -0.131767 0.164155 -0.042655 0.005582 -0.077874 -0.145977 -0.132716 -0.018624 0.189611 0.043043 -0.156429 0.019693 -0.055991 0.136139 -0.055105 0.182545 -0.042191 0.041759 -0.105339 -0.061875 0.003335 -0.134467 -0.045579 -0.043752 0.041034 -0.082811 0.109141 0.039601 0.043338 0.107474 
Eind -0.021431 0.081422 -0.180086 -0.027598 0.045487 0.087031 -0.188639 -0.011421 0.268226 -0.072026 -0.085403 -0.013528 -0.041377 0.311831 0.070216 0.056504 0.057126 -0.161445 0.287289 0.066448 -0.060132 0.153143 -0.122934 -0.086689 -0.094059 -0.089315 -0.054423 0.027346 -0.035478 -0.115559 -0.101326 0.025523 0.119288 0.026678 -0.181960 0.153952 0.147298 0.153002 -0.024103 -0.240883 -0.052945 -0.006949 0.135531 -0.143924 0.074664 0.001203 0.001077 -0.135038 0.275024 0.182175 
xalaqa 0.320675 0.048812 -0.165979 -0.177112 0.083215 0.059490 0.072998 0.022446 0.136714 0.063642 -0.072274 0.208518 -0.023050 -0.195580 0.274263 -0.011754 0.232790 -0.146351 0.262632 -0.109438 -0.058575 0.077109 -0.030630 -0.167454 -0.014535 -0.065941 0.006547 -0.104058 0.355401 0.034020 -0.008097 0.214922 0.137292 0.342244 -0.032211 -0.221251 0.027758 0.195926 0.088353 -0.100905 -0.132599 0.047465 0.009833 -0.201132 -0.260157 -0.089041 0.200035 0.244491 0.080143 -0.083317 
>anzala 0.358872 0.040126 -0.223164 -0.293522 0.109404 -0.122260 0.269462 0.023423 0.170339 0.202473 0.290124 0.204315 -0.216059 -0.124339 0.035049 0.049796 0.170905 -0.095322 0.297544 -0.245680 -0.000609 -0.021401 -0.115493 -0.058851 0.078678 -0.034067 -0.023260 0.090053 -0.052387 -0.029354 -0.272038 0.055898 0.046847 0.098721 0.026483 -0.056832 -0.187972 0.192402 -0.093394 -0.103483 -0.259721 0.007353 0.046706 -0.055424 -0.063144 -0.030102 0.101288 0.096699 0.054217 0.179554 
xayor -0.104755 0.124059 -0.001463 0.010926 -0.044189 0.106423 0.091092 -0.165507 0.160578 -0.054324 0.238107 -0.196498 -0.331185 0.109601 0.147147 0.009367 -0.075941 -0.200943 0.281984 -0.053495 -0.248550 0.285089 -0.015923 -0.092068 -0.075997 -0.182805 -0.141569 0.056047 -0.103876 -0.061687 0.122793 -0.215988 -0.052761 -0.026879 -0.069411 0.146967 0.051887 0.114670 -0.005326 -0.229422 -0.027966 -0.083299 0.180771 -0.089825 -0.132513 -0.275183 0.101820 0.062790 0.145022 0.216959 
ka*~aba -0.038633 0.002790 -0.121709 -0.052485 0.085761 -0.071723 0.016034 0.051424 0.176989 0.142425 0.113819 -0.107229 -0.030232 0.083476 0.195071 0.081698 -0.025976 -0.031046 -0.186914 -0.274709 0.074843 0.005063 -0.013223 -0.002783 -0.157144 0.046706 0.085651 0.132051 0.007091 0.088398 -0.162370 0.128496 0.012061 0.113693 -0.044506 -0.123480 -0.059410 0.073933 -0.135899 -0.145902 0.003696 0.070748 0.114245 -0.039377 -0.059840 -0.139650 0.080832 0.084892 0.027768 0.110168 
sabiyl -0.008215 0.174408 -0.146328 -0.107612 0.125296 -0.073411 -0.020070 -0.129001 0.218957 0.009795 0.316766 0.160566 -0.274964 0.222494 0.062818 0.186774 0.080506 -0.029151 0.239549 -0.057585 0.002381 0.075546 -0.051453 0.061828 -0.099866 -0.145976 -0.120158 0.056342 -0.021034 0.132939 0.021484 -0.081513 0.085142 -0.020163 -0.124188 0.045797 0.178789 0.168622 -0.133415 -0.076086 -0.116290 -0.052714 0.097112 -0.111724 -0.045389 -0.096773 0.120893 -0.034537 0.231091 0.221839 
daEaA 0.102810 0.126691 -0.144976 -0.010151 0.033545 0.167615 0.125823 0.029546 0.121050 0.008293 0.016839 0.005891 -0.047181 0.289900 0.329347 -0.055651 0.051494 -0.183597 0.308155 -0.183831 -0.059064 -0.105340 -0.025378 -0.067463 -0.069085 0.024908 -0.016049 0.067048 -0.123448 -0.058015 -0.054921 0.124207 0.139807 -0.097795 0.032547 0.162098 0.020230 0.090986 -0.176468 -0.082717 0.158469 0.052058 0.134724 -0.238353 -0.200284 -0.058655 0.127897 0.082222 0.242748 0.052496 
{t~aqaY` -0.009085 0.191914 -0.100865 -0.041247 -0.021404 0.123072 -0.021868 0.013307 0.157200 -0.158715 0.335560 -0.049595 -0.087832 0.096526 -0.037749 -0.065634 -0.025819 -0.169783 0.322622 -0.044417 -0.015137 0.315881 0.001130 -0.151562 0.024582 -0.289875 -0.178599 -0.127218 -0.039038 -0.325625 0.135343 -0.066026 0.032028 -0.011782 -0.254740 0.237395 -0.020738 0.115164 0.000641 -0.078835 0.107942 -0.168026 0.243418 0.082261 -0.238766 -0.263519 0.027026 0.056288 0.159789 0.215680 
>amor 0.047065 -0.060963 -0.097572 -0.154353 0.073226 0.015748 0.046399 -0.150185 0.254987 0.135683 -0.051224 -0.063555 -0.161462 0.375035 0.063581 0.138732 0.117558 -0.226564 0.097198 -0.000955 -0.174924 0.072973 -0.070086 -0.162691 -0.281649 -0.150689 0.005781 0.007032 0.150711 0.154962 -0.055947 0.086678 0.004457 0.054371 0.027090 0.133921 0.097237 0.152085 -0.228149 -0.105617 0.038739 -0.090476 0.099253 -0.132138 -0.047125 -0.121468 0.245340 0.111732 0.187438 0.217892 
maE 0.002482 0.000117 -0.161709 -0.112690 0.068937 0.051738 -0.049193 -0.083199 0.203915 0.079427 0.362100 0.049351 -0.268745 0.104678 0.061588 0.116578 0.064940 -0.011026 0.173970 0.095340 0.047052 -0.017708 0.037531 -0.166185 -0.047767 -0.147673 -0.036917 0.047458 0.063058 0.087592 -0.056307 0.039969 -0.002024 0.038129 -0.207967 0.134603 0.285040 0.030014 -0.083267 -0.110917 -0.203099 -0.019464 0.137401 -0.128685 0.063552 0.123296 0.194870 0.045061 0.127006 0.214212 
Ealiym 0.087514 0.041223 -0.325017 -0.222882 -0.062517 0.114571 0.081807 -0.052663 0.078394 -0.095584 0.184541 0.020239 -0.301689 0.151584 0.067082 0.282269 0.014311 -0.087416 0.433785 0.058862 -0.140977 0.209916 0.010967 -0.065220 -0.183326 -0.101608 -0.159659 -0.033804 -0.055284 -0.050220 -0.153466 0.002594 0.018238 -0.009161 -0.225080 0.147254 0.207838 0.127921 -0.032032 -0.150979 -0.121347 -0.211203 0.145531 0.069330 0.047220 -0.141232 0.013575 -0.064484 0.354438 0.178968 
baEoD -0.005540 -0.104791 0.045758 -0.083483 0.061457 0.049467 0.199977 -0.034418 0.251112 -0.020681 0.296526 -0.064092 -0.248005 0.320300 0.081448 0.184383 -0.022125 -0.136128 0.398025 -0.017594 -0.090827 0.085508 -0.338239 -0.201164 -0.249708 0.013480 -0.149841 0.171094 0.071408 0.155790 -0.301090 0.078377 -0.281756 0.030457 -0.001928 0.030660 -0.105723 -0.167839 -0.074985 -0.058174 0.046251 0.116044 -0.064601 -0.274658 -0.099859 -0.288594 -0.034645 -0.036005 0.131188 0.195674 
lam~aA -0.010640 -0.105557 -0.228949 -0.216190 0.095139 0.260533 0.067075 0.212666 0.262339 0.312308 -0.054498 0.072384 0.077901 0.182990 0.161505 -0.066208 0.150515 -0.048069 0.014852 -0.125447 -0.053425 -0.039062 0.183498 -0.302166 0.021041 -0.192824 0.188278 0.117061 -0.047633 -0.058742 -0.280169 0.334319 -0.204959 0.012267 -0.136157 0.084363 0.077783 0.006321 -0.051897 -0.031972 0.018549 0.051298 0.181910 -0.281142 -0.037762 -0.146063 0.184872 0.091084 0.179572 0.114958 
A^xir 0.222753 -0.083640 -0.118030 -0.081098 0.064788 -0.156334 0.172453 -0.162416 0.184842 0.054532 0.197209 -0.065688 -0.297234 0.204668 0.054497 0.001482 0.191428 -0.169746 0.358640 -0.178448 0.008800 0.104555 -0.092587 0.042012 0.132030 0.065927 -0.203342 0.090277 -0.062219 -0.034993 0.090800 -0.117172 0.099374 -0.073094 -0.047388 0.097483 0.079614 0.044926 -0.162217 -0.193805 -0.042714 -0.162546 0.032854 -0.055418 0.043654 -0.034395 0.129762 0.044786 0.250710 0.190887 
>ay~uhaA 0.153536 -0.072870 -0.006507 -0.260239 0.020182 -0.039839 0.057301 -0.079053 0.179583 -0.047302 0.273286 -0.120589 -0.077841 0.006179 0.055048 0.282418 0.057383 -0.399624 0.373669 -0.047143 -0.195498 0.213948 -0.019797 -0.166010 -0.077670 -0.097907 -0.162176 -0.038555 0.139382 -0.126644 -0.068325 -0.114641 -0.063411 -0.016942 -0.168617 0.216709 0.118029 0.050638 0.078590 -0.086074 -0.070690 -0.032561 0.070064 0.140850 -0.027790 -0.127174 0.145048 0.164368 0.138953 0.239709 
gayor 0.340225 0.209904 -0.238280 0.008534 -0.141850 -0.009763 0.090030 -0.156661 0.180126 0.136631 0.429651 -0.134904 -0.184946 0.451906 0.290115 0.042329 -0.084260 -0.061095 0.077945 -0.419381 -0.132676 0.025340 0.113060 -0.179954 -0.073454 -0.183935 0.134960 0.007623 0.000086 0.087552 -0.201532 0.071169 0.006764 -0.080220 0.120368 0.230177 -0.024245 -0.003610 0.040594 0.221841 0.110471 0.102643 0.060063 -0.006149 0.162321 0.095867 0.126743 -0.021812 -0.150698 0.228623 
jan~ap 0.180023 -0.206462 -0.359103 -0.071179 -0.052502 0.150348 0.110394 0.043423 0.023082 0.341720 0.320062 0.071429 -0.241500 0.332952 0.167342 -0.058391 -0.025778 -0.081369 0.229030 -0.187945 -0.006967 -0.037751 -0.138815 -0.206215 -0.150805 -0.116572 0.070322 -0.050003 0.147432 0.002272 -0.054905 0.102230 0.048612 -0.030787 0.029680 0.011222 0.116010 -0.001236 -0.177156 0.103194 -0.020501 0.317551 0.159472 -0.168974 -0.214048 -0.002769 0.128810 0.171098 -0.050576 0.157507 
<ila`h -0.108376 0.089488 -0.056508 -0.037054 0.085442 0.145002 0.221636 0.008245 0.146850 0.293433 0.201600 -0.005858 0.025337 0.083573 0.137910 0.064821 0.204745 -0.000376 -0.064074 -0.082946 0.086709 -0.027057 -0.022651 -0.128116 -0.072060 0.028573 -0.062790 0.037747 -0.027792 0.078347 -0.093817 0.052990 0.030239 -0.004416 0.086139 0.110961 0.044661 0.037062 -0.030834 -0.016304 -0.073125 0.122739 0.022739 -0.296954 -0.044510 -0.087730 0.077308 0.019177 0.021573 0.081794 
naAr 0.162236 -0.084563 -0.116530 -0.129080 -0.017123 0.053283 0.177295 -0.155660 0.186065 0.171550 0.201601 -0.023451 -0.099008 0.247584 0.363235 0.041519 0.111338 -0.204930 0.247678 -0.072174 -0.133458 0.096327 0.037069 -0.132867 0.017168 0.075063 0.211421 -0.041543 0.061690 0.215212 -0.266887 -0.243004 0.062147 0.148471 0.196902 0.048062 0.036610 0.070645 -0.061139 -0.126843 -0.050732 0.187517 0.006733 -0.321866 -0.089363 -0.088377 0.277601 -0.115823 -0.020998 0.008395 
hadaY 0.024978 0.082995 -0.268350 -0.054142 0.099305 0.254004 0.096704 -0.055654 0.272760 0.194596 0.270462 0.189001 -0.108479 0.076558 0.030188 0.022142 0.058243 -0.043730 0.316698 -0.093652 0.129001 0.033496 -0.029542 -0.151458 0.198577 -0.032755 0.001076 -0.098856 0.163331 0.031265 -0.215633 0.173885 0.135303 0.026234 -0.189811 0.061731 0.025432 0.154952 0.010558 -0.052004 -0.167396 0.176801 0.070346 -0.198731 0.031236 -0.121586 0.041253 -0.105906 0.133973 0.011190 
duwn -0.048658 -0.210239 -0.044719 -0.039900 0.243408 -0.010878 -0.033156 0.017376 0.111838 0.154774 0.186378 -0.150101 -0.275740 0.151090 0.175704 0.166366 0.122737 -0.152869 0.130924 -0.070012 0.150993 -0.060150 -0.042821 -0.183864 -0.079457 0.003834 0.059285 0.069233 0.015084 0.030114 -0.132432 -0.165803 -0.050304 0.162082 -0.058508 -0.031018 -0.071508 0.148531 -0.040052 -0.224557 0.117215 0.034478 0.019318 -0.155000 -0.043264 -0.056995 0.143169 0.185170 -0.056434 0.010420 
Hat~aY` -0.123211 0.147271 -0.061427 -0.131215 -0.000313 -0.108833 -0.043496 0.043673 0.368448 0.168711 0.303862 -0.075264 -0.014006 0.224887 0.070135 0.182942 0.104804 -0.271709 0.215079 -0.043120 -0.293083 0.273025 0.113780 -0.135284 0.059094 -0.067576 -0.215505 0.001810 -0.129876 0.002472 0.038417 0.011429 -0.026364 -0.054102 -0.130445 0.247720 0.138820 0.179126 -0.052130 -0.228032 -0.136251 -0.066340 0.136437 0.087588 0.044258 -0.114989 0.221658 -0.029759 0.016644 0.059572 
>araAda -0.085462 0.111638 -0.012802 -0.007098 -0.289961 -0.014156 -0.220934 0.093719 0.223401 0.200109 0.312552 -0.210209 -0.063422 0.178616 0.157615 0.078956 0.026062 -0.284364 0.020366 -0.045560 -0.206785 0.003157 0.253325 -0.273453 -0.126721 -0.193665 -0.172742 -0.002541 -0.079788 -0.232596 0.052956 -0.118894 0.101311 0.041438 -0.219639 0.417006 0.299383 0.040511 -0.107006 -0.173386 -0.061150 -0.025937 0.210825 -0.046953 0.117488 -0.063857 0.190620 -0.142997 0.132472 0.011935 
>am 0.028574 0.109296 -0.220929 -0.151674 0.076337 0.020326 0.121525 -0.188445 0.071459 0.125763 0.150140 -0.149382 -0.087487 0.234097 0.317457 -0.031006 0.001575 -0.007578 -0.025420 -0.364973 -0.243846 0.067169 -0.036690 -0.079794 -0.108296 0.055989 0.128675 -0.136267 -0.065837 0.168089 -0.218485 0.197314 0.045612 0.019503 0.124000 -0.128338 0.103448 0.067833 -0.102477 0.025907 -0.030573 -0.002135 0.023723 -0.204098 -0.033354 -0.036792 -0.019995 0.138144 0.059880 0.229692 
muwsaY` 0.096798 0.161561 -0.281513 -0.259471 0.265990 -0.040420 0.109402 0.102239 0.249191 0.518246 0.127274 -0.036190 0.222792 0.028616 0.305271 -0.097316 0.045533 0.002786 -0.179037 -0.074282 -0.190965 -0.023824 0.213583 -0.010949 -0.091235 0.023074 -0.065706 0.144202 -0.001863 0.164594 -0.299545 0.164417 -0.215291 0.072275 -0.058394 0.109111 0.021429 0.175796 -0.195595 -0.297432 0.081749 0.006742 0.096612 -0.358095 -0.028710 -0.288928 0.325587 0.009683 0.092650 0.009839 
{t~abaEa -0.003068 0.112616 0.013786 -0.039905 0.101713 -0.100733 0.112280 -0.135548 0.301725 0.036463 0.207735 -0.066446 -0.141381 0.084061 0.128687 -0.084588 0.040615 -0.146795 0.006716 -0.152467 0.016491 0.134714 -0.195418 -0.078612 -0.032327 -0.182332 -0.130954 -0.049133 0.148218 0.051830 -0.131018 -0.058348 0.161297 0.043501 -0.063446 0.016136 -0.023799 0.140271 -0.027895 -0.109238 0.016893 -0.084345 -0.141701 0.099136 -0.087298 -0.102548 0.015664 0.165879 0.120668 0.194463 
qalob -0.117078 -0.149951 0.044844 -0.201015 0.051060 -0.160150 0.157471 -0.161933 0.124384 0.171599 0.050080 0.063009 -0.207041 0.135341 0.083681 0.003902 0.128012 -0.109372 0.307588 -0.097056 0.072783 0.075754 0.065717 -0.075872 -0.147714 -0.093649 -0.150510 0.122231 0.084231 0.003848 -0.067754 0.038477 0.126391 0.032903 -0.167785 0.061359 0.162730 0.249603 -0.095865 -0.456287 -0.113223 -0.060219 0.176249 -0.080437 -0.047561 0.017747 0.072720 0.164857 0.189567 0.276948 
Eabod 0.035407 0.131531 -0.143064 0.062773 -0.177598 0.042864 0.101662 -0.123097 0.152606 0.183627 0.234983 -0.030168 0.049012 0.036676 0.070610 -0.051336 -0.062536 -0.066053 0.170273 -0.040928 -0.265993 0.161814 0.106687 -0.008296 0.069171 -0.044764 -0.002621 -0.080172 0.136109 -0.023054 0.191391 -0.039582 -0.041312 -0.074527 -0.207018 0.096444 0.062625 0.206380 -0.020234 -0.343632 -0.026147 0.088649 0.093754 -0.273687 -0.013118 -0.283471 0.158041 0.031176 0.198448 -0.058069 
>arosala -0.181297 -0.095717 -0.045706 0.008351 0.211312 -0.111368 0.090774 0.041679 0.121815 0.311051 0.203777 -0.050447 0.071166 -0.049302 -0.012093 0.006053 0.041008 -0.014166 0.056309 -0.071829 -0.014595 0.006729 -0.003480 -0.234528 -0.033708 0.155016 0.200799 -0.032047 -0.059048 0.047075 0.043668 0.192526 -0.093450 -0.082543 0.042011 -0.099276 0.081356 0.043087 -0.075407 -0.178613 0.036102 0.060694 0.036335 -0.215514 -0.028015 -0.012561 0.121642 0.019318 0.118693 0.033603 
ka`firuwn 0.060055 -0.010903 -0.134270 0.025392 0.006213 -0.151565 0.022503 0.029888 0.139811 0.075158 0.264846 0.131894 -0.160974 0.114011 0.065147 0.190153 0.151751 -0.130179 0.323721 -0.090694 -0.062697 -0.054949 -0.012133 -0.084162 -0.010170 -0.148178 -0.204857 0.010750 -0.085445 -0.011651 -0.131414 -0.014464 -0.037906 -0.031662 -0.087216 0.148383 0.066660 0.095818 -0.117499 -0.193470 -0.115834 0.054476 0.108823 0.005258 0.064320 -0.059798 0.011416 0.096133 0.133715 0.172786 
ZaAlim -0.130231 0.026540 -0.192619 -0.076519 0.089990 0.150841 0.144494 -0.023534 0.031927 0.282284 0.118662 0.035628 -0.095368 0.115727 0.113472 -0.143671 0.157170 -0.030876 0.199616 -0.051717 -0.065469 -0.049022 0.127071 -0.147137 -0.122736 -0.037617 0.180364 -0.048176 0.031216 -0.076114 -0.108026 -0.010407 0.108784 0.016575 -0.127547 0.111320 0.160859 0.152889 -0.180833 -0.157475 0.070284 0.041699 0.242879 -0.218640 -0.093270 -0.138837 0.230980 -0.014954 0.197557 -0.032626 
>axa*a 0.102799 -0.003453 -0.229084 -0.147944 0.093707 -0.166128 -0.032441 -0.038170 0.188774 -0.003744 0.210546 -0.114207 -0.168825 0.028683 0.020464 0.153695 0.074338 -0.247634 0.112480 -0.100725 -0.056596 0.109870 0.152405 -0.059396 -0.061257 -0.264629 -0.122431 0.080794 -0.073275 0.079085 0.008713 0.025789 -0.181010 0.032436 -0.072890 0.224199 0.148151 0.175084 0.017765 -0.323936 -0.030070 -0.053814 0.252033 -0.044358 0.034586 -0.070439 0.079888 0.189502 0.113397 0.070227 
bal -0.015560 -0.146866 0.013549 -0.055254 -0.021743 0.106474 0.213433 -0.039664 0.141439 0.218227 0.196974 0.016709 0.072786 0.024962 0.179192 -0.166977 0.107480 -0.085072 0.244147 -0.105958 -0.042189 -0.046555 -0.086127 -0.235473 -0.002910 -0.137231 0.050151 0.110873 0.019101 0.159048 -0.232881 -0.075310 -0.201690 0.066649 0.133966 -0.123993 -0.132133 0.012183 -0.060898 -0.077799 -0.095600 0.087627 0.216281 -0.165842 0.022320 -0.070771 0.063352 -0.017849 0.079970 0.070416 
>ahol -0.153904 0.122379 0.069458 -0.089756 0.176648 -0.125934 0.134918 -0.080745 0.060990 0.127429 0.039212 0.029880 -0.020035 0.048649 0.153151 0.147431 0.068740 -0.031753 0.097910 -0.143290 -0.228248 0.187942 0.171210 -0.172632 -0.142169 -0.076806 -0.144216 0.198763 -0.079948 -0.008749 -0.026313 0.010471 -0.028524 -0.169519 -0.098090 0.253784 0.174951 0.287875 -0.078648 -0.208241 -0.078379 -0.083178 -0.001252 -0.051606 -0.062180 -0.281756 0.239513 0.004429 0.178171 0.243782 
{t~axa*a 0.008043 -0.069972 -0.067488 -0.018423 0.069432 -0.016318 -0.020485 -0.136700 0.110607 0.156322 0.230170 -0.125466 -0.213681 0.101179 0.156855 -0.046294 0.021065 -0.018474 0.191336 -0.226489 -0.016144 -0.093738 0.012336 -0.024699 0.005478 -0.110696 0.026184 -0.069976 0.013234 0.102151 -0.144972 -0.029880 0.122384 -0.005200 0.057759 0.041262 -0.117392 0.277845 -0.206403 -0.210919 -0.032634 -0.093990 0.078375 -0.177463 0.152537 -0.120233 0.055821 0.048982 0.092526 0.002405 
laEal~ 0.090851 0.090673 -0.056881 -0.009592 0.040512 0.147544 -0.079267 -0.066347 0.166157 0.093837 0.346132 -0.089500 -0.130647 0.144163 0.159505 -0.134951 0.065704 -0.054561 0.151450 -0.293717 -0.109329 0.224939 0.195959 -0.162397 0.135088 -0.228841 -0.015834 -0.134880 0.115143 -0.084807 -0.076321 -0.105862 0.053572 0.170227 -0.158625 0.056401 -0.032610 0.305817 0.152617 -0.141210 0.017698 -0.043839 0.060122 -0.160505 0.104307 -0.363335 0.383312 0.057915 -0.084354 -0.022133 
Eabada 0.104269 0.056045 0.100978 0.119214 0.009833 -0.107349 0.011650 0.147980 0.101727 0.215854 0.207425 -0.098330 -0.259264 -0.015032 -0.038478 0.028181 0.101914 -0.158759 0.030570 -0.051458 -0.060727 0.210279 -0.012702 -0.139556 0.050505 -0.055359 0.038864 -0.114271 0.058514 0.142891 -0.051113 0.120175 0.037818 -0.044947 0.105473 0.012806 0.032931 0.231696 0.013254 -0.040476 0.026264 0.109247 0.186208 -0.004882 0.168030 -0.133747 0.031022 -0.014729 -0.062675 0.085696 
EaZiym 0.265664 -0.250281 -0.085790 -0.248846 -0.010034 -0.091332 0.001628 -0.276513 0.141719 0.177736 0.260112 -0.042012 -0.207431 0.119685 0.065035 0.106931 0.083212 -0.163333 0.220944 -0.067393 0.037894 0.043711 0.060853 -0.119116 -0.023362 -0.103811 -0.270793 -0.100117 0.249453 0.106425 -0.018547 -0.062366 0.129336 0.076755 -0.075243 0.106993 0.185986 0.189863 -0.149658 -0.186896 -0.125781 -0.105010 -0.059374 -0.193099 -0.093623 0.038158 -0.038745 0.084273 0.069479 0.216721 
yad 0.065069 -0.120580 -0.250495 -0.089113 0.004030 0.033361 0.148316 -0.100477 0.195173 0.278890 0.370931 0.102884 -0.033327 -0.023305 -0.056510 0.195337 0.262776 -0.192660 0.258045 -0.137464 0.053938 0.086410 0.217548 -0.167817 0.004393 -0.251589 -0.074172 0.075675 0.078677 -0.054698 -0.017740 -0.005728 0.001495 -0.089810 -0.092735 0.094202 0.142728 -0.042301 -0.047199 -0.090567 -0.127873 0.109846 0.174398 0.052052 0.140250 -0.193237 -0.030664 0.295956 0.172525 0.191864 
m~ubiyn 0.046820 0.091353 -0.088810 -0.076590 0.010405 -0.093366 -0.076625 0.051872 0.046327 0.228595 0.081341 -0.106099 -0.093054 0.100347 0.114552 0.007653 0.203960 0.047318 0.125335 -0.118274 -0.044430 0.032354 0.027608 -0.063338 -0.038210 -0.074618 0.022849 0.144499 -0.076686 0.055705 -0.284520 0.078846 0.025569 0.079507 -0.098101 0.007424 0.030852 0.167837 -0.141072 -0.222543 -0.077298 -0.082592 0.162217 -0.085072 -0.030128 -0.116304 0.032251 0.041787 0.062642 0.081781 
r~aHiym 0.248922 0.208357 -0.120368 -0.157159 -0.075662 0.193477 0.086036 -0.085300 0.330182 -0.073516 0.521206 0.011507 -0.193380 0.263851 -0.011463 0.091150 0.071013 -0.105007 0.236463 0.008508 -0.068757 0.088626 -0.107042 -0.107638 0.086349 -0.173315 -0.016765 -0.043812 -0.144874 0.140816 0.194211 -0.218864 0.025176 -0.101323 -0.175950 0.107739 0.309107 0.055010 -0.016977 0.054300 0.031501 -0.117811 -0.068411 -0.084180 0.100535 -0.006122 0.121730 -0.088472 0.105240 0.372176 
d~unoyaA 0.269101 -0.157053 0.018524 -0.138570 0.015256 -0.076539 0.131404 0.019677 0.198342 0.178772 0.230350 -0.090449 -0.303036 0.100042 0.130044 -0.110271 0.171917 -0.157338 0.377005 -0.012523 0.029148 0.089433 -0.301382 -0.167368 -0.009048 0.214081 -0.274316 0.018863 -0.055778 -0.015241 0.180722 -0.039703 0.231072 -0.136830 -0.080110 0.053502 0.138310 0.237085 0.061518 -0.235924 -0.092265 0.150939 -0.013551 -0.157578 -0.116759 -0.267076 0.000227 0.073503 0.172761 0.220758 
raHomap -0.001356 -0.034922 0.026555 -0.050057 -0.111314 -0.047189 0.052880 -0.076810 0.238066 0.159965 0.338779 -0.135859 -0.036350 0.028446 0.104686 -0.101132 0.067950 -0.220950 0.078142 -0.030157 0.033745 0.139036 -0.019916 -0.059907 0.086122 -0.047647 -0.064247 -0.226558 0.201941 0.115650 0.043224 0.059314 0.061931 0.024537 -0.052066 -0.020398 -0.084207 0.302615 -0.085269 -0.267508 -0.158833 -0.044826 0.034218 -0.098608 -0.042932 -0.114542 0.120368 0.057665 0.073290 0.075822 
Zalama 0.139850 0.098453 -0.221875 -0.122548 -0.029586 -0.026170 0.163502 -0.184262 0.079540 0.213369 0.072151 0.090863 0.009385 0.121677 0.278140 -0.097146 -0.041931 -0.100533 0.161805 -0.089399 -0.019593 0.176919 0.066442 -0.024335 -0.143848 0.060441 -0.115762 0.142491 0.166117 0.129495 -0.340831 0.026204 0.158479 0.111715 0.086102 0.017907 -0.063514 0.318530 0.018427 -0.091472 0.122507 -0.051020 0.039402 -0.147143 0.002910 -0.147821 0.123460 -0.113880 0.060960 0.054030 
lan -0.013957 -0.029577 -0.052665 -0.123113 0.020772 0.002259 0.086310 -0.148050 0.101652 0.177498 0.130113 -0.076001 -0.227181 0.089017 0.092816 -0.121221 0.160199 -0.222720 0.185929 -0.176034 -0.144080 0.011279 0.066770 0.013293 -0.010439 -0.216110 0.022382 0.058255 -0.110920 0.296246 -0.007428 0.107905 -0.093971 -0.096323 -0.146866 0.097636 -0.075504 0.136848 -0.233922 -0.090678 -0.023088 -0.054887 0.088153 -0.128427 0.104409 0.035935 0.105333 0.012415 0.167756 0.177699 
sa>ala 0.037496 -0.076162 -0.049641 -0.099252 0.027269 -0.013923 0.130895 -0.110211 0.266826 -0.126623 0.075599 -0.042391 -0.001237 0.048004 0.176191 0.111973 0.013482 -0.096620 0.303608 -0.045531 -0.098111 0.279441 -0.041382 -0.049013 -0.012984 -0.173551 -0.131931 0.106363 0.107684 -0.043788 0.146872 -0.257826 -0.050803 -0.096806 0.110092 0.127311 0.270843 -0.025194 -0.053657 -0.155751 0.007522 0.056247 0.101437 0.009412 0.035915 -0.267241 0.209703 0.005420 0.191392 0.337052 
wajada -0.188787 0.176378 -0.048972 -0.070316 0.015594 -0.218105 0.031009 -0.125509 0.066999 0.119819 0.381850 0.172264 -0.134789 0.209804 0.170819 0.121382 -0.057470 -0.342041 0.105008 -0.271822 -0.149955 0.273331 0.142388 -0.305448 -0.186619 -0.227550 -0.164183 -0.012907 -0.119926 0.002465 -0.009247 0.044808 0.045211 -0.101052 -0.168192 0.071613 0.193442 0.154802 -0.070215 -0.072526 -0.058886 -0.034918 0.143897 0.026903 0.212439 -0.070329 0.093006 -0.035298 0.063651 0.238645 
Eilom -0.007497 0.023212 -0.270737 -0.169099 0.138218 0.155655 0.102027 -0.107208 0.144697 0.026075 0.057072 0.010429 0.024508 0.109702 0.163049 0.014479 0.085007 0.062792 0.273415 -0.138303 0.023450 0.181000 -0.233442 -0.246351 0.015093 0.092658 0.004243 0.056462 0.046174 0.116736 -0.135336 0.109731 0.033241 0.104831 -0.025169 -0.010676 0.103561 -0.067783 -0.054773 -0.028615 -0.106128 -0.103616 -0.079191 -0.119099 -0.175666 -0.143897 -0.025367 0.135249 0.112513 0.135106 
>ajor 0.222878 0.049801 0.054135 -0.140403 0.098314 0.072892 -0.007006 -0.169205 0.140310 -0.080822 0.381407 -0.171833 -0.309571 0.312336 0.093583 0.223039 0.101312 -0.090056 0.341154 0.125184 -0.169366 -0.001386 -0.097768 -0.201042 -0.198449 -0.134938 -0.082161 0.162229 0.002883 0.049689 0.137504 -0.416420 -0.013761 -0.119500 -0.051481 0.491200 0.427734 0.090344 -0.152151 -0.059775 0.112882 0.019051 0.040178 -0.010072 -0.074222 -0.103406 0.114165 -0.112686 0.033356 0.528365 
Eaziyz 0.045454 -0.072208 -0.108908 -0.065470 0.070854 -0.074253 0.043281 0.123235 0.177782 0.305172 0.108423 0.005168 0.032837 0.109949 0.020751 0.136437 0.120849 -0.083255 0.178401 -0.048947 0.003584 0.140464 0.108423 -0.178815 -0.062677 0.015526 -0.028231 0.118235 -0.117446 -0.057549 -0.187832 0.081211 0.108330 -0.093907 -0.029972 0.046637 0.131361 0.116174 -0.155555 -0.206479 0.021528 0.096943 0.057445 -0.047978 -0.010612 -0.031279 -0.089929 -0.014380 0.159424 0.085683 
>axoraja 0.363189 -0.005429 -0.538370 -0.474475 -0.066323 0.104238 0.397133 0.027323 0.281230 0.279745 0.113323 0.039143 -0.256104 -0.126032 0.222663 0.024806 0.223643 -0.038054 0.278271 -0.002714 -0.031987 0.032260 -0.051865 -0.081977 0.105102 -0.028638 -0.121879 -0.091213 0.146058 0.216723 0.017332 0.231496 0.205891 0.041644 -0.049540 -0.008317 0.073934 0.212550 -0.234439 -0.079850 -0.285504 0.057319 0.065560 -0.103812 -0.210922 0.063217 -0.024923 0.257292 0.103532 0.209889 
Hakiym 0.169673 0.184792 -0.105332 -0.214801 0.149617 0.007428 0.119719 -0.154199 0.025835 -0.139965 0.224963 -0.039170 -0.236639 0.218375 0.101110 0.185769 0.116319 -0.110588 0.379651 -0.058450 -0.194482 0.186655 0.012753 -0.123427 -0.192087 0.032051 -0.153070 0.129712 0.072919 -0.117036 -0.144579 -0.152338 -0.029238 0.118005 0.011244 0.227237 0.203517 -0.003565 0.093248 -0.096146 -0.013727 0.015541 0.025342 0.129716 -0.046360 -0.086211 0.109622 -0.101120 0.171840 0.168405 
>akala 0.316190 0.077500 -0.221075 -0.174478 -0.194465 0.222860 0.048587 -0.038655 0.227611 0.179332 0.421129 0.066220 -0.053213 -0.015253 0.096358 0.045823 0.183747 -0.189236 0.423042 -0.298462 -0.288985 0.302669 0.156629 -0.261185 0.267259 -0.255775 0.526445 -0.088262 0.024864 0.030330 -0.358098 -0.072208 0.066002 -0.135832 0.052413 -0.046671 -0.091532 0.013241 0.071492 -0.021796 0.167507 -0.041588 0.012955 -0.122238 0.220433 -0.030351 0.076208 0.268777 -0.132890 0.133390 
*uw 0.046448 -0.212236 -0.175164 -0.165477 0.015293 -0.170091 0.332949 -0.044695 0.081711 0.208834 0.188836 0.148503 -0.120921 0.109592 0.092838 0.088962 0.003766 -0.371396 0.199300 -0.155987 -0.086403 0.074835 -0.102976 -0.095405 -0.172712 -0.032536 -0.317397 -0.105004 -0.186559 0.175830 0.056559 0.113138 -0.047593 -0.041918 -0.223377 0.081610 -0.080673 0.156151 -0.263032 -0.047307 -0.252642 0.087834 0.011236 -0.057459 0.018539 -0.072469 0.171976 0.028749 0.163254 0.049536 
hal 0.097154 -0.020053 -0.176626 -0.074694 0.128947 0.047905 0.255192 -0.138879 0.076114 0.135624 -0.006560 0.049220 0.036977 0.201425 0.163319 0.197225 0.187580 -0.087814 0.258180 0.087126 -0.117964 0.173444 -0.022359 -0.133680 -0.212648 0.139411 -0.067527 0.118155 0.019982 0.183810 -0.120586 -0.077843 0.068196 -0.055538 -0.110705 0.042925 0.135527 0.153092 -0.149763 -0.113687 -0.046016 0.160834 -0.008105 -0.132326 -0.011964 0.045383 0.101081 0.030487 0.171748 0.137505 
diyn 0.093250 0.186216 -0.295239 0.232795 -0.213453 0.106772 -0.145212 -0.002285 0.409832 -0.018349 0.489480 -0.037952 0.119333 0.267836 0.130861 -0.033201 0.091726 0.033210 0.101316 -0.068511 0.216679 0.112989 0.091512 0.002314 0.220039 -0.132087 0.017338 -0.010682 0.084420 0.131999 0.132572 0.070920 0.161559 -0.119174 -0.258174 -0.003584 0.154681 0.113078 -0.063572 -0.226811 0.148316 -0.025699 0.161040 -0.038957 0.311274 -0.205288 -0.062226 0.003418 0.146545 0.215204 
qawol 0.103010 0.078844 -0.027197 -0.053851 -0.008542 -0.041711 0.059985 0.039475 0.222276 0.064802 0.128212 -0.113920 -0.116060 0.095982 0.066866 0.162835 0.160562 -0.155293 0.095141 -0.026924 -0.191223 0.131165 0.126030 -0.102297 -0.026914 -0.091617 -0.020312 0.212413 -0.099468 0.046361 -0.126874 0.083076 -0.047336 -0.084306 -0.119670 0.166148 0.010315 0.143995 0.035811 -0.276021 -0.063299 0.019598 0.109926 -0.173944 0.022933 -0.191407 0.083914 0.096883 0.127860 0.149294 
gafuwr 0.137989 0.273991 0.056342 -0.191367 -0.090113 -0.008491 -0.099432 -0.083915 0.265657 -0.017632 0.465440 -0.200677 -0.139014 0.132358 -0.001917 0.179603 0.104416 -0.259305 0.160851 -0.045655 -0.125435 0.131610 0.094341 -0.151399 0.023419 -0.343908 -0.105263 0.050945 -0.086176 -0.096737 0.115660 -0.282577 -0.015065 -0.058138 0.044298 0.424108 0.314957 0.008163 0.088105 -0.099223 0.081792 -0.010856 -0.008015 0.017249 0.098076 -0.056879 0.012898 -0.146281 -0.004131 0.250428 
l~ayosa 0.028648 0.058854 -0.157178 -0.352889 0.047447 0.064371 -0.067013 -0.030386 0.271786 0.032557 0.291552 -0.435498 -0.116190 0.091016 -0.139029 0.229372 -0.061188 -0.466715 0.330490 -0.120909 -0.156521 0.182619 -0.059963 -0.137975 -0.035310 0.027163 -0.031920 0.087028 0.165279 -0.219912 -0.238291 -0.072766 -0.000047 0.050109 0.038317 0.283708 -0.063950 -0.111298 0.004069 -0.219914 0.235122 0.116623 0.054850 0.001007 -0.009185 -0.097363 0.024806 0.078960 0.062119 0.089934 
$ayoTa`n 0.064941 0.168993 -0.137249 -0.088980 0.115541 -0.014892 0.083190 0.024747 0.161685 0.033315 0.160444 -0.024691 -0.185901 0.306145 0.117213 -0.008798 0.053725 -0.071417 0.130021 -0.187224 -0.180597 0.187513 -0.086553 -0.173142 -0.138070 -0.087736 0.011959 0.198023 -0.095438 0.159030 -0.163835 -0.008214 -0.090641 0.000220 -0.050314 0.010708 -0.192857 0.102210 -0.152746 -0.117706 -0.027812 -0.148346 -0.037535 -0.026373 -0.065869 -0.109777 -0.020325 0.094890 0.170951 0.148327 
maval 0.067700 -0.008253 -0.354198 -0.092949 0.029022 0.170724 0.174548 -0.144935 0.357861 0.140394 0.076386 0.064954 -0.104528 0.315828 0.213963 -0.115816 0.068851 -0.165090 0.517816 -0.115177 0.042864 0.051429 -0.040230 -0.229030 0.174931 -0.072360 -0.104898 -0.089651 0.105437 0.058618 -0.075114 -0.155666 0.041780 0.328780 -0.037266 -0.067105 -0.122548 0.149243 -0.159097 -0.080873 -0.142678 0.160473 0.035368 -0.342851 -0.124146 0.056234 0.143276 -0.275918 0.195708 -0.074987 
faEala 0.005567 0.150306 -0.045546 -0.080947 0.148633 0.079941 0.164972 -0.205636 0.148059 -0.087207 0.014361 0.009774 -0.031267 0.134458 0.084401 -0.004902 0.075800 -0.141165 0.329079 -0.092014 -0.100497 0.190897 0.107924 -0.096875 -0.019237 -0.150776 -0.187805 0.095080 -0.022686 -0.061219 -0.109758 0.069676 0.095041 -0.021147 0.007760 0.238082 0.044320 0.176569 0.038849 -0.313948 0.014529 -0.062436 -0.061883 0.073447 0.018352 -0.184653 0.026756 0.104772 0.134640 0.088911 
malak 0.110108 -0.187345 -0.049707 0.045726 -0.057818 0.090708 -0.029866 -0.065812 0.107468 0.151089 0.130300 -0.042748 -0.172381 0.132233 0.219852 -0.130567 0.143055 -0.207393 0.338898 -0.167337 -0.053483 -0.021179 -0.002649 -0.013047 0.065374 -0.097089 0.036949 0.015372 0.052574 0.165294 -0.253499 0.127603 0.004224 0.043969 0.050528 0.043605 0.012779 0.154203 -0.157367 -0.195686 -0.022067 -0.156863 0.170085 0.043544 0.060644 -0.030061 0.168345 0.141305 0.139338 0.190959 
n~aZara 0.006243 -0.095929 -0.239512 -0.048810 0.058586 0.035059 -0.020536 -0.128207 0.320193 0.349715 0.197273 -0.096237 -0.012253 0.140714 0.105115 -0.098983 -0.097751 -0.135799 0.080126 -0.148741 0.076947 0.114934 0.031905 -0.135604 0.015182 -0.016756 0.037430 -0.093511 0.152018 0.020447 0.073117 -0.061873 0.128234 0.010375 0.108228 -0.019506 0.057318 0.115619 0.052860 -0.250283 -0.020814 0.178969 0.110648 -0.174109 0.037158 -0.119079 -0.140604 0.133255 0.141132 0.166597 
waliY~ -0.208149 0.053170 -0.018834 0.005159 0.114438 0.055862 -0.075380 -0.087811 -0.011725 0.079759 0.142617 -0.198948 -0.144117 0.264943 0.135455 0.004232 0.065125 -0.270257 0.323755 -0.145802 0.087081 0.114986 -0.149095 -0.216121 -0.221294 -0.154590 -0.097092 -0.005027 0.032264 0.023040 -0.108001 0.075749 0.056280 -0.029391 -0.048516 0.203778 0.009371 0.031983 -0.147467 -0.021261 0.000168 0.024188 0.088636 0.065278 0.000350 -0.071419 -0.191105 0.082729 -0.032149 -0.026961 
maAl -0.015475 -0.051685 -0.114560 -0.106686 -0.003350 -0.133151 0.064296 -0.156718 0.252159 0.046589 0.417365 -0.208272 -0.179695 0.285562 -0.032115 0.113623 0.131937 -0.209324 0.294828 -0.083046 0.030246 0.347487 0.001759 -0.241024 -0.038302 -0.118098 -0.306714 0.141790 0.013856 0.141788 0.018656 -0.337532 -0.005953 -0.044636 -0.326304 0.139901 0.087597 0.044316 -0.057622 -0.061924 -0.012574 0.073355 -0.128944 0.012394 0.015531 -0.246863 -0.012506 -0.237159 -0.133187 0.118575 
hudFY 0.007406 0.198659 -0.181708 -0.213950 0.052439 -0.134056 0.160228 -0.030828 0.300507 0.126109 0.194634 -0.065113 -0.006679 0.126701 -0.036719 0.108845 -0.000686 -0.121222 0.001425 -0.212726 -0.003278 0.027128 -0.015697 0.003771 -0.012907 -0.091470 -0.116088 0.128927 -0.009126 0.036225 -0.092638 0.169407 0.012325 -0.024960 -0.021169 0.041542 -0.108856 0.098622 -0.166210 -0.157091 -0.003941 0.012559 0.081742 -0.031638 -0.098015 -0.093476 0.040901 0.107549 0.158584 -0.044086 
*akara 0.101617 -0.035275 -0.063649 0.009657 0.030616 0.036972 0.157524 -0.036265 0.360807 0.157558 0.167485 0.013537 -0.020454 0.273253 0.042312 -0.030220 0.113270 -0.031078 0.058777 -0.029898 -0.096090 0.162800 -0.050118 -0.313784 0.049451 -0.049468 0.061440 0.141813 0.017262 0.109530 0.004023 -0.054061 -0.002940 -0.016666 -0.144771 -0.039573 0.031744 0.074382 -0.070281 -0.084634 -0.104980 -0.070003 -0.040505 -0.171243 0.209170 0.025210 0.197851 0.239327 0.090164 0.073287 
faDol 0.167866 0.014818 -0.125692 -0.078376 0.070063 -0.052402 -0.061690 -0.244808 0.227335 0.020213 0.489509 -0.265478 -0.294147 0.301236 -0.001539 -0.098306 0.080805 -0.139512 0.057934 -0.189221 0.158420 -0.051583 -0.146440 -0.158166 0.055022 -0.157256 -0.299326 -0.109215 0.073673 0.084289 0.132821 -0.277279 0.088610 0.077304 -0.060365 0.174727 -0.004304 0.136517 -0.147899 -0.043099 -0.098179 -0.122443 -0.169684 -0.159905 0.024249 -0.100382 0.239127 0.021575 0.039791 0.258536 
layol 0.060782 0.210830 -0.346839 0.007310 0.014961 0.234505 0.094350 0.158839 0.357045 0.072432 0.091627 0.086897 -0.001260 0.114730 0.155720 0.032788 0.173122 -0.258681 0.122236 -0.156309 -0.101777 0.135028 -0.247418 -0.196714 0.052560 -0.193895 0.209261 -0.121493 -0.145955 0.212740 0.284486 0.040154 0.087140 -0.079734 0.113860 -0.159672 0.104502 0.136169 -0.158890 0.028937 -0.238200 0.163618 -0.101821 -0.088324 -0.168113 -0.004395 0.019211 0.164890 0.204584 0.145065 
Salaw`p 0.078009 -0.006437 0.066170 -0.003347 -0.031430 -0.025022 0.084124 -0.122256 0.314625 -0.016282 0.429106 -0.080124 -0.316897 0.036255 -0.197618 0.232429 -0.039958 -0.122827 0.092345 -0.036256 -0.271117 0.238514 -0.224303 -0.205530 -0.190945 -0.180116 -0.032455 0.045878 0.043176 0.119199 0.113390 -0.019626 0.062657 -0.205981 -0.197869 0.291162 0.260203 0.144667 -0.102702 -0.031362 0.100338 -0.004287 0.037680 -0.155784 0.043868 -0.253637 0.015690 0.136185 0.149612 0.228235 
kayof -0.056250 0.127979 -0.252125 -0.090975 0.186581 0.011954 0.094219 0.024937 0.219007 0.199287 0.162910 -0.010109 0.006046 0.152383 0.101847 0.063825 0.096121 -0.123892 0.162500 -0.150356 0.182063 0.027895 0.197637 -0.223058 -0.070655 -0.228579 0.034037 0.082141 0.086866 0.092247 -0.065936 0.051606 -0.053233 0.090857 -0.057752 -0.006461 -0.025451 0.046889 -0.016546 -0.052264 0.052267 0.204834 0.191043 0.092478 -0.040454 -0.288715 -0.159478 0.035531 0.144414 -0.029799 
qatala -0.086742 0.113908 -0.160179 -0.192276 0.084324 0.103613 0.326108 -0.186051 -0.117199 0.075631 -0.003841 -0.095634 -0.087392 0.253912 0.001270 -0.088391 0.250482 -0.053803 0.328877 -0.284704 -0.160387 0.077180 0.167003 -0.051509 -0.113254 -0.189212 -0.153131 0.207946 -0.063469 -0.013310 -0.158263 0.033409 -0.057442 -0.103772 -0.103074 0.245881 -0.046431 -0.072767 -0.319325 -0.186179 0.152611 -0.225330 0.203716 0.029022 -0.072987 -0.117581 0.176779 0.178978 0.208639 0.208010 
xaAfa 0.004553 0.188043 0.055646 0.052269 -0.126492 0.290171 0.146009 0.031814 0.088446 -0.171988 0.129217 -0.176717 -0.042003 0.242305 0.143323 0.056593 0.043705 -0.107886 -0.085259 0.023460 -0.328354 0.190864 0.177449 -0.174878 -0.196727 -0.250357 0.033435 0.030586 -0.129073 0.105297 0.082462 -0.121401 -0.249967 -0.113722 -0.211595 0.335348 0.109524 0.053213 0.072675 0.056496 0.189513 -0.159995 0.067739 -0.240404 0.037255 -0.276912 0.201573 0.085515 0.251781 0.176418 
>aw~al 0.139310 0.032880 0.031071 -0.176129 0.045384 -0.176569 0.222570 -0.025887 -0.093426 0.147869 0.247378 -0.076667 -0.211477 -0.053085 0.084030 0.128114 0.205176 -0.100096 0.292384 -0.064740 -0.101161 -0.015349 0.044035 -0.126762 -0.137368 -0.048284 0.006308 -0.013385 -0.097242 -0.003362 0.186038 -0.022140 -0.005480 0.017268 0.007312 -0.033142 0.153423 0.123808 -0.156807 -0.043257 -0.132377 0.265544 0.257072 -0.150735 -0.049980 -0.143226 -0.055218 0.029371 0.057557 0.059290 
bunaY~ 0.230424 -0.154826 -0.073739 -0.363007 0.230295 -0.088306 0.108142 -0.127847 0.075670 0.256183 0.297375 0.029786 -0.085601 0.052457 0.172652 0.034397 0.260180 -0.102945 0.312225 -0.152050 0.028726 -0.035814 0.031862 -0.198592 -0.219481 -0.198640 -0.175261 -0.058834 0.202684 -0.232558 -0.474834 0.084373 0.211693 0.256857 -0.062550 0.120283 0.015048 0.005450 -0.037151 -0.080610 0.137830 0.020032 0.039697 0.252495 -0.069032 -0.017928 0.121535 0.158872 -0.089056 -0.004813 
>akovar -0.070727 0.124309 -0.247303 -0.122388 0.108226 0.006910 0.036943 0.032188 0.200480 0.047375 -0.006433 -0.002807 -0.138885 0.371206 0.117664 -0.083242 0.170149 -0.074485 0.034681 -0.113697 0.100256 0.286850 -0.064069 -0.111707 -0.096615 -0.117090 0.034853 0.164959 -0.026107 0.159130 -0.058824 -0.063075 0.056742 0.017457 -0.024037 -0.084623 -0.041959 0.148083 -0.003526 -0.087109 -0.046814 -0.037418 0.051062 0.017256 0.122105 -0.000784 -0.022542 -0.075725 -0.050027 0.144903 
rajaEa -0.060502 -0.044686 -0.039966 -0.088732 0.057599 0.072918 0.381545 -0.108525 0.080612 -0.072082 0.106542 -0.027777 -0.024597 -0.046494 0.089355 0.177171 0.023230 -0.277966 0.415383 -0.124355 -0.356060 0.295172 0.018222 -0.345136 -0.028034 0.049974 -0.128202 0.095992 0.102593 -0.130445 -0.073310 -0.019114 -0.189601 -0.139609 -0.082642 0.104706 0.182601 0.076249 0.107482 -0.191727 -0.076274 0.066480 0.061565 -0.017245 -0.068334 -0.191051 0.216767 -0.012658 0.152403 0.338992 
>aSoHa`b 0.021264 0.099827 -0.149211 -0.093857 0.101341 0.087633 0.150825 -0.051404 -0.019730 0.199489 0.236112 0.030576 -0.043643 0.211559 0.243636 -0.106691 0.059387 -0.024402 0.284331 -0.077892 -0.026479 0.129171 -0.101465 -0.084659 0.006390 0.115810 -0.022504 0.058015 -0.058359 0.168491 0.053525 -0.018264 -0.216649 0.107004 0.002253 -0.154568 0.285260 -0.008440 0.037027 -0.026169 -0.040665 -0.039477 0.194534 -0.044801 -0.180262 -0.149667 0.120657 -0.203511 0.013993 0.090119 
tawal~aY` -0.046903 0.032293 -0.184736 -0.131797 0.173375 -0.015410 0.031643 0.007372 -0.143715 0.017783 -0.010388 -0.046465 -0.134207 0.082109 -0.089079 0.012986 0.159348 -0.221217 0.384725 -0.170217 0.031203 0.194112 -0.123421 -0.218629 0.051987 0.010551 -0.154901 0.050043 -0.012366 0.022163 -0.193156 -0.060730 0.014885 -0.103947 -0.039293 0.108651 0.070597 0.030525 -0.093142 -0.155444 0.073104 -0.012130 0.082264 0.021161 -0.064332 -0.035662 0.029809 0.141556 -0.008472 0.192825 
samiEa 0.119314 -0.013624 0.032968 0.050849 -0.183876 0.094606 0.082650 -0.156667 0.338439 -0.096115 0.352673 -0.086304 -0.180712 -0.023968 0.121229 0.176993 -0.008680 -0.389599 0.208061 0.108149 -0.216099 0.167495 0.096171 0.008486 0.088490 -0.042236 -0.029731 0.187339 -0.252073 0.268927 -0.101584 -0.130670 -0.070289 -0.112425 -0.008057 0.163786 -0.176785 0.133721 -0.004107 -0.414907 0.090589 -0.203557 0.018333 0.056487 0.011921 -0.036925 -0.056913 0.233512 0.230421 0.282702 
>amara -0.049546 0.203050 0.013012 0.066817 0.052452 -0.026250 0.076530 0.026268 0.092195 0.020611 0.073558 -0.047495 -0.253040 0.213809 -0.028328 -0.049117 0.117132 -0.062529 0.132577 -0.254714 -0.129318 0.169913 -0.013349 -0.099205 -0.031758 -0.272126 -0.097783 0.102233 0.043147 0.017548 -0.093027 0.074269 -0.087029 -0.164303 0.066291 0.198301 -0.036168 0.071040 -0.070743 -0.104312 0.064744 -0.048582 0.103744 -0.028561 0.018947 -0.197446 -0.044044 0.086790 0.166429 0.214673 
jahan~am 0.103380 0.022643 -0.073938 -0.366271 0.049609 -0.185218 0.241198 -0.078342 0.201744 0.334104 0.262185 0.167987 -0.330536 0.257525 0.022971 0.019025 0.104149 -0.114286 0.196913 0.008591 -0.054629 -0.096127 -0.116258 -0.015726 -0.015601 -0.060262 0.034579 0.077388 -0.142839 0.229917 -0.022388 -0.035245 0.021718 -0.075197 -0.060391 0.027977 0.207512 0.149308 -0.063155 -0.166324 -0.017960 0.091836 0.124955 -0.177847 -0.139912 -0.042899 0.156452 -0.115356 -0.022527 0.126004 
zawoj 0.390767 0.203944 -0.091917 -0.084994 0.203763 -0.004111 -0.024590 -0.145697 0.224590 0.014244 -0.093320 -0.247753 -0.261542 0.122130 0.243482 0.106523 0.045517 -0.151080 0.219128 -0.226466 -0.274918 0.065722 -0.092810 -0.279863 -0.192913 -0.153930 0.121726 0.203779 0.139201 0.003022 -0.109587 -0.117736 0.055571 -0.073568 -0.025343 0.323265 0.137185 0.070553 0.182904 -0.149321 0.087566 0.048737 -0.163388 -0.015157 -0.238689 -0.100078 0.030695 0.128217 0.181826 0.380646 
daxala 0.318875 -0.000246 -0.024839 -0.155791 0.078500 -0.017300 -0.169960 -0.064968 0.223541 0.192670 0.215278 -0.247864 -0.065142 0.184317 0.089321 0.044611 0.017284 -0.160153 0.148646 -0.115741 -0.222680 -0.090451 0.175478 -0.287401 0.010618 -0.228220 0.343791 0.168330 0.158787 -0.135091 -0.247266 -0.126247 -0.135248 -0.136580 0.119515 0.215411 -0.084490 0.015428 0.092017 -0.105525 0.129738 0.067503 0.077897 -0.321064 0.050149 -0.002879 0.231668 -0.098787 0.008554 0.185364 
Hayaw`p 0.148781 -0.044677 -0.082334 -0.050727 0.129868 -0.185458 0.039792 -0.111096 0.305416 0.364706 0.107616 -0.185820 0.046475 0.190067 0.087712 -0.049651 0.055051 -0.182392 0.224268 -0.093800 0.027496 0.001525 -0.208847 -0.137882 -0.041892 -0.073530 -0.234361 -0.100534 -0.085607 -0.064514 0.105290 0.087393 0.090857 -0.193618 -0.078262 0.061863 0.102961 0.185936 -0.094039 -0.132244 -0.082644 0.221832 0.037063 -0.229246 -0.001362 -0.257386 -0.124165 0.057994 0.152105 0.121713 
*ikor 0.042894 -0.076590 0.128539 -0.018105 -0.006280 -0.174481 0.186866 -0.066756 0.214912 0.145735 0.099932 -0.061930 -0.097951 0.133524 0.250428 -0.051830 0.138819 -0.322461 0.296701 -0.273522 -0.108807 0.047730 0.055587 -0.107187 -0.132586 -0.152634 0.015748 -0.075796 -0.038742 0.147391 -0.015931 0.039943 0.036693 0.027983 -0.072221 -0.068407 -0.016989 0.056330 -0.088944 -0.004091 0.203421 -0.085095 0.011848 -0.070089 -0.200699 -0.120211 -0.010684 0.288017 -0.035963 0.091420 
mivol 0.197440 0.219772 -0.067791 -0.149304 0.018098 -0.025562 0.151010 -0.163578 0.070527 0.151864 0.222876 -0.064828 -0.212624 0.320739 0.023195 -0.101886 0.159736 -0.107882 0.146647 -0.034593 -0.025745 -0.029989 0.093212 0.037918 -0.028227 -0.181742 -0.127565 0.009487 0.102447 -0.109179 -0.265847 0.001792 -0.019416 0.155637 -0.067101 0.238298 -0.048997 0.071816 -0.189755 0.027721 0.039762 -0.184564 0.148278 0.088529 -0.014958 -0.138482 0.159051 -0.081358 0.158405 -0.174626 
n~abiY~ 0.135445 0.175445 -0.144431 -0.275175 0.044592 -0.018965 -0.076247 -0.055012 0.308345 -0.152806 0.069136 -0.253879 -0.175559 0.059985 0.091822 0.056429 0.121131 -0.186872 0.417719 -0.168537 0.074779 -0.020680 0.073360 -0.010344 0.024034 -0.232159 -0.217410 0.285362 0.216883 -0.064851 -0.316331 -0.252295 0.040751 0.010979 -0.142028 0.347851 -0.017776 0.050560 0.003133 -0.334228 0.149407 -0.010753 0.022077 -0.100490 -0.012415 -0.083748 0.291028 -0.031334 0.066333 0.437400 
lawolaA^ 0.027897 -0.138621 -0.107040 -0.082044 0.118619 -0.095320 0.002260 -0.154696 0.082690 0.147337 0.180722 -0.079290 -0.089183 -0.063129 0.041134 0.156526 0.042677 -0.114850 0.192006 -0.028804 -0.080176 -0.040616 -0.057532 -0.102000 -0.131483 -0.198248 -0.004932 -0.089026 -0.003422 0.198802 -0.040901 -0.034793 -0.081181 0.015364 -0.006616 0.115287 0.053810 0.219720 -0.121638 -0.150089 -0.011794 0.113061 0.117179 -0.118740 0.100152 -0.256761 -0.038928 0.099016 0.005669 0.137765 
>ax 0.140931 0.094716 -0.063464 -0.403176 0.218539 0.190884 -0.157611 0.100955 0.332460 0.115882 0.147023 -0.199715 0.013398 0.235443 0.071464 0.038218 0.048806 -0.057642 -0.065016 -0.148755 -0.262752 0.243130 0.189015 -0.097322 -0.076104 -0.147226 0.231155 0.148740 0.056340 -0.270378 -0.363985 -0.096942 -0.402401 0.137679 -0.288727 0.132940 -0.114882 0.118437 0.284321 -0.430727 0.256330 -0.023001 0.104737 -0.163538 0.080095 -0.153594 0.382204 -0.065315 0.001887 0.015894 
xa`lid 0.122889 -0.009587 -0.168494 0.006312 0.014798 -0.088696 0.252255 -0.130465 -0.056918 0.166563 0.141951 0.069038 -0.141350 0.447946 -0.032641 -0.132413 0.022214 -0.080727 0.278200 0.040940 0.011652 0.219730 -0.231997 -0.284579 -0.062959 -0.097299 -0.132112 -0.010139 0.101354 0.239004 0.016359 -0.034704 -0.065798 -0.090351 -0.033764 -0.057549 0.291422 0.008623 -0.086630 0.067788 0.010072 -0.018271 0.160843 0.071488 -0.112627 0.029545 0.091070 0.045863 0.068492 0.097424 
firoEawon 0.021109 -0.019842 -0.293831 -0.127233 0.014999 -0.016486 0.121376 -0.143559 0.073007 0.422251 -0.092826 0.082768 0.168146 0.032324 0.166899 -0.068902 0.050605 -0.173963 0.061546 -0.100327 -0.060050 0.125415 0.027900 0.082321 -0.055146 0.005707 0.092837 -0.019785 0.030209 0.158547 -0.227870 0.156676 0.135512 -0.105327 0.136286 0.075576 0.259012 0.256896 0.083545 -0.282044 0.081206 0.142727 0.059315 -0.269772 -0.050063 -0.081336 0.236961 -0.002394 0.120930 0.113122 
Sa`liH 0.119176 0.248114 -0.026382 -0.031612 -0.006502 -0.015318 0.036712 0.056269 0.200771 0.107977 0.392964 -0.071910 -0.039970 0.094465 0.162562 0.065292 0.115331 -0.161649 0.223550 -0.103329 -0.180504 -0.053276 0.144844 -0.135083 -0.039882 -0.066966 -0.110076 -0.019569 0.052229 -0.134468 -0.019748 -0.041189 0.133714 0.061587 0.025332 0.176679 0.183282 0.218436 0.002232 -0.118711 0.062318 0.123174 0.125877 -0.198286 -0.047139 -0.176119 0.314947 -0.230712 0.080951 0.144834 
>aHad -0.069803 -0.212390 0.146327 -0.076512 0.052539 -0.022381 0.394207 -0.310116 0.343021 0.317403 0.182343 -0.056210 -0.297685 0.292095 0.021556 -0.119864 0.187296 -0.525683 0.366745 -0.073726 -0.247927 0.205273 -0.116443 -0.215802 -0.102757 -0.342506 -0.072562 -0.093604 -0.034219 0.100382 0.110034 0.134180 0.067420 -0.329679 -0.034286 0.312471 0.066405 0.104802 -0.006098 0.035529 -0.158587 -0.131215 -0.045271 0.069150 0.208122 0.169335 -0.102956 0.115024 0.074987 0.200072 
Ea`lamiyn 0.103614 -0.018051 -0.349852 -0.204181 0.127029 0.155177 -0.159949 -0.021941 0.214941 0.268342 0.204409 -0.053893 0.089568 0.169454 0.340210 0.049438 0.023368 -0.033977 -0.041434 -0.097602 0.026065 -0.070606 0.019384 -0.115489 0.002042 0.001912 0.003117 -0.010621 -0.024996 -0.134994 -0.114016 0.104549 0.029412 0.168487 -0.032431 0.024144 -0.046513 0.080737 -0.113268 -0.233045 -0.074728 -0.015562 0.014419 -0.165770 -0.171910 -0.084900 0.065946 0.056543 0.006149 -0.006899 
la`kin 0.003926 0.216018 -0.213194 -0.045719 -0.089472 -0.065328 -0.033522 -0.076511 0.437967 0.175624 0.091576 0.050045 0.043863 0.305970 0.075628 -0.070280 0.064473 -0.112699 0.014188 0.028713 -0.031750 0.198572 0.142761 -0.075346 -0.025028 -0.061945 -0.042009 0.083861 0.048999 0.056257 -0.250819 -0.024576 0.168150 0.110026 -0.232880 -0.023298 0.065251 0.193274 -0.075958 -0.223375 0.042696 -0.133924 0.203560 -0.023663 0.101341 0.083608 0.173534 -0.202158 0.238337 0.205893 
jazaY` 0.153057 0.030387 -0.150394 0.022814 0.148549 -0.000946 0.016395 0.184004 0.183943 0.413033 0.145607 0.077984 0.096985 0.196983 0.080729 -0.034146 0.176167 -0.098460 -0.005494 -0.253411 0.053217 -0.131186 0.090601 -0.092844 -0.036265 0.066794 0.085245 0.052363 -0.015120 -0.021899 -0.173991 0.290006 0.031145 -0.071698 -0.047891 0.056770 0.107490 0.057866 -0.015319 -0.135571 0.099563 0.081187 0.118548 -0.201680 -0.073279 -0.094794 0.263646 0.203927 0.224679 0.063024 
>aliym -0.062029 -0.112112 -0.006764 0.005115 0.072423 -0.003936 0.319629 -0.119312 0.039689 0.099062 0.123650 0.037810 -0.188691 0.272999 -0.014176 -0.059917 0.081734 -0.149151 0.316024 -0.076951 -0.116466 0.039895 0.029566 -0.149777 0.083312 -0.022476 -0.044268 -0.020341 -0.101469 -0.018517 -0.111678 -0.131718 -0.136368 -0.160313 0.089336 0.062766 0.088020 0.045074 0.027797 -0.115549 0.076897 -0.030436 0.225913 -0.177054 0.038688 -0.189613 0.182500 -0.001530 0.266371 0.245427 
wajoh 0.014629 0.187151 0.045271 -0.271234 -0.128969 -0.189752 0.278207 -0.023429 0.187304 0.223863 0.359736 0.100160 -0.034727 -0.070108 0.188035 -0.125929 0.103560 -0.187921 0.037246 -0.175792 0.074352 -0.015524 -0.066635 -0.354238 -0.102211 -0.297810 -0.250294 0.023554 -0.005352 0.094540 -0.038495 -0.056050 0.157896 -0.004512 -0.183224 0.033849 -0.038842 0.172856 -0.055373 -0.026596 -0.122958 0.079259 -0.005673 -0.072382 0.005102 -0.028885 0.181362 -0.066768 -0.080106 0.109260 
>aTaAEa -0.089720 -0.232391 0.149380 0.048160 0.108241 -0.011560 -0.035640 -0.260002 0.235868 0.034745 0.173379 -0.020448 -0.153393 0.283570 0.023367 0.093496 -0.004179 -0.195456 0.332320 0.149636 0.054508 0.040233 -0.049519 -0.329211 -0.097577 -0.279144 -0.289584 0.031377 -0.048635 0.059859 -0.020442 -0.253901 0.127454 -0.176205 -0.112709 0.248896 0.138636 0.283899 -0.016044 -0.281477 -0.009367 0.006915 0.029517 0.053175 0.102889 0.087353 -0.046171 0.011740 0.197117 0.444079 
>awoHaY`^ 0.087179 0.252994 -0.119830 -0.135365 0.068233 -0.004995 0.205445 0.033867 0.487977 0.229860 0.300000 -0.017264 0.004439 -0.032016 0.287081 0.096589 0.191538 -0.055409 0.056134 -0.108680 -0.117632 0.236813 0.055141 0.223255 0.070833 -0.111749 -0.197583 0.012656 -0.086999 0.211220 -0.197027 0.358430 -0.010419 0.026067 0.050098 0.058411 0.007135 0.089004 -0.120154 0.051942 -0.048981 -0.066867 -0.038076 -0.139128 0.193274 -0.183045 0.061910 0.088444 0.084113 0.016970 
<insa`n 0.217162 0.080787 -0.141202 0.207039 -0.312713 0.030362 0.148067 0.008324 0.253854 0.086320 -0.014761 0.153271 0.200879 0.069450 0.383083 -0.147497 0.203031 -0.199404 0.457010 0.007200 -0.350002 -0.028176 0.140393 -0.008241 -0.047288 -0.172349 -0.054544 -0.030758 -0.094649 0.085488 -0.138370 -0.006460 0.065158 0.017571 -0.082082 -0.003031 -0.034239 0.200965 -0.061018 0.061577 -0.010278 0.097143 0.127716 -0.329444 0.054418 -0.125142 0.174130 0.005055 0.045591 0.085448 
bay~inap 0.047171 0.098811 -0.170906 -0.177048 0.155727 0.017441 0.076007 -0.031599 0.344858 0.283107 -0.007212 -0.023031 -0.062275 0.167570 0.026540 0.025117 0.039721 0.044396 0.055099 0.115695 0.026886 -0.038701 0.085405 0.039526 -0.014798 -0.017625 -0.146819 0.011780 0.055151 0.043390 -0.291418 0.061597 -0.032258 0.058156 -0.041085 0.003479 -0.082587 0.173526 -0.092142 -0.175698 0.117166 -0.191371 0.131051 -0.027634 0.033973 -0.129596 0.331178 -0.040759 0.193598 -0.006163 
>a$oraka 0.067937 0.106750 -0.015421 -0.059542 0.098894 0.019726 0.073263 -0.030807 0.102400 0.177926 0.289231 -0.103121 -0.255869 0.164035 0.052977 -0.050711 0.052154 -0.046987 0.010532 -0.352844 -0.003520 0.158654 -0.075740 -0.066017 -0.005820 -0.019004 -0.000252 0.125300 -0.009784 0.111354 -0.058842 -0.004628 -0.044591 -0.159083 0.012101 0.223693 0.106484 0.114445 0.000617 -0.090633 0.062459 0.107962 0.063686 -0.028490 -0.014750 -0.119305 0.058915 0.150684 -0.021632 0.201142 
Eamal 0.138779 0.308243 -0.067461 -0.008809 0.099008 -0.058912 0.069582 -0.096186 0.122508 0.017813 0.526405 0.042738 -0.163141 0.179559 0.077576 0.031844 0.074010 0.081451 0.033727 -0.125842 -0.046699 0.036333 -0.050831 -0.089440 0.138849 0.029356 -0.020995 0.091593 -0.205920 0.087195 0.043387 -0.110515 -0.016017 -0.024501 0.081223 0.097303 0.332573 0.116849 0.100034 -0.165780 0.018405 0.016722 0.156701 -0.000778 -0.072096 0.072203 0.227273 -0.365006 0.205307 0.271450 
>aloqaY`^ -0.026516 0.232065 -0.218505 -0.023555 0.066156 -0.008793 0.400839 0.027892 0.239054 0.276898 0.158358 0.113482 0.217681 0.064598 0.259780 0.096028 0.187722 -0.105863 0.083485 0.065563 -0.212154 0.213254 0.149271 -0.097215 -0.110088 -0.043338 0.022923 0.238100 -0.094242 0.172381 -0.051010 0.035255 -0.359368 -0.089269 -0.029936 -0.107232 0.085876 -0.057235 -0.078541 -0.100343 0.063272 -0.119680 0.226453 -0.204543 -0.069509 -0.449087 0.029263 0.139212 0.017792 -0.057244 
qaliyl 0.124800 -0.045953 -0.228353 -0.073788 0.072517 0.004291 0.182664 -0.093398 0.247469 0.204540 0.288308 0.027918 -0.159108 0.303939 -0.026847 -0.070366 -0.031935 -0.189407 0.041083 -0.099191 -0.111898 -0.017189 -0.096619 -0.191826 -0.117413 0.064317 -0.030517 0.138086 0.082551 0.129481 -0.181795 -0.078699 -0.075326 -0.168467 -0.064501 0.168024 -0.126679 0.067809 -0.020222 -0.138448 -0.024799 0.063440 -0.071999 -0.162467 0.106530 -0.018216 0.228043 0.020691 0.177869 0.275004 
qiya`map -0.009503 0.029429 -0.035307 -0.081436 0.034725 -0.070438 0.077375 -0.083370 0.080063 0.109345 0.201829 -0.182128 -0.270452 0.282962 0.111455 -0.106994 0.263787 -0.165450 0.192244 -0.150673 -0.002292 0.175045 0.138201 -0.150283 -0.103205 -0.139944 -0.131384 -0.109696 0.113967 0.091525 0.145084 0.059197 -0.023973 -0.034665 -0.194623 0.037947 0.003905 0.205762 -0.043425 -0.057353 0.134667 -0.098999 0.011706 -0.133181 -0.017745 -0.034943 0.058162 0.116077 0.084968 0.020724 
A^xar 0.098148 0.231142 -0.136149 -0.052521 0.156790 0.104393 0.020673 -0.055209 0.152633 -0.112377 0.144919 0.128779 -0.265726 0.192242 0.011273 0.213832 0.197702 -0.375212 0.423351 0.015157 -0.211483 0.126391 -0.132992 -0.183467 -0.231326 -0.194283 -0.007400 -0.141187 0.062923 0.097170 0.030230 0.139235 0.107338 -0.130778 -0.216617 0.273114 0.225348 0.174166 -0.310219 -0.015078 -0.126743 0.030313 0.213229 -0.074360 -0.057005 0.041013 0.014223 0.107448 0.107574 0.313113 
quro'aAn -0.034570 0.024602 0.051425 -0.181639 0.141287 -0.039363 -0.013687 -0.103169 0.062049 0.057185 0.132956 -0.239174 -0.205003 0.096856 0.049345 0.124519 0.132055 -0.353611 0.128518 -0.212175 -0.143637 0.093302 -0.186182 0.194169 -0.243021 -0.209958 -0.037097 -0.013326 0.076580 0.331393 -0.086875 0.070617 0.111594 0.009502 0.208244 0.074775 0.083073 0.230394 -0.239554 -0.085817 0.053537 0.140128 0.112315 -0.080703 0.008810 -0.048080 0.252770 0.003987 0.100441 0.160722 
waEada -0.031433 -0.206672 0.102402 -0.018104 -0.008610 -0.267544 0.133588 -0.061859 0.072117 0.156758 0.133671 -0.028300 -0.192426 0.306334 -0.009792 -0.043570 0.171964 -0.055344 0.161128 -0.122938 0.010241 0.259319 0.085582 -0.153218 -0.030307 -0.116744 0.096168 0.079934 0.059985 0.064034 -0.017544 -0.077204 -0.107193 -0.134244 -0.046933 0.018397 0.241403 0.163548 -0.161536 -0.170965 0.033123 -0.059904 0.267483 -0.229897 0.037360 -0.079562 0.138941 -0.044886 0.058107 0.005245 
yawoma}i* 0.163941 -0.028437 0.043311 -0.144907 0.084768 0.071646 0.056293 -0.048203 0.124829 0.015765 0.184794 -0.045169 0.054254 0.101749 0.256047 0.173544 0.120821 -0.183161 0.074767 0.020932 -0.182788 -0.041931 0.090186 -0.165997 -0.138119 -0.205844 0.113940 0.054140 -0.126356 0.263206 0.092345 -0.051496 -0.110399 0.133412 0.030782 -0.054221 0.204447 0.117551 -0.087583 -0.067221 -0.051110 0.074984 0.199900 -0.026455 -0.132855 -0.020985 0.025728 0.061110 0.121227 0.105543 
<iboraAhiym -0.022368 0.087877 -0.222279 -0.080836 0.041367 0.007294 0.223699 0.020519 0.306881 0.074244 0.313748 -0.046205 -0.179561 0.050269 -0.050407 0.076220 0.317520 -0.046772 0.143367 0.109676 0.173236 0.034710 -0.068428 -0.017455 0.109864 -0.116223 -0.174421 0.021474 0.142401 0.286165 -0.116536 0.154985 0.215809 -0.058748 -0.004355 0.015361 0.021741 0.144513 -0.124800 -0.065699 -0.138838 0.158274 0.019885 -0.208294 0.152395 -0.024193 0.051427 -0.080884 0.065717 0.037064 
>anfaqa -0.046323 -0.077764 -0.270069 0.016140 -0.025525 0.087204 0.288063 -0.159476 0.187000 0.010569 0.275757 0.152661 -0.302218 0.187414 0.092067 0.256972 0.084521 0.014295 0.577078 -0.029801 0.033916 0.138092 0.009537 -0.232646 -0.159207 -0.186191 -0.193182 -0.037931 0.009057 -0.272333 0.151535 -0.290469 0.071613 -0.067530 -0.226191 0.313653 0.387118 0.008611 -0.173076 0.148964 -0.030643 0.004386 0.218283 -0.092664 -0.026089 -0.146339 0.103155 -0.057305 0.176122 0.160734 
gafara 0.184119 0.176194 -0.146310 -0.209203 0.003688 -0.120168 0.062228 -0.015612 0.039930 0.083560 0.117930 0.031645 0.002700 0.077425 0.072411 0.140742 0.178904 -0.236631 0.302556 -0.029499 -0.045999 0.193873 -0.010899 0.026907 0.001136 -0.065721 -0.068183 0.170724 -0.150197 0.182417 -0.164109 -0.097423 0.020029 0.011715 0.009223 0.104650 0.040188 0.070205 -0.157755 -0.115916 0.163375 -0.011198 0.115449 0.213091 -0.007229 -0.056464 -0.014585 0.076647 -0.069139 0.010734 
bayot 0.348546 -0.106496 -0.061241 -0.658874 -0.005900 -0.133136 -0.423751 -0.065292 0.152706 0.256910 0.515723 -0.494810 -0.174099 -0.210290 0.109424 0.212654 0.014068 -0.332832 0.479346 -0.358922 -0.009584 -0.095268 -0.121517 0.006184 0.144679 -0.133288 0.159488 -0.012582 0.143893 -0.214304 0.046483 -0.395360 0.019752 -0.044383 -0.016681 0.390068 -0.090806 0.164994 -0.122347 -0.209578 -0.064646 0.048044 0.002149 -0.312138 -0.025116 0.113662 0.321239 -0.074086 0.232018 0.258730 
yamiyn 0.081454 -0.160786 0.008441 -0.369792 0.134094 -0.072637 0.134013 -0.139702 -0.006534 0.031949 0.552656 -0.417976 -0.294307 0.271454 -0.158308 0.089503 -0.085567 -0.430384 0.398182 -0.361673 -0.224158 0.236810 0.028350 -0.180024 -0.190755 0.148700 -0.178811 0.198303 -0.029324 -0.209758 -0.226872 -0.172187 -0.203567 0.118356 -0.135145 0.346526 -0.006369 -0.026231 0.160352 -0.222520 -0.080331 0.022343 0.077452 -0.136112 -0.002840 -0.071810 0.152695 -0.071742 -0.143399 0.186181 
>aDal~a -0.013175 0.153574 -0.181619 -0.045841 0.052191 0.035960 0.143547 -0.207575 0.156780 0.046905 0.151427 -0.093854 -0.161683 0.451945 0.159960 0.115908 0.062792 -0.039375 0.208683 -0.216635 -0.175986 0.122794 0.028485 -0.051281 -0.158343 0.052848 0.026706 0.190115 -0.003792 0.089328 -0.151478 0.045009 -0.013867 0.028954 -0.048989 0.019655 0.133121 -0.023411 -0.037250 -0.064392 0.085155 0.069583 0.070086 -0.032057 -0.110058 0.025310 0.004976 0.077507 0.041455 0.188198 
>um~ap 0.023255 0.095348 -0.147448 0.022475 0.211026 -0.013440 0.150370 -0.020632 0.177340 0.230291 0.095982 0.106771 -0.005825 0.291713 0.199637 -0.144357 0.120287 -0.141578 0.117775 -0.376875 0.008423 -0.059557 0.001329 0.008931 -0.061276 -0.018331 0.096342 0.123255 -0.061146 -0.030430 -0.266799 0.054325 0.062942 -0.001709 0.157348 0.022384 -0.295292 0.064110 -0.104435 -0.104630 0.112197 -0.045335 0.014149 -0.238411 0.083066 0.033898 0.252966 0.174924 0.041981 0.047117 
A^baA' 0.229453 0.108706 -0.049861 -0.286911 0.136510 -0.010045 -0.146989 -0.083562 0.145914 0.072573 0.213990 -0.223789 -0.180058 0.234137 0.178713 0.164062 0.046454 -0.137765 0.056071 0.088380 -0.247057 -0.134224 0.009022 -0.118899 -0.290565 -0.150320 -0.083698 0.142941 -0.014938 -0.108940 -0.388188 -0.208910 -0.055616 0.094480 -0.038903 0.481396 0.229838 0.071776 -0.007975 -0.236114 0.279974 -0.082729 0.116757 -0.009208 -0.071676 -0.130422 0.226414 -0.070808 -0.087461 -0.001708 
>aSaAba 0.055918 -0.042909 -0.145902 -0.008642 0.039290 0.273660 0.036345 -0.114226 0.319011 0.192526 0.391202 -0.069843 -0.222218 0.141682 0.035819 0.062024 0.054791 -0.160384 0.225975 0.095948 -0.077390 0.168791 -0.102891 -0.259183 -0.030035 -0.125330 -0.071906 -0.139502 0.148452 0.004206 -0.155011 -0.240913 0.153382 0.155164 -0.085406 0.211673 0.170504 0.163804 -0.021161 -0.218598 -0.012266 -0.039829 -0.098177 -0.143913 0.043260 0.063979 0.108757 -0.059123 0.019104 0.114803 
>aHobabo 0.065471 -0.104717 -0.154033 -0.148591 -0.049954 -0.032689 0.074870 -0.089721 0.106059 0.147282 0.376340 0.022981 -0.282322 0.022703 0.113782 0.141202 0.175306 -0.020453 0.292929 -0.051979 0.028879 0.296920 0.063644 -0.051981 -0.179423 -0.294147 -0.114335 -0.118756 0.030900 -0.140321 0.053730 -0.179803 0.155471 -0.048340 -0.230167 -0.004465 0.076176 0.255168 -0.256282 -0.185255 -0.076790 -0.144091 0.241678 -0.011672 -0.018466 -0.072613 0.313025 0.096082 0.074282 0.115672 
maA^' 0.431296 0.100814 -0.223464 -0.105837 -0.195006 0.039084 0.119296 0.013248 0.138062 0.090155 0.235791 0.117484 0.032375 -0.169978 0.189468 0.128346 0.038423 -0.121422 0.050959 -0.092013 -0.200612 0.146742 -0.111931 -0.382496 -0.141087 -0.216743 0.170528 -0.052831 -0.026489 0.280836 -0.217368 0.059725 -0.030329 0.214969 -0.061952 -0.137952 -0.049666 0.266905 -0.006283 0.018907 -0.198880 0.134160 0.011990 -0.104647 -0.175449 -0.116649 0.344953 -0.057034 0.124157 -0.055220 
kaviyr 0.026441 -0.086685 -0.161114 -0.301477 0.224031 0.025762 0.244067 -0.116272 0.263665 0.139698 0.260922 -0.001880 -0.178327 0.209195 0.164689 0.062057 -0.022473 -0.181649 0.049687 -0.050695 0.123655 0.204658 -0.101504 -0.263495 -0.066321 0.048818 -0.181715 0.029988 0.194153 0.040835 -0.060348 -0.083185 0.051044 -0.006416 -0.231431 0.043208 -0.041607 0.123109 0.032413 -0.299142 0.000353 -0.054549 -0.028166 -0.096353 -0.193339 0.000938 0.132445 0.156537 -0.110278 0.249684 
taAba -0.065710 0.285544 -0.386647 -0.094618 -0.018820 0.128418 0.244726 -0.053564 0.212937 0.021220 0.287345 0.218099 0.078618 0.074745 -0.072847 0.048337 0.012196 -0.047007 0.296344 0.005069 -0.141752 0.024165 0.009133 -0.024589 0.010239 -0.154591 -0.147792 -0.300814 -0.126332 0.096851 0.023954 0.030944 0.050198 -0.140062 -0.101370 0.170973 0.259374 0.100672 -0.004671 0.079945 0.109275 -0.094019 0.164159 -0.238832 -0.026506 -0.165580 0.248731 -0.077644 0.186183 0.231717 
{bon 0.162742 -0.153384 -0.126460 -0.575760 0.247171 -0.065525 0.053813 -0.017480 0.346056 0.160518 0.440677 -0.079872 -0.175034 0.113713 0.095846 0.170395 0.128508 -0.042646 0.041867 0.026613 0.045532 -0.054189 0.153281 -0.036188 -0.272445 0.095684 -0.294741 0.214368 0.077317 -0.263719 -0.539175 -0.088230 0.072403 0.273925 -0.182505 0.281266 0.035151 0.042521 0.080894 -0.375102 0.255682 -0.126426 0.088542 0.105782 -0.091279 -0.218371 0.358999 -0.070642 0.049362 0.008710 
naz~ala 0.100354 -0.085023 -0.052658 -0.292389 0.147761 -0.106589 0.171252 -0.163659 0.063331 0.269174 0.208283 -0.157837 -0.292198 0.225814 0.217343 -0.057359 0.132580 -0.170362 0.308103 -0.269245 -0.064100 0.004281 0.084205 -0.086802 -0.049679 0.032865 -0.113518 -0.027806 0.114973 0.072155 -0.149825 -0.037269 0.043938 0.122804 0.214451 -0.117386 -0.051536 0.224000 -0.018198 -0.166944 -0.049975 0.092069 0.041238 -0.141576 0.071060 -0.028305 0.007104 0.052630 -0.093058 0.011277 
S~a`liHa`t 0.068749 -0.174519 -0.023103 0.049303 0.101215 0.011069 0.066827 -0.080210 0.091383 0.179438 0.302168 0.027439 -0.069165 0.271463 0.106397 0.025315 -0.059590 0.043525 0.092691 -0.080424 0.049091 0.014282 -0.204079 -0.403944 -0.090933 -0.062668 -0.065514 0.058876 0.024074 0.185880 0.141799 -0.227039 0.006150 -0.125314 -0.070627 0.066773 0.167149 0.158943 -0.164896 -0.022636 -0.091185 0.153866 0.010386 -0.250416 -0.123385 0.074866 0.142140 0.061195 -0.105880 0.213034 
kasaba 0.016150 -0.063089 -0.172255 -0.038072 -0.011510 -0.146702 0.306512 -0.025897 0.048740 0.137264 0.282658 0.132560 -0.026446 0.185678 -0.011934 0.055980 0.165634 -0.039690 0.313649 -0.186030 0.209638 0.067148 0.060303 -0.378132 -0.134476 -0.144649 -0.137036 0.125673 0.050620 -0.080699 -0.025735 -0.070576 0.040507 -0.032276 -0.055694 -0.023925 -0.058638 0.000061 -0.202288 0.016511 -0.059515 0.179025 0.209009 0.056840 -0.092316 -0.008652 -0.121092 -0.014525 -0.023214 0.051820 
razaqa 0.264428 0.094367 -0.221302 -0.011015 0.111701 0.050441 0.083811 -0.050188 0.086032 0.208898 0.122292 0.015844 -0.258166 0.211347 0.152829 -0.051932 0.147282 -0.106444 0.299345 -0.327969 -0.112488 -0.015244 0.037371 -0.066391 -0.056086 0.036715 -0.003546 -0.064375 0.010769 -0.090545 -0.130204 -0.018874 0.081705 0.046258 -0.034673 0.106604 -0.125487 0.086928 -0.054829 -0.002499 0.117607 -0.002990 -0.003505 -0.219127 0.053968 -0.000195 0.184821 0.256347 0.073317 0.029007 
talaY` 0.100510 0.122067 -0.154011 -0.069254 0.166299 -0.087684 0.011255 -0.039126 0.193741 0.016242 0.110549 -0.055524 -0.252951 0.176201 0.061730 -0.041917 0.054794 -0.104765 0.231247 -0.060668 0.043480 -0.027949 0.069439 -0.011898 0.024041 0.037961 -0.142884 0.165479 0.038483 0.141639 -0.123815 0.019366 -0.218436 0.013128 -0.019595 0.033971 -0.039222 0.178911 0.084401 -0.235262 0.045204 -0.189842 0.103938 -0.116640 -0.001260 -0.152744 0.114123 0.042958 0.120856 0.001128 
>aY~ -0.076519 -0.137039 0.100557 -0.002640 0.200077 0.084630 0.255698 -0.188336 0.138287 0.111550 0.207756 -0.094323 -0.160981 0.333417 0.234826 0.004242 0.103768 -0.112248 0.192578 -0.117112 0.023471 0.030755 -0.136734 -0.126007 -0.193283 -0.125613 0.032311 0.118453 -0.016184 0.145894 0.003107 0.035842 -0.145054 -0.041735 -0.052338 0.116737 0.081254 -0.069841 -0.077036 0.252742 -0.011076 0.057650 -0.055389 0.119750 -0.008068 0.046761 -0.030654 0.022946 -0.135622 0.010262 
SaAdiq -0.114511 0.096128 0.041574 0.171855 -0.004671 0.033683 -0.066105 0.008246 0.114184 0.062718 0.096558 -0.175210 -0.124735 0.193263 -0.008775 0.004308 -0.064853 -0.177351 0.035705 -0.125487 -0.208000 0.016827 0.026795 -0.147281 -0.076656 -0.064344 0.024682 0.081753 -0.142843 -0.020054 -0.054325 0.115517 0.068720 -0.117979 -0.085085 0.136927 0.084395 0.191582 0.042966 -0.273841 0.156188 0.096427 0.089625 -0.117134 -0.070620 -0.131072 0.129849 0.095221 0.142907 0.062711 
naSara 0.042273 0.064356 -0.329339 -0.210084 0.026206 0.162222 0.066158 -0.025785 0.335426 0.190027 0.231343 0.087189 -0.224795 0.213284 0.068223 0.141686 0.176333 0.065169 0.287669 0.305445 0.151624 -0.029403 0.031662 -0.354719 -0.065794 -0.028292 -0.077500 0.062361 0.006197 0.148820 0.031596 -0.049388 0.127674 0.127595 -0.206790 0.108268 0.324711 0.185203 -0.001424 -0.182812 -0.021515 0.053673 0.022619 -0.214516 -0.151751 0.009579 0.004236 -0.025310 0.164692 -0.109239 
nisaA^' 0.212752 -0.018854 -0.038102 -0.365146 -0.059207 0.154624 -0.088922 -0.245300 0.171892 -0.078515 0.530967 -0.304839 -0.107732 0.408042 0.026878 0.223337 0.061553 -0.252257 0.099909 0.027433 -0.495853 0.430258 0.143241 -0.278082 -0.178761 -0.333415 -0.191754 -0.058364 -0.042665 -0.349914 -0.339403 -0.446257 -0.143129 -0.100898 -0.026990 0.583672 0.200455 -0.079835 0.136172 -0.104083 0.156991 -0.066561 0.059029 0.022510 0.004773 -0.366537 0.038803 -0.028580 0.071450 0.424386 
qaDaY`^ 0.135937 0.104712 -0.106513 -0.071187 0.276458 -0.047980 -0.046588 0.009475 0.172328 0.166567 -0.034399 -0.228178 0.005135 0.089988 0.049866 0.135668 0.054934 -0.106646 -0.015300 -0.056976 -0.171850 -0.019319 0.080529 -0.203336 -0.276873 -0.224858 0.036602 0.109142 0.160823 0.089709 -0.218960 0.016292 -0.210316 0.046803 -0.058392 0.129343 -0.049298 0.079831 -0.073993 -0.147430 0.098853 -0.105715 0.202344 -0.231569 -0.045093 -0.197094 0.414354 -0.004239 0.246040 0.043869 
Sabara 0.084369 -0.018154 0.050484 -0.119886 0.243636 0.075963 0.169038 -0.181074 0.114437 0.006541 0.012446 -0.195941 -0.200246 0.377526 0.256322 -0.046165 0.081113 -0.287893 0.424888 -0.181338 -0.208277 0.116486 -0.033455 -0.162103 -0.226949 -0.303644 -0.024037 0.192413 -0.053126 0.219187 -0.188271 -0.101530 -0.130480 -0.011609 0.045624 0.223079 -0.142013 0.080210 -0.179177 0.047211 0.115687 0.042964 0.061660 0.158373 0.042927 -0.080472 -0.100557 0.117256 -0.071166 0.218895 
na*iyr -0.111962 -0.014250 -0.050949 -0.115770 0.086900 -0.317090 0.059476 -0.020110 0.035235 0.218274 0.175649 0.024928 -0.076214 0.038169 -0.081636 0.227032 0.070874 -0.091094 0.036323 -0.167914 0.024067 0.213099 0.072437 -0.245793 -0.026265 -0.006097 -0.017724 0.042968 0.121478 0.071562 -0.201954 0.094507 0.008978 -0.055902 0.189237 -0.159717 0.005724 0.129535 -0.074620 -0.321742 -0.079501 0.112547 0.135409 -0.035714 0.066973 0.006228 -0.134010 0.014614 0.149959 0.343681 
r~aHoma`n -0.023335 -0.179677 0.196256 -0.031546 0.148558 0.290123 0.197896 -0.142003 0.057350 0.041479 0.014498 0.013654 0.109913 -0.030723 0.223257 0.102443 0.041557 -0.200363 0.253549 0.001411 -0.186258 0.012090 -0.170618 -0.368920 -0.039702 -0.108759 0.114022 0.027599 -0.046625 0.190354 -0.056444 0.076141 -0.030323 0.024613 0.214474 0.062367 0.036187 0.069557 -0.062515 -0.034747 -0.068042 0.151820 -0.018001 -0.035080 -0.192409 -0.203624 0.013664 -0.051374 0.147817 0.009713 
jarayo 0.277474 -0.113692 -0.116531 -0.110714 0.093253 0.215376 0.184491 -0.125339 -0.051714 0.088810 0.151744 -0.045602 -0.238328 0.243901 0.043600 -0.040378 0.040901 -0.046411 0.358037 -0.140222 -0.090834 0.196205 -0.242757 -0.332368 0.007354 -0.012939 -0.042838 -0.008202 0.273618 0.070473 0.199169 -0.122775 -0.002752 0.009391 0.022256 0.155267 0.340865 0.124402 0.055076 -0.044892 -0.105299 0.229974 -0.005229 -0.165373 -0.146652 -0.036901 0.088372 0.091454 0.067042 0.146731 
qaroyap 0.046538 0.118095 -0.203882 -0.094439 0.130211 0.016388 0.146521 -0.006972 0.118746 0.274815 0.011411 0.134645 0.144159 0.156157 0.262016 0.021941 0.125270 -0.082799 0.008259 -0.131351 0.006617 0.058635 0.100382 -0.138523 -0.083641 -0.217000 -0.054928 0.029854 0.036671 -0.088229 -0.078659 0.121539 0.004954 0.141970 0.072889 0.056926 0.035821 0.149982 -0.108605 -0.102776 -0.039871 0.081255 0.184315 -0.211606 -0.029820 -0.184690 0.268862 0.092873 0.130204 -0.095517 
Eayon 0.070861 -0.027934 -0.298211 -0.033871 0.147152 -0.090527 0.292627 -0.208623 0.070830 0.312641 -0.038092 0.064594 0.126645 0.202407 0.328037 -0.129485 -0.004214 -0.130262 0.223149 -0.104232 -0.183124 0.010175 0.209006 -0.013420 -0.225077 -0.025754 -0.099115 0.104484 -0.035679 -0.075880 -0.181576 0.166309 -0.085176 0.009001 -0.050332 -0.054024 -0.082786 0.134470 -0.135986 -0.242356 0.249459 -0.335037 0.083848 -0.199669 -0.118052 -0.207390 0.198570 0.144859 0.259960 0.227601 
la`kin~ 0.005399 0.051314 -0.149266 -0.253294 0.111271 -0.088647 0.146823 0.044887 0.320694 0.014697 0.107568 -0.088034 -0.156356 0.124276 0.183495 0.005398 0.162962 -0.177994 0.221274 0.008131 0.088870 0.213979 -0.098600 -0.113425 -0.085407 -0.008114 -0.273722 0.118987 0.042885 0.058516 0.059914 -0.123685 -0.094207 0.027320 -0.131696 0.110185 0.034516 0.078672 -0.045975 -0.093629 -0.195774 -0.219103 -0.001188 -0.068881 -0.018194 -0.066658 0.068370 -0.076020 0.074419 0.162859 
nahaAr 0.132255 0.343923 -0.358688 -0.109306 0.257211 0.312763 0.024974 0.130810 0.189663 0.055923 -0.048807 0.123399 -0.051232 0.128065 0.179096 0.040268 0.134384 -0.147528 0.175792 -0.244860 -0.137709 0.025150 -0.285548 -0.252759 -0.027586 -0.011801 0.079062 -0.118074 -0.169752 0.226671 0.189522 -0.010797 0.085624 0.076121 0.013406 -0.098505 0.156090 0.193838 -0.023165 0.195985 -0.077217 0.218015 -0.177929 -0.185426 -0.200520 -0.040617 0.120249 0.140708 0.200280 0.012644 
$ahiyd -0.069853 0.170095 -0.077039 -0.015717 0.114220 0.250711 -0.030433 -0.082643 0.160166 -0.101907 0.050038 0.004454 -0.193140 0.455258 0.075690 -0.029635 0.104690 -0.314638 0.528568 -0.055342 -0.302650 0.038359 0.001789 -0.029608 -0.317661 -0.369560 -0.162175 0.033061 -0.149787 -0.348729 -0.147490 0.099693 0.170582 -0.096986 -0.230777 0.306907 -0.026325 0.058883 -0.193106 -0.064916 0.242732 0.084166 0.078199 0.217057 -0.026092 -0.031132 -0.236886 0.202467 0.072523 0.211156 
mas~a 0.123402 -0.078228 0.058228 -0.086847 0.009763 0.056994 0.071322 0.123689 0.098450 0.182511 0.262453 -0.070188 -0.249460 0.041930 0.145016 0.140741 0.154659 -0.118620 0.242236 0.103766 -0.239575 -0.062052 0.115451 -0.270872 -0.082020 0.070330 -0.072827 0.034157 -0.121799 -0.074654 -0.083286 -0.231601 -0.076812 0.103061 0.147349 0.206936 0.112428 0.075367 -0.068567 -0.135636 0.030549 0.113129 0.076197 -0.252210 -0.195326 -0.121196 0.159494 -0.150554 0.029975 0.148620 
walad 0.454379 0.218684 -0.648285 -0.393663 -0.205193 0.307662 -0.143231 -0.197778 0.103091 0.052717 0.323788 -0.432591 -0.024723 0.744976 0.145091 -0.098315 0.151809 -0.195639 0.254330 0.036389 -0.243292 -0.104411 0.060640 -0.193254 -0.434963 -0.153604 -0.036094 0.186934 0.174740 -0.404436 -0.239050 -0.384616 -0.102604 0.094465 -0.303696 0.437122 -0.054085 -0.396570 -0.027027 0.374002 -0.022038 0.052971 0.026985 0.002009 -0.052403 -0.359324 -0.281846 -0.291073 0.096712 0.083882 
$adiyd 0.224281 -0.007901 -0.231876 -0.100066 0.125651 -0.106402 0.280621 -0.098604 0.209914 0.001604 0.405155 0.205051 -0.367701 0.059619 -0.066312 0.320005 0.056465 -0.222865 0.405650 -0.210420 -0.067059 0.232212 -0.048504 -0.307719 0.062523 -0.083491 -0.133540 0.035495 -0.203726 0.056284 0.187725 -0.164247 -0.073840 -0.122010 -0.118943 0.105966 0.093308 0.226371 0.108925 -0.106911 0.000359 0.189079 0.065577 -0.064732 -0.162933 -0.036260 0.186146 0.137773 -0.045905 0.311687 
rizoq 0.073406 0.090124 -0.273084 -0.228888 -0.174804 0.065215 0.004760 -0.014718 0.268197 0.162532 0.009497 -0.122606 -0.092242 0.038854 0.069623 -0.229886 0.085973 -0.129375 0.339013 -0.246671 -0.070619 -0.103669 0.062563 -0.136875 0.008476 -0.167864 0.019815 0.010023 0.146624 -0.136947 -0.004665 -0.152576 0.164701 0.213231 -0.110600 0.146262 -0.084258 0.110664 0.013547 -0.074782 -0.010769 0.091534 0.059395 -0.396975 -0.077191 -0.034819 0.121220 0.074932 0.047677 -0.221908 
Daraba 0.476451 -0.054254 -0.093412 -0.342881 0.153110 0.187725 0.341031 -0.157384 0.155771 0.217651 0.034828 0.064220 -0.264079 0.395177 0.488865 -0.234224 0.134882 -0.247345 0.465392 -0.382578 -0.534658 -0.034048 -0.130268 -0.031031 -0.094761 -0.179637 0.014659 0.122298 -0.058938 -0.091918 -0.445358 -0.176762 -0.089937 0.205261 0.249593 0.185361 -0.339559 0.001070 -0.131754 0.130609 -0.030725 0.064262 -0.086179 -0.259989 -0.148259 -0.023874 0.313849 -0.198895 -0.048184 0.050837 
