1657 50
</s> 0.008005 0.008839 -0.007661 -0.006556 0.002733 0.006042 0.001882 0.000423 -0.007207 0.004437 -0.008713 0.002499 -0.001503 -0.001914 -0.006631 -0.003764 0.005159 0.006051 0.005938 0.003195 0.003090 -0.007605 -0.008192 0.009939 0.007603 0.006180 -0.001208 0.008031 -0.000990 0.001469 -0.000298 -0.005966 0.002625 -0.002675 -0.007651 0.009508 0.008759 -0.002190 -0.000452 0.001018 -0.007275 -0.008014 0.009109 0.000126 -0.005165 -0.006084 -0.006153 0.003394 0.000403 0.002662 
Alh -0.074039 -0.088885 0.250510 -0.063077 -0.109790 -0.045395 0.107345 0.126792 0.073316 -0.135879 0.076733 -0.025532 -0.057702 -0.003696 0.063413 0.121513 -0.034168 -0.056108 0.044594 0.000264 0.062006 0.103907 0.138455 -0.136638 -0.013852 -0.091954 -0.063546 0.103497 0.040485 0.031949 -0.015296 -0.131258 -0.040631 0.015040 -0.004104 0.029226 -0.086367 -0.001822 0.099607 -0.073646 0.089490 0.071396 -0.058113 -0.016498 -0.113180 0.034961 -0.007704 0.074356 -0.149553 -0.012812 
qwl -0.096628 -0.031065 0.211990 -0.044066 -0.168959 0.013593 0.085869 0.140606 0.045614 -0.066135 0.048969 -0.019564 -0.047883 0.012687 0.030471 0.124928 -0.104639 -0.044950 0.040449 -0.030412 0.074155 0.124706 0.135058 -0.120921 0.054108 -0.026005 -0.045541 0.087953 0.087780 0.100188 -0.019959 -0.116971 -0.032376 0.005778 -0.060762 0.028375 -0.100707 -0.022905 0.069291 -0.026684 0.077764 0.143632 -0.062354 -0.070530 -0.052796 0.051504 0.000666 0.034942 -0.201518 0.052743 
kwn -0.095838 -0.062958 0.193157 -0.045211 -0.133644 -0.005362 0.043310 0.099452 0.019521 -0.129152 0.036284 -0.001296 -0.077926 -0.001516 0.027829 0.149529 -0.049856 -0.006615 0.052680 -0.027261 0.114863 0.147146 0.155141 -0.128237 0.018216 -0.115155 -0.009426 0.004197 0.004419 0.057315 -0.027640 -0.169004 -0.084573 -0.046383 -0.033024 0.032786 -0.081420 -0.033714 0.061816 -0.079461 0.106790 0.119657 -0.047421 -0.038187 -0.155633 0.047998 0.009983 0.064211 -0.173989 -0.045496 
rbb -0.102381 -0.062186 0.192002 -0.088920 -0.077378 0.013116 0.074396 0.102532 0.010682 -0.092406 0.068875 -0.031266 -0.029830 -0.002214 0.050236 0.105346 -0.063048 0.019345 0.065722 -0.044643 0.063319 0.114036 0.117530 -0.103968 0.033095 -0.048198 -0.018804 0.087410 0.074150 0.089958 -0.014186 -0.147339 -0.019984 0.003992 -0.049183 -0.005738 -0.137118 -0.018246 0.043503 -0.002950 0.100633 0.062262 -0.015623 -0.063406 -0.086349 0.081438 0.019318 0.000296 -0.159591 0.060467 
Amn -0.034269 -0.036570 0.175219 0.001067 -0.156068 -0.004879 0.088743 0.104950 0.105170 -0.097797 0.041722 -0.038542 -0.033086 0.001840 0.049719 0.124033 -0.022714 -0.042647 0.028870 -0.008970 0.091868 0.132255 0.139234 -0.125905 0.018090 -0.114225 -0.032441 0.074060 0.047103 0.026307 -0.023063 -0.155478 -0.045923 0.007641 -0.013377 0.019849 -0.061455 -0.034430 0.081782 -0.089951 0.103649 0.137734 -0.084713 -0.065912 -0.096811 -0.001392 -0.041917 0.076881 -0.132790 -0.044992 
Elm -0.112873 -0.067632 0.218144 0.029265 -0.146681 -0.074591 0.081840 0.117343 0.089447 -0.162244 0.061743 -0.022127 -0.097927 0.037267 0.065323 0.137393 -0.017482 -0.017814 0.081436 -0.044816 0.115225 0.169394 0.135388 -0.072795 0.009079 -0.056337 0.016254 0.006957 0.035207 0.051818 0.006038 -0.142643 -0.051599 -0.023699 -0.040767 0.048894 -0.114381 -0.031183 0.043955 -0.034487 0.096059 0.104203 -0.085473 -0.065672 -0.130076 0.066325 0.010745 0.086404 -0.213262 -0.025592 
qwm -0.092659 -0.058474 0.179267 -0.049195 -0.113574 -0.056399 0.076262 0.128325 -0.019701 -0.114471 0.048750 -0.004970 -0.035009 -0.011635 -0.001790 0.127680 -0.026669 -0.024641 0.024761 -0.085566 0.112959 0.207790 0.134314 -0.091637 0.032366 -0.103693 -0.007770 0.129348 0.087633 0.106879 0.026103 -0.165193 -0.085396 -0.030179 -0.002111 0.048783 -0.186959 -0.004877 0.082036 -0.088163 0.096560 0.080450 -0.127562 -0.091594 -0.091155 0.090526 -0.000544 0.108533 -0.184008 -0.008821 
Aty -0.117205 -0.085605 0.204067 -0.023840 -0.142335 -0.007124 0.091661 0.110119 0.047668 -0.123047 0.060680 -0.032472 -0.026727 -0.028881 0.031245 0.148307 -0.056470 -0.005027 0.033098 -0.017392 0.074276 0.162502 0.118997 -0.148912 0.072691 -0.098891 -0.018906 0.062695 0.094455 0.028908 -0.036373 -0.179173 -0.070930 0.035862 -0.039202 0.019319 -0.156835 -0.063614 0.079422 -0.104314 0.127683 0.153280 -0.079723 -0.099285 -0.129779 0.066496 0.041120 0.059601 -0.237112 -0.023803 
kfr -0.072637 -0.024385 0.156247 -0.010307 -0.112153 -0.009912 0.083069 0.114432 0.052622 -0.049683 0.031775 -0.016118 -0.043213 0.001550 0.011553 0.085613 -0.016170 -0.053769 0.013122 -0.034694 0.066607 0.093903 0.108461 -0.067269 -0.006818 -0.041911 -0.022996 0.055830 0.086535 0.042473 0.004119 -0.093306 -0.045026 0.004952 -0.029216 0.042523 -0.089698 -0.016986 0.085266 -0.053897 0.071704 0.126410 -0.096681 -0.070896 -0.064339 0.046687 -0.006318 0.095841 -0.169888 -0.019228 
byn -0.078070 -0.045713 0.175292 0.015260 -0.142390 -0.027293 0.087994 0.171442 0.070081 -0.094889 0.019960 -0.033602 -0.069445 0.013583 0.064682 0.109540 -0.020433 -0.026189 0.026735 -0.056038 0.093322 0.143238 0.099922 -0.080694 0.011278 -0.082912 -0.013825 0.040244 0.082803 0.024957 0.012914 -0.097281 -0.026897 0.026312 -0.027894 0.012966 -0.104802 0.009997 0.052085 -0.063810 0.082812 0.111556 -0.079974 -0.072375 -0.093014 0.035393 -0.024092 0.093562 -0.194220 -0.014569 
$yA -0.095187 -0.052722 0.218058 -0.077060 -0.096331 -0.020879 0.110376 0.129393 0.038951 -0.069977 0.063160 -0.027183 -0.067138 0.008768 0.052856 0.080403 -0.029476 -0.022904 0.038231 -0.074480 0.037995 0.097647 0.119905 -0.099492 0.033017 -0.047573 -0.038374 0.107975 0.085452 0.047313 0.003961 -0.100123 -0.019663 0.040321 -0.030130 0.030364 -0.151800 -0.024212 0.091231 -0.029529 0.085340 0.099945 -0.064029 -0.095398 -0.067728 0.087133 -0.024796 0.035805 -0.152155 0.047164 
rsl -0.095314 -0.045180 0.158509 0.025330 -0.142288 -0.035490 0.034829 0.082096 0.085610 -0.085427 0.036014 -0.019554 -0.093756 0.029828 0.041107 0.098342 -0.030464 -0.009496 0.039668 -0.018767 0.090487 0.115417 0.087662 -0.050839 0.044072 -0.003829 0.014061 -0.018934 0.040872 0.043326 0.010949 -0.099112 -0.025308 -0.015440 -0.041368 0.023547 -0.063529 -0.041798 0.030781 -0.008705 0.057208 0.102511 -0.059292 -0.054947 -0.070046 0.060008 0.037037 0.049655 -0.193166 -0.009864 
ArD -0.070507 -0.026167 0.184954 -0.082187 -0.074059 0.015988 0.104042 0.125286 0.014164 -0.056107 0.041332 -0.001055 -0.046181 -0.023741 0.038106 0.074392 -0.045585 -0.040248 0.025119 -0.034777 0.050735 0.113094 0.115676 -0.086111 -0.000323 -0.045340 -0.020762 0.070721 0.092759 0.071545 0.003141 -0.098677 -0.013857 0.055883 -0.053004 0.036948 -0.177462 -0.040524 0.085803 -0.005920 0.080317 0.130099 -0.062782 -0.105204 -0.053031 0.101075 -0.012396 0.050483 -0.166863 0.079766 
ywm -0.126450 -0.067933 0.226392 -0.064273 -0.155133 -0.067511 0.144514 0.134722 0.060456 -0.158167 0.111650 -0.025584 -0.039976 0.002427 0.057065 0.142972 0.035376 -0.003957 0.031049 -0.105948 0.055789 0.188285 0.135529 -0.130136 0.097285 -0.128857 -0.059375 0.199311 0.166686 0.095922 -0.004588 -0.162696 -0.049735 0.058754 0.000116 0.028891 -0.156086 0.018786 0.103734 -0.129752 0.123285 0.102994 -0.104389 -0.132314 -0.095857 0.117764 -0.013415 0.033013 -0.182477 0.056964 
Ayy -0.097656 -0.044549 0.194553 -0.059591 -0.111484 -0.026663 0.118172 0.156241 0.046616 -0.081315 0.050982 -0.015092 -0.021014 0.006172 0.032338 0.089480 -0.015791 -0.029732 0.008455 -0.062806 0.044184 0.116657 0.085752 -0.111440 0.002373 -0.103172 -0.054352 0.115887 0.111099 0.044373 -0.009888 -0.112855 -0.014436 0.036516 -0.012520 0.026171 -0.155021 0.015610 0.098205 -0.093556 0.097919 0.114119 -0.085534 -0.089534 -0.088407 0.048933 -0.062071 0.057218 -0.155329 0.050408 
smw -0.133709 -0.074053 0.192766 -0.028644 -0.045031 -0.086772 0.094611 0.123528 0.058458 -0.082703 0.048654 0.001107 -0.080318 0.044483 0.012749 0.092780 0.023955 -0.046715 0.014167 -0.088518 0.055682 0.174276 0.100714 -0.053267 -0.002321 -0.028491 0.014554 0.022292 0.090839 0.039079 0.055105 -0.087554 -0.048216 0.009148 -0.031834 0.062594 -0.161686 -0.044392 0.053105 -0.052198 0.031408 0.094641 -0.104798 -0.131977 -0.042462 0.085324 0.021888 0.081239 -0.201876 0.035982 
kll -0.085387 -0.083146 0.237087 -0.061860 -0.078863 -0.080258 0.123228 0.154816 0.034499 -0.089387 0.077712 0.016252 -0.089267 0.018634 0.032733 0.087179 0.014852 -0.043807 0.029600 -0.081701 0.097523 0.164517 0.169441 -0.083419 -0.008590 -0.090834 -0.003467 0.089248 0.088580 0.080100 0.036477 -0.106380 -0.050575 0.014253 -0.032955 0.050937 -0.190661 0.002607 0.084803 -0.075999 0.042230 0.082153 -0.081956 -0.113651 -0.065490 0.104509 -0.010046 0.126529 -0.161266 0.036734 
E*b -0.089567 -0.063257 0.217477 -0.034898 -0.122934 -0.006334 0.078452 0.106586 0.070264 -0.071717 0.038011 -0.007865 -0.047030 -0.019049 0.006804 0.119644 -0.041101 -0.057046 0.005977 -0.020583 0.065466 0.128320 0.114381 -0.103770 0.001673 -0.050698 -0.002476 0.023815 0.058816 0.019637 -0.006768 -0.133005 -0.060019 0.002828 -0.042601 0.020336 -0.099476 -0.061371 0.074024 -0.083579 0.070769 0.128397 -0.082987 -0.055894 -0.080501 0.037383 0.035465 0.092783 -0.207185 -0.056768 
Eml -0.031516 -0.059200 0.097679 -0.005405 -0.086690 -0.074940 0.117315 0.088822 0.045297 -0.085816 0.051913 -0.057587 -0.041223 -0.016930 0.058932 0.084199 0.042328 -0.037151 0.037805 -0.105178 0.064100 0.176661 0.146050 -0.088103 0.053145 -0.100539 0.007426 0.109141 0.110882 0.041812 0.031053 -0.145646 -0.044382 0.040414 0.005121 0.097113 -0.171384 -0.017001 0.077127 -0.112953 0.087402 0.099715 -0.124308 -0.115129 -0.107167 0.117807 -0.056687 0.113822 -0.106909 0.033305 
jEl -0.061429 -0.053999 0.222504 -0.093138 -0.091729 -0.004071 0.137093 0.151838 0.044445 -0.081368 0.045537 -0.038162 -0.059977 -0.040209 0.065142 0.087583 -0.033312 -0.034576 0.054852 -0.103641 0.095887 0.173437 0.170970 -0.124981 -0.020278 -0.121654 -0.014699 0.112725 0.112668 0.060807 0.022433 -0.178525 -0.063803 0.072407 -0.042857 0.050240 -0.253782 -0.057101 0.129106 -0.082333 0.116753 0.170920 -0.121630 -0.142864 -0.156930 0.143956 -0.067091 0.131105 -0.202600 0.041797 
rHm -0.070349 -0.079873 0.192163 -0.048671 -0.117333 -0.039234 0.081739 0.114137 0.021057 -0.125251 0.059050 -0.003234 -0.045169 -0.012942 0.024770 0.109920 -0.006269 -0.009918 0.024562 -0.040117 0.096399 0.150694 0.145268 -0.106630 -0.000468 -0.115676 -0.015607 0.067438 0.031787 0.036621 -0.006947 -0.145478 -0.074744 0.008389 -0.004472 0.018843 -0.129041 -0.028571 0.074283 -0.094736 0.099015 0.093471 -0.054936 -0.066876 -0.133152 0.080062 -0.005445 0.072904 -0.159639 -0.021653 
rAy -0.034349 -0.070866 0.197177 -0.068395 -0.094438 -0.004819 0.155645 0.113969 0.051644 -0.076318 0.042867 0.000741 -0.065550 -0.049403 0.073961 0.086659 0.003127 -0.095424 0.047723 -0.098437 0.096222 0.198768 0.214516 -0.105090 -0.032735 -0.111540 0.011973 0.050076 0.088358 0.026987 0.061340 -0.138428 -0.068708 0.102989 -0.072732 0.086645 -0.226206 -0.097896 0.110665 -0.083739 0.094102 0.205198 -0.148683 -0.147194 -0.118304 0.157880 -0.049771 0.143299 -0.201295 0.015384 
ktb -0.042011 -0.056159 0.238788 -0.067717 -0.164996 0.084825 0.097302 0.133648 0.073027 -0.084358 0.003299 -0.051199 -0.000382 -0.050705 0.034025 0.114582 -0.101642 -0.055567 0.029195 0.025496 0.085798 0.061924 0.085952 -0.136143 -0.020096 -0.117205 -0.048449 0.043338 0.047513 -0.026720 -0.065567 -0.132899 -0.034639 0.034864 -0.049918 -0.030913 -0.074353 -0.063363 0.096850 -0.055847 0.136977 0.194872 -0.059171 -0.040532 -0.118473 -0.022165 -0.020644 0.068458 -0.199288 -0.072835 
hdy -0.058974 -0.046172 0.221292 -0.025282 -0.149836 0.001777 0.102446 0.129279 0.070553 -0.071285 0.030724 -0.017120 -0.004504 0.013852 0.055179 0.077704 -0.041148 -0.025857 0.026417 -0.005778 0.047867 0.086123 0.091571 -0.128606 0.019247 -0.087341 -0.058236 0.071217 0.106421 0.027585 -0.017307 -0.084624 -0.011945 0.034770 -0.022433 -0.007141 -0.099636 -0.010943 0.086064 -0.044428 0.087980 0.130675 -0.049273 -0.069499 -0.051147 -0.003465 -0.015483 0.022860 -0.164174 -0.008920 
Zlm -0.098364 -0.060173 0.205098 -0.015906 -0.114117 -0.031511 0.097692 0.139104 0.073441 -0.067205 0.037408 -0.008269 -0.037503 0.021809 0.021650 0.089782 -0.025603 -0.048486 0.014319 -0.037320 0.073776 0.126351 0.090669 -0.087853 0.014418 -0.035871 -0.023144 0.053143 0.101318 0.056619 0.026903 -0.088721 -0.022732 0.008732 -0.052849 0.027708 -0.125537 -0.028157 0.088986 -0.054888 0.056381 0.149066 -0.073332 -0.080417 -0.043219 0.041112 0.006632 0.086302 -0.205228 0.016402 
nfs -0.087361 -0.069941 0.251511 -0.044645 -0.144877 -0.013032 0.081706 0.146436 0.078427 -0.129467 0.055668 -0.036123 -0.055133 0.048373 0.053551 0.096681 -0.056530 -0.001442 0.033621 -0.028215 0.073584 0.104220 0.122814 -0.128595 0.005177 -0.061303 -0.036632 0.036726 0.088064 0.031410 -0.011562 -0.140362 -0.026824 -0.001919 -0.042847 -0.000249 -0.114446 -0.022210 0.064627 -0.018367 0.103433 0.081260 -0.023761 -0.051221 -0.093330 0.011767 0.030424 0.030361 -0.207596 -0.009935 
qbl -0.139925 -0.054179 0.137839 -0.025504 -0.054026 -0.069330 0.064148 0.100049 0.003233 -0.072415 0.041216 0.008397 -0.040650 0.016493 -0.026829 0.093701 0.001014 -0.010846 0.006203 -0.064151 0.070982 0.140240 0.077052 -0.049775 0.033718 -0.000803 0.021244 0.047594 0.043598 0.064424 0.018161 -0.074685 -0.052467 -0.021141 -0.018268 0.040089 -0.110506 -0.000201 0.050364 -0.051339 0.018445 0.054152 -0.048139 -0.091872 -0.016180 0.045500 0.031827 0.054480 -0.143328 0.008916 
nzl -0.071238 -0.040635 0.236830 -0.071299 -0.147109 0.010681 0.145692 0.182711 0.057827 -0.045162 0.034080 -0.009632 -0.062490 -0.027043 0.035604 0.084807 -0.049254 -0.045873 0.003827 -0.076325 0.064153 0.132451 0.134459 -0.136120 -0.008361 -0.088829 -0.034755 0.074943 0.113264 0.043770 0.001692 -0.076192 -0.032811 0.073892 -0.063656 0.012052 -0.163691 -0.025022 0.123727 -0.086877 0.094962 0.211434 -0.100709 -0.114358 -0.085492 0.065137 -0.083185 0.074498 -0.173032 0.011221 
*kr -0.109121 -0.047262 0.216565 -0.021852 -0.144085 -0.047700 0.121851 0.180813 0.057971 -0.095472 0.050314 -0.008093 -0.039884 0.029503 0.025635 0.100920 -0.033071 -0.040459 0.035138 -0.070000 0.094504 0.166615 0.128275 -0.098141 -0.002985 -0.092663 -0.029722 0.113652 0.098299 0.060577 0.022339 -0.148041 -0.041936 0.006927 -0.019737 0.034282 -0.158578 -0.001838 0.083983 -0.042803 0.102910 0.094909 -0.092262 -0.090595 -0.086321 0.054807 -0.029108 0.097949 -0.170580 0.007168 
Hqq -0.135262 -0.064475 0.253638 -0.051962 -0.128717 -0.027480 0.114094 0.193779 0.050760 -0.093517 0.051498 0.009866 -0.020771 0.027082 0.006196 0.117904 -0.044565 -0.009388 -0.006247 -0.003602 0.061896 0.110152 0.085092 -0.130820 0.022402 -0.069913 -0.050219 0.106918 0.124258 0.056435 -0.015229 -0.081874 -0.021345 0.030126 -0.032151 -0.022966 -0.148713 0.019392 0.093703 -0.047367 0.083194 0.119428 -0.049036 -0.096768 -0.051302 0.023793 -0.006538 0.047784 -0.230590 0.031485 
k*b -0.073821 -0.027978 0.170510 -0.035639 -0.085095 0.009648 0.047680 0.080682 0.030619 -0.063657 0.033268 -0.016830 -0.050790 -0.009740 0.024256 0.080504 -0.062478 -0.006756 0.042475 -0.026699 0.085604 0.095476 0.091014 -0.079072 -0.000881 -0.021895 0.004012 0.014674 0.052435 0.039891 0.003797 -0.110646 -0.029441 -0.017174 -0.048806 0.002077 -0.121609 -0.050927 0.054106 0.009523 0.064375 0.098249 -0.035258 -0.052837 -0.074855 0.056541 0.017735 0.039506 -0.197304 -0.003153 
jyA -0.121032 -0.062821 0.161603 0.008288 -0.127288 -0.068522 0.054844 0.120536 0.057733 -0.121162 0.047377 -0.013117 -0.092304 0.050066 0.039500 0.102185 -0.027033 0.010292 0.069871 -0.041843 0.108581 0.133982 0.101818 -0.065664 0.023549 -0.034084 0.001916 -0.001043 0.028487 0.067925 0.011952 -0.109801 -0.024713 -0.044606 -0.040441 0.025044 -0.068804 0.003502 0.017475 -0.008595 0.056540 0.050235 -0.025153 -0.059248 -0.084960 0.047569 0.039917 0.034028 -0.180958 -0.012472 
Ebd -0.112524 -0.067549 0.176414 -0.076555 -0.055090 -0.010476 0.083002 0.099074 -0.013107 -0.052783 0.047066 0.016557 -0.019043 -0.000601 -0.038236 0.107030 -0.020264 -0.038215 -0.028059 -0.008634 0.038625 0.113396 0.091520 -0.101929 0.001215 -0.029397 -0.023399 0.064960 0.024014 0.037338 -0.006194 -0.081179 -0.086835 -0.014740 -0.012934 0.034465 -0.109842 -0.034778 0.082481 -0.086398 0.037724 0.098655 -0.059824 -0.079583 -0.048979 0.025065 0.036949 0.076811 -0.161842 -0.029275 
Ax* -0.077023 -0.038442 0.202193 -0.028045 -0.171979 -0.019436 0.089283 0.121888 0.081719 -0.125401 0.060312 -0.021135 -0.089958 -0.011236 0.066789 0.113079 -0.043140 0.003083 0.059973 -0.029426 0.092990 0.134019 0.141200 -0.116604 0.022351 -0.081870 -0.018691 0.032211 0.068069 0.076358 -0.025251 -0.157151 -0.057963 -0.011235 -0.061447 0.035752 -0.132493 -0.044789 0.080035 -0.069358 0.138829 0.155401 -0.064845 -0.066860 -0.158411 0.090180 0.008998 0.076515 -0.216433 -0.010553 
xlq -0.080592 -0.040038 0.174665 -0.059866 -0.072871 -0.102210 0.121233 0.140479 0.070616 -0.059917 0.106995 0.039579 -0.144204 0.010105 0.057204 0.084658 0.039397 -0.078616 0.047363 -0.191521 0.045038 0.206993 0.193702 -0.045391 0.006683 -0.051714 0.037259 0.036936 0.041846 0.105605 0.080680 -0.105359 -0.040579 0.063321 -0.051074 0.102291 -0.205474 -0.055771 0.087933 -0.084413 0.030549 0.117355 -0.134486 -0.134321 -0.111570 0.197317 -0.048837 0.111500 -0.143813 0.090365 
wqy -0.059316 -0.025630 0.198380 -0.046063 -0.137879 -0.032861 0.112652 0.175194 0.077957 -0.048813 0.045041 -0.040755 -0.107763 -0.000918 0.071221 0.112823 -0.000479 -0.096557 0.028153 -0.189102 0.106594 0.245929 0.232137 -0.080192 -0.034637 -0.096249 0.040951 0.087231 0.075880 0.042578 0.077840 -0.180989 -0.068795 0.050573 -0.031889 0.082383 -0.212017 -0.050769 0.103050 -0.102935 0.101767 0.168062 -0.179510 -0.132861 -0.146595 0.100851 -0.094917 0.151756 -0.151309 0.010200 
Axr -0.015044 -0.053485 0.135366 -0.030572 -0.132048 0.006747 0.085242 0.096172 0.079590 -0.114449 0.006840 -0.023553 -0.018014 -0.022030 0.056609 0.095120 -0.023902 -0.052034 0.027003 -0.019022 0.098764 0.130006 0.123662 -0.108826 -0.015913 -0.137608 -0.022230 0.032327 0.046226 -0.015317 -0.007046 -0.135492 -0.048796 0.039745 -0.019423 0.000194 -0.066028 -0.027455 0.071930 -0.084629 0.100659 0.138797 -0.077555 -0.044922 -0.133384 0.028339 -0.009671 0.076672 -0.162700 -0.066625 
Amr -0.067915 -0.062960 0.205929 -0.034165 -0.117310 0.008936 0.071970 0.121787 0.067061 -0.129250 0.048743 -0.041621 -0.057651 0.007399 0.046995 0.091429 -0.072759 0.013333 0.065509 -0.017979 0.104781 0.105554 0.109239 -0.087828 -0.009831 -0.058893 -0.008278 0.016269 0.062381 0.049217 -0.019665 -0.142018 -0.020142 -0.039172 -0.062106 0.003821 -0.151907 -0.037610 0.037175 0.018910 0.089206 0.083639 -0.024413 -0.051365 -0.116486 0.048282 0.038735 0.035032 -0.202365 -0.010562 
nws -0.065613 -0.059915 0.204473 -0.076645 -0.082837 -0.009787 0.098696 0.109238 0.017814 -0.081815 0.045838 0.011949 -0.006353 -0.035841 0.002005 0.110472 -0.021497 -0.061687 -0.002394 -0.033506 0.067437 0.137787 0.141175 -0.125981 -0.016900 -0.116871 -0.031707 0.107142 0.038423 0.038425 -0.013858 -0.150667 -0.070834 0.016415 -0.017487 0.031423 -0.132784 -0.023606 0.110025 -0.102448 0.088937 0.121384 -0.101682 -0.077012 -0.108174 0.046205 -0.017664 0.107991 -0.161701 -0.026404 
bEd -0.088100 -0.059328 0.190367 -0.033173 -0.081183 -0.019099 0.061544 0.087162 0.007698 -0.089297 0.036329 -0.031321 -0.050927 -0.015037 -0.003078 0.102027 -0.063882 -0.017596 0.047900 -0.067969 0.131305 0.196160 0.138134 -0.083856 0.032796 -0.079060 0.032549 0.030846 0.066634 0.063168 -0.000603 -0.177342 -0.066643 -0.022314 -0.039792 0.038265 -0.189593 -0.058378 0.045830 -0.046144 0.092818 0.107248 -0.074755 -0.103857 -0.109811 0.069909 0.050059 0.101950 -0.225310 -0.028241 
gfr -0.058750 -0.059232 0.181646 -0.021391 -0.165798 -0.056538 0.101022 0.117332 0.075379 -0.176141 0.060727 -0.032886 -0.045866 0.009719 0.075639 0.107586 0.034317 0.003886 0.062349 -0.041238 0.109343 0.155812 0.145385 -0.075459 0.018564 -0.149416 0.004985 0.041255 0.039286 0.033749 -0.005194 -0.156986 -0.047973 0.004234 -0.015451 -0.006358 -0.096085 -0.015441 0.059874 -0.087253 0.126287 0.087581 -0.058737 -0.058835 -0.143103 0.068355 -0.024799 0.044371 -0.135381 -0.037241 
wly -0.100507 -0.075631 0.205430 -0.037601 -0.111389 0.005696 0.063548 0.131565 0.009726 -0.082685 0.024258 -0.034210 -0.026668 0.010131 0.001041 0.097270 -0.081196 -0.010633 0.016455 0.007016 0.101481 0.091202 0.046538 -0.085029 -0.001218 -0.031804 -0.013856 0.027445 0.073362 0.026646 -0.012809 -0.116741 -0.045921 -0.039945 -0.035650 -0.020045 -0.096173 -0.024584 0.049820 -0.002775 0.076643 0.073471 -0.049582 -0.046878 -0.063657 -0.008350 0.070121 0.065674 -0.247955 -0.048453 
dEw -0.107773 -0.083941 0.222650 -0.124239 -0.072468 -0.030836 0.130446 0.171468 0.002012 -0.099664 0.073922 0.020567 -0.032938 -0.013014 0.013865 0.123463 -0.023606 -0.023737 0.022252 -0.069038 0.058578 0.160687 0.152864 -0.145764 -0.000253 -0.108399 -0.048391 0.180435 0.103214 0.079046 0.002196 -0.138920 -0.069911 0.022846 -0.011704 0.012977 -0.192180 0.015819 0.120924 -0.099792 0.091776 0.083452 -0.059242 -0.111512 -0.096063 0.082036 -0.011440 0.075306 -0.170356 0.046030 
Hkm -0.033869 -0.033733 0.184698 -0.050194 -0.127927 -0.007689 0.100960 0.113973 0.099607 -0.092826 0.053465 0.001053 -0.080509 0.016260 0.073311 0.076135 -0.013246 -0.021926 0.033927 -0.016995 0.052464 0.075234 0.142151 -0.107458 -0.015575 -0.078984 -0.014169 0.004287 0.029128 0.023733 -0.001077 -0.077248 -0.019354 0.024415 -0.034995 0.021883 -0.079964 -0.024228 0.079243 -0.048708 0.060480 0.135904 -0.037824 -0.055435 -0.097987 0.044298 -0.027451 0.060864 -0.100579 -0.003154 
mlk -0.059479 -0.055523 0.149055 0.009763 -0.122043 -0.041283 0.058996 0.081671 0.056167 -0.087791 0.043072 -0.006505 -0.041804 0.007956 0.018306 0.105137 0.000935 -0.043916 0.015305 -0.043974 0.075544 0.146449 0.088501 -0.060119 0.011678 -0.055209 0.002093 0.045636 0.040464 0.021819 0.000120 -0.133409 -0.067381 0.005778 -0.028319 0.024650 -0.105917 -0.049708 0.056135 -0.055796 0.086105 0.116024 -0.120971 -0.090558 -0.106710 0.053426 0.004578 0.089843 -0.193448 -0.039949 
jnn -0.111304 -0.048020 0.180984 -0.040389 -0.082067 -0.080749 0.117336 0.140087 0.017932 -0.050693 0.063683 0.019351 -0.083551 0.011385 0.015982 0.097260 0.045583 -0.065545 0.010671 -0.117088 0.085777 0.209701 0.164094 -0.051084 -0.025106 -0.060439 0.049995 0.033450 0.063527 0.074721 0.072566 -0.122634 -0.070375 0.014570 -0.042805 0.082218 -0.188483 -0.057402 0.062955 -0.081838 0.053333 0.103792 -0.115038 -0.116980 -0.080510 0.104521 -0.040326 0.101752 -0.158994 0.022068 
End -0.043022 -0.047384 0.169170 -0.062961 -0.119277 0.000152 0.108546 0.090593 0.047716 -0.120892 0.048565 -0.017696 -0.005578 -0.024634 0.034270 0.126103 -0.007665 0.008367 0.040023 -0.014051 0.082316 0.144803 0.146877 -0.138622 0.033263 -0.157383 -0.058519 0.119187 0.047505 0.045992 -0.035345 -0.164957 -0.061678 0.047689 0.004223 0.017455 -0.089883 0.001654 0.083423 -0.114246 0.128551 0.128234 -0.065301 -0.082700 -0.136786 0.055847 -0.034331 0.048700 -0.139976 -0.020421 
xyr -0.131396 -0.041196 0.153954 -0.024065 -0.112592 -0.066542 0.069257 0.168631 0.044098 -0.095568 0.086269 -0.016143 -0.061881 0.051937 0.041849 0.123171 -0.015315 -0.001876 0.022350 -0.119377 0.053749 0.174127 0.126511 -0.079216 0.062821 -0.039708 -0.010025 0.129641 0.091833 0.099650 0.025684 -0.143199 -0.034691 -0.000676 -0.005254 0.040929 -0.148341 0.012963 0.054229 -0.059945 0.085327 0.020315 -0.083881 -0.101114 -0.078909 0.077505 -0.015335 0.035366 -0.116386 0.080233 
nwr -0.103640 -0.088534 0.202713 -0.098463 -0.036848 -0.072151 0.124094 0.142735 0.011035 -0.066619 0.061194 0.015449 -0.089967 0.002695 -0.008531 0.128245 0.008480 -0.081870 0.028491 -0.150212 0.065282 0.221153 0.205191 -0.098710 -0.019165 -0.048671 0.004470 0.096872 0.073370 0.070592 0.069219 -0.161418 -0.113248 0.016164 -0.053430 0.107647 -0.259421 -0.061876 0.148303 -0.121458 0.062771 0.157856 -0.172690 -0.159570 -0.105440 0.139751 -0.043199 0.176481 -0.187943 0.019614 
Hsn -0.060705 -0.061926 0.142456 -0.038573 -0.087722 -0.080235 0.068019 0.081594 0.034228 -0.138330 0.047626 0.015106 -0.059821 0.017190 0.036344 0.119927 0.022574 -0.020214 0.032445 -0.063983 0.108374 0.187678 0.157618 -0.072198 0.007449 -0.093585 0.015625 0.049501 -0.003074 0.066291 0.010430 -0.152233 -0.067623 -0.016667 -0.020077 0.059312 -0.086638 -0.003807 0.053990 -0.097187 0.077135 0.072154 -0.080445 -0.077116 -0.122057 0.088538 -0.008838 0.093509 -0.107728 -0.022959 
Dll -0.077684 -0.056493 0.195230 -0.063208 -0.135494 -0.031349 0.101420 0.115853 0.042567 -0.072107 0.054765 -0.007263 -0.052160 0.005075 0.001702 0.124155 -0.003677 -0.063757 0.001774 -0.063696 0.072685 0.155987 0.136228 -0.108296 0.009713 -0.076470 -0.025522 0.072587 0.069148 0.044397 0.015819 -0.142624 -0.065745 0.016211 -0.033535 0.032561 -0.100619 -0.037439 0.108041 -0.097288 0.068487 0.153052 -0.109250 -0.085595 -0.070180 0.057542 0.001300 0.112024 -0.173775 -0.027796 
smE -0.062940 -0.026092 0.172816 -0.056843 -0.101658 0.006263 0.095295 0.123824 0.027455 -0.015949 0.021250 -0.016817 -0.016882 -0.024329 -0.002389 0.090082 -0.045758 -0.058561 -0.002331 -0.050485 0.035849 0.116035 0.095734 -0.106423 -0.004575 -0.066999 -0.037266 0.099316 0.100394 0.027735 -0.013809 -0.099930 -0.055183 0.045435 -0.043241 0.035755 -0.142673 -0.043139 0.106543 -0.085406 0.082738 0.134331 -0.105211 -0.094985 -0.061595 0.057463 -0.020563 0.078667 -0.149391 -0.008649 
bny -0.062926 -0.047559 0.181930 0.001792 -0.179466 -0.055146 0.089408 0.123434 0.103279 -0.105445 0.029911 -0.012289 -0.116104 0.034206 0.058090 0.135761 0.009953 -0.069876 0.049723 -0.111490 0.113951 0.225604 0.195037 -0.096229 -0.002805 -0.108870 0.003648 -0.025195 0.052093 0.040975 0.038805 -0.149449 -0.051062 0.047881 -0.061868 0.058017 -0.107667 -0.055160 0.073869 -0.109373 0.074620 0.170840 -0.126272 -0.105174 -0.137517 0.080144 -0.002044 0.139969 -0.224262 -0.047583 
Hyy -0.089311 -0.043936 0.183835 0.020314 -0.160442 -0.000610 0.053041 0.108060 0.089132 -0.152086 0.041981 -0.030265 -0.094975 0.029067 0.099461 0.075951 -0.068304 0.027718 0.109226 -0.013511 0.127748 0.131401 0.106667 -0.070698 0.018619 -0.052117 0.025917 -0.031833 0.070840 0.069157 -0.010439 -0.155893 -0.000999 -0.024294 -0.064389 -0.011370 -0.101739 -0.044445 0.022207 0.029553 0.106006 0.109995 -0.025296 -0.052783 -0.144301 0.055247 0.020466 0.018198 -0.258150 -0.010200 
xrj -0.035613 -0.029604 0.205685 -0.110696 -0.129154 0.009682 0.168897 0.148221 0.082169 -0.100656 0.084984 -0.038139 -0.039295 -0.010578 0.117510 0.052096 -0.023417 -0.017106 0.075348 -0.114086 0.073237 0.144355 0.187442 -0.133306 0.014576 -0.169897 -0.042888 0.191167 0.154660 0.074879 0.011279 -0.182046 0.010056 0.125683 -0.036649 0.015925 -0.237878 -0.019241 0.122855 -0.066901 0.151796 0.123320 -0.097264 -0.153152 -0.142882 0.160090 -0.099015 0.046848 -0.145002 0.111565 
SlH -0.064664 -0.077977 0.202803 -0.030830 -0.094330 -0.060889 0.102826 0.124863 0.042153 -0.144718 0.070735 -0.010481 -0.056122 0.028592 0.055307 0.126228 0.013493 -0.007273 0.048794 -0.073412 0.116602 0.198065 0.171768 -0.109573 -0.020029 -0.132623 0.001474 0.076420 0.061176 0.055345 0.014292 -0.177495 -0.081820 -0.016035 -0.005909 0.035445 -0.167378 -0.008503 0.084847 -0.095240 0.109592 0.087999 -0.072700 -0.105086 -0.148333 0.065692 -0.024067 0.104133 -0.168716 -0.017322 
sbl -0.020513 -0.045280 0.188101 -0.031526 -0.145849 0.024911 0.091324 0.123447 0.060134 -0.095245 0.039142 -0.043236 -0.027685 0.003730 0.055719 0.102153 -0.041448 -0.037045 0.037339 -0.036934 0.108262 0.115827 0.126873 -0.133176 0.010880 -0.144640 -0.049009 0.098791 0.105898 0.034713 -0.020096 -0.166183 -0.015770 0.023895 -0.021055 0.002250 -0.096203 0.008133 0.077061 -0.063528 0.115628 0.114269 -0.083634 -0.059968 -0.126156 0.009883 -0.027307 0.065408 -0.142310 -0.021587 
tbE -0.065347 -0.054079 0.193113 -0.052214 -0.124892 0.011824 0.093342 0.129419 0.029266 -0.083166 0.027724 -0.035425 -0.018005 -0.013727 0.019128 0.117266 -0.034360 -0.028746 0.012712 -0.021682 0.095020 0.124064 0.107634 -0.114785 0.030570 -0.088960 -0.016447 0.063332 0.085130 0.038200 -0.015922 -0.139834 -0.049496 0.017906 -0.047303 0.017121 -0.152141 -0.043019 0.089781 -0.081798 0.090170 0.153919 -0.095357 -0.088879 -0.084682 0.041589 0.006543 0.075159 -0.190970 -0.026916 
Awl -0.046612 -0.026369 0.138539 0.006045 -0.109899 -0.038261 0.067451 0.129958 0.081424 -0.063784 0.034349 -0.038724 -0.070859 0.023709 0.076450 0.066367 -0.008813 -0.040701 0.031852 -0.112577 0.105417 0.147967 0.141089 -0.035221 -0.009056 -0.056030 0.014118 0.040335 0.084792 0.060842 0.013412 -0.124512 -0.023912 0.019456 -0.031023 0.047282 -0.161281 -0.026061 0.056688 -0.028110 0.078709 0.086721 -0.109914 -0.079765 -0.099033 0.082925 -0.059641 0.116023 -0.136995 0.032148 
qtl -0.062591 -0.087813 0.231783 -0.043160 -0.133501 -0.094981 0.117676 0.158901 0.060530 -0.190860 0.098586 0.006200 -0.061029 0.031773 0.049459 0.136146 0.038947 0.014122 0.032408 -0.059233 0.094404 0.159913 0.167294 -0.138774 0.032254 -0.193799 -0.034166 0.156777 0.051878 0.070031 -0.011512 -0.165438 -0.048161 -0.001754 0.020969 0.020995 -0.116654 0.059170 0.088157 -0.128496 0.120717 0.025394 -0.047457 -0.066896 -0.157176 0.067216 -0.029576 0.069933 -0.084493 -0.010602 
mvl -0.066126 -0.054966 0.244682 -0.036743 -0.138423 -0.043810 0.108637 0.165368 0.057753 -0.098237 0.065454 -0.041743 -0.058357 0.027145 0.112603 0.042017 -0.030176 -0.029929 0.078897 -0.100448 0.099176 0.150346 0.168541 -0.084381 -0.012188 -0.115839 -0.007599 0.099700 0.158635 0.055611 0.023529 -0.139392 -0.003444 0.046261 -0.033980 0.025574 -0.234257 -0.012625 0.092020 -0.023063 0.125058 0.099338 -0.083612 -0.095465 -0.116448 0.119878 -0.049098 0.069350 -0.163911 0.051795 
qlb -0.076664 -0.070593 0.197581 -0.044774 -0.135988 -0.056589 0.113912 0.110562 0.048165 -0.132148 0.048005 0.006473 -0.014954 -0.014646 0.001628 0.141800 0.015258 -0.045406 0.010008 -0.030970 0.114412 0.185434 0.155306 -0.142516 0.012209 -0.158826 -0.032611 0.102082 0.053751 0.061248 -0.014724 -0.197182 -0.102459 -0.005866 -0.021217 0.025308 -0.105661 -0.022028 0.114109 -0.140443 0.105666 0.135697 -0.090103 -0.087956 -0.107533 0.046598 0.006412 0.090068 -0.179260 -0.052209 
$rk -0.082130 -0.025865 0.182981 -0.010945 -0.114137 0.001539 0.067875 0.128760 0.062924 -0.065964 0.021423 -0.037911 0.002828 0.022618 0.030554 0.093696 -0.042666 -0.003491 0.017546 -0.020663 0.095950 0.105787 0.068001 -0.089668 0.017118 -0.067805 -0.005221 0.058788 0.111530 0.041685 -0.024557 -0.122487 -0.028135 0.007895 -0.030163 -0.021839 -0.095305 -0.022200 0.040538 -0.026759 0.085910 0.098638 -0.048172 -0.056628 -0.063908 -0.020763 -0.010536 0.020871 -0.161020 -0.025025 
kvr 0.000827 -0.071740 0.153861 -0.041451 -0.090584 0.018052 0.042488 0.060131 0.011609 -0.140977 0.016909 -0.042743 0.023532 -0.014045 0.041975 0.122803 -0.054581 0.019718 0.054485 0.020594 0.119554 0.107689 0.124120 -0.132665 -0.011870 -0.167711 -0.042592 0.064553 0.050277 0.012950 -0.058925 -0.195244 -0.059585 -0.008213 -0.007558 -0.029044 -0.078902 -0.032528 0.036511 -0.055593 0.126053 0.082947 -0.017576 -0.021448 -0.136349 -0.007575 0.023268 0.033541 -0.147348 -0.065210 
swA -0.087288 -0.084014 0.174651 -0.038725 -0.083179 -0.059645 0.077237 0.089139 0.023645 -0.122796 0.040102 0.000754 -0.084874 -0.004989 -0.001327 0.124802 0.018699 -0.025011 0.028903 -0.086640 0.112903 0.203810 0.160449 -0.082585 -0.016252 -0.104557 0.027607 0.016629 0.019019 0.046762 0.033213 -0.146849 -0.077903 -0.031965 -0.030866 0.058871 -0.139253 -0.040223 0.073116 -0.092593 0.066217 0.105300 -0.086665 -0.079656 -0.133824 0.075217 0.014872 0.119365 -0.177226 -0.058280 
mwt -0.094291 -0.034765 0.156847 -0.015621 -0.156573 -0.087889 0.121101 0.157675 0.076713 -0.125432 0.074772 -0.000441 -0.064526 0.040764 0.059277 0.102572 0.042395 -0.007576 0.045990 -0.080923 0.088565 0.184280 0.130112 -0.070097 0.064221 -0.110525 -0.025853 0.130550 0.120501 0.125620 0.035744 -0.139704 -0.018827 0.021697 -0.013753 0.034887 -0.147174 0.039901 0.073080 -0.085800 0.087118 0.088218 -0.081390 -0.122409 -0.086567 0.107001 -0.049638 0.038066 -0.136550 0.056394 
kbr -0.054446 -0.048453 0.198875 -0.017938 -0.188091 0.014491 0.114652 0.137944 0.093312 -0.092864 0.043986 -0.028600 -0.008699 -0.003857 0.053781 0.110164 -0.030984 -0.034676 0.011531 -0.016585 0.097280 0.132567 0.108199 -0.115263 0.040763 -0.116589 -0.043050 0.065857 0.118271 0.009346 -0.027882 -0.128281 -0.029208 0.069855 -0.043332 0.010221 -0.107937 -0.019575 0.075677 -0.080030 0.113330 0.182055 -0.101690 -0.100897 -0.086003 0.036724 -0.035704 0.060332 -0.204706 -0.003449 
$hd -0.067315 -0.084229 0.249231 -0.106515 -0.137488 0.007863 0.093032 0.112271 0.044916 -0.109116 0.057467 0.013346 -0.008219 -0.038566 -0.010364 0.155169 -0.016251 -0.069664 -0.033527 0.023973 0.057035 0.103668 0.132144 -0.147217 -0.016661 -0.137169 -0.075659 0.075735 -0.009410 0.001302 -0.045010 -0.153057 -0.116732 0.004180 -0.023861 0.006849 -0.051791 -0.031387 0.137100 -0.133978 0.110314 0.161467 -0.088120 -0.068870 -0.119779 0.003944 0.005324 0.101514 -0.181972 -0.111155 
nbA -0.093254 -0.051577 0.210261 -0.007143 -0.166536 0.040583 0.067873 0.142734 0.069265 -0.135139 0.028919 -0.075146 -0.015032 0.015514 0.090901 0.084231 -0.109826 0.045538 0.075680 0.000555 0.105842 0.084907 0.058294 -0.119898 0.055708 -0.072609 -0.025242 0.065962 0.132366 0.045616 -0.079212 -0.156342 0.005587 0.009382 -0.042401 -0.040031 -0.127149 0.003055 0.037664 0.018142 0.146545 0.069518 -0.024445 -0.056803 -0.127025 0.024471 0.025788 -0.012318 -0.243605 0.022533 
bED -0.132360 -0.079621 0.178262 -0.027183 -0.112154 0.005544 0.079875 0.104933 0.003591 -0.105109 0.051124 -0.001138 -0.033849 0.001768 -0.040254 0.158787 -0.041608 -0.013538 0.002025 -0.003710 0.094247 0.170887 0.100479 -0.115404 0.063154 -0.044653 0.010198 0.033514 0.059726 0.054123 -0.014689 -0.133896 -0.058444 -0.019414 -0.032461 0.040806 -0.169872 -0.048855 0.091644 -0.078761 0.098437 0.142717 -0.071394 -0.108712 -0.061807 0.077707 0.054562 0.067996 -0.242726 -0.003688 
nSr -0.109929 -0.101303 0.167758 -0.085202 -0.064585 -0.038223 0.088749 0.084076 -0.013655 -0.098093 0.032976 0.046643 -0.030374 -0.025195 -0.064160 0.145471 0.010274 -0.025289 -0.005071 0.002956 0.076105 0.163890 0.116432 -0.134132 0.011610 -0.093458 -0.028416 0.054925 0.027034 0.036064 0.008099 -0.120847 -0.105386 -0.047367 -0.024223 0.053297 -0.103399 -0.022270 0.120681 -0.141301 0.049620 0.125189 -0.071211 -0.081930 -0.063234 0.034595 0.047448 0.107626 -0.203279 -0.064747 
Sdq -0.061062 -0.084287 0.175385 -0.038783 -0.103348 -0.034015 0.037723 0.083922 0.044206 -0.159148 0.035701 -0.015244 -0.023440 0.001077 0.045020 0.101701 -0.022039 0.006565 0.054648 -0.009581 0.074119 0.111327 0.114327 -0.099011 0.010623 -0.084995 -0.037851 0.041860 0.015639 0.021383 -0.028747 -0.140943 -0.040378 -0.013869 -0.021511 -0.000966 -0.074301 -0.011269 0.033622 -0.042765 0.098722 0.060463 -0.028038 -0.036756 -0.124972 0.042448 0.050075 0.040784 -0.141896 -0.015408 
gyr -0.083901 -0.080731 0.223693 -0.063986 -0.171861 -0.062897 0.169747 0.153204 0.078702 -0.163990 0.063539 -0.012339 -0.031991 -0.022053 0.033764 0.167269 0.064356 -0.040919 0.011631 -0.096508 0.119847 0.212026 0.168741 -0.132626 0.017148 -0.226714 -0.009499 0.146642 0.108974 0.040954 0.010861 -0.204513 -0.085659 0.070450 0.008197 0.013325 -0.183886 -0.015245 0.135755 -0.191669 0.145087 0.166140 -0.161179 -0.157616 -0.177184 0.110990 -0.077705 0.106454 -0.197257 -0.030020 
wEd -0.129625 -0.051049 0.180349 -0.012869 -0.101532 -0.007968 0.082569 0.107871 0.005070 -0.072352 0.018525 -0.004721 -0.020711 0.009313 -0.026321 0.125885 -0.022264 -0.030154 0.006592 -0.052800 0.111947 0.190072 0.092191 -0.085950 0.016188 -0.055447 0.014876 0.039513 0.077416 0.040587 0.000117 -0.141249 -0.083443 -0.001756 -0.046421 0.031272 -0.128495 -0.042919 0.060012 -0.066205 0.076147 0.140218 -0.087220 -0.120510 -0.053893 0.037088 0.022357 0.082058 -0.237518 -0.034865 
bSr -0.052910 -0.030238 0.180408 -0.018503 -0.137816 -0.003833 0.097976 0.133914 0.056337 -0.050277 0.013448 -0.041259 -0.049143 -0.028284 0.054997 0.088704 -0.017602 -0.071198 0.022095 -0.112242 0.084550 0.154958 0.123503 -0.065666 -0.003889 -0.085754 0.002412 0.062786 0.104789 0.000116 0.017102 -0.123238 -0.029083 0.068958 -0.052646 0.048140 -0.185107 -0.051125 0.086079 -0.079955 0.117163 0.182050 -0.154860 -0.110652 -0.112918 0.077741 -0.060817 0.101982 -0.181374 -0.006947 
rwd -0.014333 -0.058875 0.193407 -0.060373 -0.119335 0.022561 0.068883 0.070754 0.036658 -0.122325 0.019847 -0.048960 -0.065555 -0.047896 0.044845 0.128220 -0.065713 -0.030059 0.081954 -0.059459 0.145360 0.188319 0.198243 -0.128259 -0.003082 -0.157754 -0.000561 0.044027 0.056819 0.049800 -0.019097 -0.247393 -0.102170 -0.001136 -0.063755 0.044292 -0.144583 -0.077308 0.085622 -0.080067 0.149272 0.146926 -0.097424 -0.060696 -0.208897 0.082821 0.027089 0.103021 -0.182553 -0.069511 
lqy -0.081112 -0.032613 0.226777 -0.049148 -0.186682 0.000531 0.129339 0.173348 0.098981 -0.117182 0.070206 -0.030713 -0.051579 0.005914 0.091957 0.076889 -0.046258 -0.015961 0.047240 -0.059624 0.066102 0.116450 0.126229 -0.129665 0.044138 -0.108975 -0.026065 0.096813 0.114590 0.072118 -0.011035 -0.129741 0.001812 0.060826 -0.061615 0.032629 -0.152395 -0.021815 0.092087 -0.060303 0.130977 0.148997 -0.087127 -0.104071 -0.117609 0.092723 -0.041602 0.035873 -0.185885 0.061563 
dwn -0.106242 -0.047457 0.177185 -0.020751 -0.097691 -0.034600 0.086580 0.117566 0.056249 -0.082448 0.045135 -0.011026 -0.060650 0.032956 0.041193 0.082900 -0.037707 -0.004976 0.054199 -0.026417 0.041154 0.092752 0.091932 -0.083250 0.039227 -0.009334 -0.004306 0.043944 0.087715 0.053135 0.000343 -0.085472 -0.019794 0.009263 -0.031605 0.013454 -0.093366 -0.007285 0.043808 0.002186 0.061651 0.069294 -0.021738 -0.068435 -0.044179 0.045975 0.004604 0.032584 -0.166765 0.049817 
nEm -0.095260 -0.067705 0.215906 -0.075249 -0.112158 -0.032198 0.129833 0.142087 -0.007566 -0.072851 0.042429 -0.004701 -0.065741 -0.002148 -0.002171 0.127812 0.002191 -0.051549 -0.007632 -0.084379 0.114108 0.201406 0.158171 -0.094051 -0.002542 -0.109786 -0.011404 0.108358 0.088631 0.069090 0.010748 -0.146904 -0.092854 0.012209 -0.021928 0.035294 -0.167608 -0.021023 0.114677 -0.108099 0.089420 0.135303 -0.109289 -0.112413 -0.102991 0.064796 -0.026694 0.107571 -0.182749 -0.039498 
slm -0.086892 -0.037265 0.189316 -0.073138 -0.122063 0.000657 0.101436 0.099881 0.017392 -0.088361 0.052877 -0.011031 -0.025993 -0.033076 0.014083 0.124195 -0.028040 -0.022468 0.022428 -0.050677 0.061972 0.149507 0.113815 -0.130550 0.038427 -0.095521 -0.026359 0.107465 0.077888 0.069800 -0.008662 -0.154879 -0.069146 0.024064 -0.029701 0.011648 -0.147736 -0.040084 0.111385 -0.105957 0.124074 0.146994 -0.102582 -0.099200 -0.118625 0.074206 -0.008959 0.051589 -0.168423 0.005614 
dnw -0.083653 -0.034105 0.194215 -0.034599 -0.125720 -0.034928 0.095940 0.159578 0.076207 -0.103389 0.067622 -0.017752 -0.042600 0.046195 0.070314 0.098962 -0.007428 -0.001882 0.054333 -0.097544 0.072144 0.141714 0.143184 -0.090361 0.039975 -0.077584 -0.019894 0.129736 0.105263 0.064983 0.003842 -0.171266 -0.028233 0.023325 -0.018082 0.025216 -0.144803 0.015527 0.067593 -0.057399 0.128618 0.070132 -0.066787 -0.108206 -0.120101 0.094539 -0.049428 0.032222 -0.145089 0.071656 
qdr -0.087888 -0.057721 0.212826 -0.052505 -0.124061 -0.038867 0.100771 0.147824 0.057209 -0.075643 0.061509 -0.027047 -0.062885 -0.004376 0.054546 0.087593 -0.036859 -0.042833 0.014126 -0.079223 0.072676 0.150968 0.147623 -0.090356 0.004227 -0.061840 -0.014868 0.076242 0.086447 0.055819 -0.004828 -0.130792 -0.046549 0.039462 -0.028786 0.025113 -0.172976 -0.035304 0.083950 -0.060121 0.099218 0.110185 -0.106379 -0.095363 -0.102156 0.095412 -0.013173 0.094158 -0.198179 0.032433 
n*r -0.122119 -0.035198 0.177816 0.024178 -0.087664 -0.023323 0.035841 0.109716 0.034662 -0.063644 0.032490 -0.016074 -0.046446 0.038910 0.018405 0.066636 -0.052054 0.000610 0.027228 -0.014028 0.079397 0.090925 0.037030 -0.043472 0.016709 0.018058 0.030381 -0.014893 0.076662 0.042191 0.013773 -0.076812 -0.032367 -0.038529 -0.044608 -0.007884 -0.100720 -0.042169 0.015516 0.030801 0.043632 0.054605 -0.015944 -0.040207 -0.016720 0.002196 0.051176 0.023699 -0.196472 -0.007041 
jmE -0.045256 -0.043359 0.164672 -0.027902 -0.127753 -0.034532 0.106923 0.111179 0.087943 -0.109859 0.046153 -0.004446 -0.045676 0.021884 0.058654 0.079904 0.002609 -0.017190 0.044113 -0.042016 0.067925 0.127827 0.139762 -0.089637 0.013902 -0.061370 -0.009321 0.035802 0.081955 0.042729 0.018211 -0.121595 -0.036504 0.017190 -0.046636 0.043343 -0.090086 -0.019212 0.067917 -0.053465 0.071284 0.105445 -0.063901 -0.085903 -0.066077 0.050897 -0.014330 0.048842 -0.133292 0.000314 
nZr -0.105177 -0.084268 0.242540 -0.042530 -0.168587 0.064425 0.105584 0.126895 0.049208 -0.175533 0.030647 -0.060594 0.047341 -0.040492 0.030513 0.145572 -0.102104 0.048008 0.045936 0.058964 0.130653 0.116906 0.068894 -0.183154 0.079252 -0.146973 -0.082977 0.092768 0.130861 0.038222 -0.089407 -0.179843 -0.022811 0.022372 -0.032266 -0.060084 -0.153336 -0.005361 0.073730 -0.035515 0.165267 0.139851 -0.014743 -0.062449 -0.114632 0.002239 0.067609 -0.008881 -0.282409 -0.028976 
sAl -0.065711 -0.036973 0.202881 -0.015721 -0.126287 -0.002039 0.062686 0.111124 0.058558 -0.102096 0.045576 -0.036942 -0.088593 0.006020 0.085940 0.082966 -0.087933 -0.006481 0.084177 -0.043116 0.115296 0.116323 0.141907 -0.072546 -0.009814 -0.037720 0.040455 -0.040793 0.043834 0.058399 -0.010730 -0.142813 -0.040456 -0.013759 -0.066643 0.001337 -0.101511 -0.058829 0.029172 0.015382 0.090607 0.103938 -0.033611 -0.044261 -0.115568 0.069107 0.011520 0.035248 -0.182392 0.002998 
TwE -0.072384 -0.071010 0.180827 -0.015135 -0.113967 -0.026590 0.067744 0.103757 0.037704 -0.121936 0.032356 -0.033697 -0.058253 -0.013697 0.012200 0.133575 -0.048734 -0.019921 0.030026 -0.049856 0.134294 0.192141 0.133888 -0.098169 0.001313 -0.094472 0.027693 0.018660 0.059700 0.044266 -0.002556 -0.201835 -0.079416 -0.021368 -0.046324 0.020475 -0.148901 -0.069627 0.047833 -0.056579 0.117934 0.119368 -0.079759 -0.077933 -0.128106 0.049731 0.037858 0.085112 -0.222061 -0.058969 
EZm -0.106486 -0.069602 0.230781 -0.045774 -0.115541 -0.084855 0.112654 0.156165 0.074352 -0.137371 0.073001 0.004838 -0.106516 0.011589 0.058663 0.134234 -0.000096 -0.049758 0.049054 -0.115067 0.090449 0.210656 0.191855 -0.090001 -0.008879 -0.096415 0.004325 0.048662 0.066549 0.059704 0.037521 -0.163210 -0.063387 0.028465 -0.022754 0.045389 -0.177756 -0.031704 0.071083 -0.079159 0.102498 0.108042 -0.104352 -0.107139 -0.149974 0.119381 0.000748 0.110014 -0.194868 0.014242 
xlf -0.065073 -0.045511 0.228416 -0.073090 -0.145437 0.030682 0.106533 0.161844 0.058221 -0.083762 0.028457 -0.048840 -0.022423 -0.024044 0.054610 0.094124 -0.060069 -0.019578 0.049809 -0.045369 0.072999 0.089241 0.103708 -0.124232 -0.004671 -0.112666 -0.047345 0.095227 0.121583 0.056046 -0.018717 -0.126234 -0.017038 0.042098 -0.032880 0.005181 -0.171601 -0.024089 0.106529 -0.058339 0.135357 0.142492 -0.067308 -0.073721 -0.118421 0.051799 -0.048654 0.054589 -0.173509 0.018580 
Ahl -0.105975 -0.060453 0.201644 -0.019468 -0.114792 -0.032639 0.081520 0.151658 0.047134 -0.124711 0.029580 -0.026886 -0.060167 0.011079 0.042150 0.128599 -0.049492 -0.026696 0.061458 -0.067298 0.132211 0.181896 0.159302 -0.095640 0.009348 -0.072103 0.017929 0.023174 0.062029 0.064112 0.016424 -0.142416 -0.039359 -0.018047 -0.048717 0.050513 -0.183619 -0.031926 0.062917 -0.043232 0.095357 0.124010 -0.078983 -0.114769 -0.127111 0.083183 -0.000284 0.111898 -0.238439 0.012866 
dxl -0.061630 -0.052688 0.131367 -0.087889 -0.058165 -0.059402 0.067448 0.080103 0.010873 -0.079928 0.062817 0.024713 -0.065893 -0.009562 0.015251 0.082528 0.035775 -0.019156 0.023856 -0.112697 0.061532 0.164665 0.170278 -0.069625 -0.026954 -0.089038 0.023185 0.058842 -0.008434 0.069715 0.032719 -0.146433 -0.077790 -0.001049 -0.026968 0.043591 -0.125510 -0.046805 0.094924 -0.107377 0.078927 0.082142 -0.094686 -0.066303 -0.141127 0.096879 -0.036156 0.085838 -0.103880 -0.018643 
xwf -0.139832 -0.084192 0.186032 -0.070576 -0.065063 -0.082298 0.120003 0.161795 0.008050 -0.109313 0.099796 0.005254 -0.042444 0.012261 0.000679 0.118941 0.025904 0.010102 0.009940 -0.110916 0.052298 0.178371 0.117670 -0.097529 0.054330 -0.075158 -0.022360 0.170056 0.084111 0.112422 0.020885 -0.120365 -0.058741 0.004354 0.017574 0.066229 -0.221250 0.023857 0.111962 -0.110838 0.089340 0.077483 -0.089729 -0.140623 -0.068543 0.122138 -0.045767 0.074108 -0.138344 0.086039 
rzq -0.065724 -0.034464 0.146493 -0.046850 -0.088801 -0.021460 0.079418 0.096981 0.012913 -0.071989 0.052648 -0.009205 -0.071461 0.002159 0.027758 0.092359 -0.007632 -0.029092 0.033988 -0.081289 0.098259 0.160425 0.143262 -0.064655 -0.005991 -0.057114 0.021224 0.009156 0.026685 0.074603 0.021674 -0.124662 -0.074554 -0.013634 -0.046656 0.057962 -0.155466 -0.060572 0.077012 -0.061548 0.086907 0.127586 -0.085353 -0.095119 -0.113647 0.121814 -0.020090 0.102821 -0.153693 0.002365 
b$r -0.073979 -0.023323 0.155909 -0.022255 -0.128873 -0.042109 0.085100 0.105703 0.069874 -0.078417 0.051470 -0.002553 -0.064403 0.002844 0.034945 0.083890 -0.007553 -0.028394 0.023314 -0.035412 0.052119 0.111989 0.088916 -0.052022 0.010908 -0.023996 0.010580 0.020464 0.036002 0.037869 0.028968 -0.077128 -0.034673 0.012287 -0.043157 0.027445 -0.078408 -0.050325 0.036030 -0.030991 0.041760 0.102608 -0.066714 -0.071758 -0.060416 0.071024 -0.007702 0.048638 -0.157787 0.016115 
ydy -0.021012 -0.022378 0.169312 -0.024512 -0.150588 -0.001405 0.084404 0.139041 0.082117 -0.086783 0.034173 -0.055062 -0.080004 0.012378 0.091255 0.096676 -0.069401 -0.024438 0.090988 -0.076823 0.128803 0.159465 0.190877 -0.111357 -0.021180 -0.097057 0.020580 0.032879 0.066320 0.060289 -0.004376 -0.158863 -0.033268 0.009115 -0.068315 0.031873 -0.147232 -0.057313 0.089597 -0.053116 0.122513 0.159420 -0.113183 -0.084618 -0.175299 0.093816 -0.054476 0.089510 -0.179071 -0.014121 
Amm -0.045839 -0.079138 0.191794 -0.086901 -0.085031 0.024219 0.053310 0.099007 -0.020156 -0.102938 0.031415 -0.043194 -0.034855 -0.020438 0.006164 0.100803 -0.061819 -0.014742 0.050291 -0.061776 0.141028 0.165586 0.167831 -0.144706 -0.015932 -0.154465 -0.019070 0.068655 0.054153 0.063380 -0.016963 -0.194388 -0.100918 -0.030936 -0.031804 -0.001249 -0.170627 -0.052815 0.097920 -0.093043 0.127464 0.108697 -0.077346 -0.070624 -0.163895 0.054842 0.012227 0.092075 -0.199854 -0.066053 
Ezz -0.062349 -0.055760 0.173991 -0.019077 -0.129163 -0.008682 0.087576 0.116301 0.068609 -0.103524 0.044865 -0.026036 -0.031837 0.020854 0.041795 0.086769 -0.043016 -0.014449 0.041547 -0.025713 0.067515 0.092820 0.103058 -0.083601 0.023102 -0.056056 -0.008367 0.044913 0.065935 0.044917 -0.003436 -0.113292 -0.013596 0.022209 -0.047830 0.007888 -0.101839 -0.026169 0.047482 -0.027807 0.097446 0.109364 -0.044507 -0.047080 -0.080046 0.038866 0.002774 0.031621 -0.148153 0.005633 
jzy -0.065733 -0.074220 0.169589 -0.041954 -0.084400 -0.087309 0.076471 0.084330 0.027188 -0.125512 0.070685 0.028625 -0.099717 0.009027 0.040199 0.101508 0.044922 -0.018640 0.028705 -0.084071 0.093271 0.169583 0.161326 -0.052450 -0.025097 -0.100721 0.018346 0.016006 0.007723 0.041604 0.019594 -0.137624 -0.082203 -0.005434 -0.026251 0.044431 -0.102190 -0.032609 0.049110 -0.069917 0.063086 0.066407 -0.064886 -0.058929 -0.126866 0.102954 0.015776 0.105830 -0.147656 -0.040293 
Abw -0.058208 -0.111273 0.198538 -0.034506 -0.065560 -0.032396 0.047508 0.104190 0.022646 -0.153740 0.013652 -0.035475 -0.042282 0.014151 0.031129 0.114863 -0.034923 0.018451 0.059470 -0.034506 0.140966 0.174795 0.147627 -0.111359 -0.014128 -0.127546 0.012255 0.012444 0.043126 0.017984 -0.014824 -0.159632 -0.061805 -0.041183 -0.018425 0.005704 -0.149842 -0.018367 0.025637 -0.037651 0.096650 0.056771 -0.036541 -0.066385 -0.146376 0.034988 0.037888 0.098985 -0.222116 -0.053526 
nhr -0.106447 -0.034638 0.101034 -0.038997 0.016216 -0.176074 0.120283 0.089238 -0.003452 -0.035671 0.050753 0.010188 -0.091634 0.009945 -0.039484 0.102021 0.164490 -0.122879 -0.035610 -0.250955 0.037949 0.293023 0.162868 0.017648 -0.020713 -0.085204 0.062764 0.151627 0.066347 -0.001359 0.153471 -0.196304 -0.104765 0.045758 0.031850 0.134737 -0.253513 -0.029930 0.092831 -0.199751 0.024122 0.048554 -0.248048 -0.193981 -0.078235 0.167126 -0.083129 0.168578 -0.068371 0.031612 
nfq -0.036907 -0.057510 0.190674 -0.016053 -0.160476 0.002609 0.085552 0.106126 0.097956 -0.172891 0.070186 -0.058698 -0.008957 0.018776 0.118504 0.102942 -0.048503 0.056356 0.092198 0.015417 0.077452 0.067632 0.105515 -0.125761 0.066132 -0.113333 -0.066975 0.099866 0.081855 0.047034 -0.058609 -0.149740 0.007515 0.031960 -0.014871 -0.042862 -0.066885 0.021735 0.035709 -0.016291 0.140130 0.052483 0.010482 -0.036530 -0.118852 0.038954 -0.007752 -0.037415 -0.130318 0.023317 
Akl -0.073838 -0.026199 0.221863 -0.047513 -0.212163 -0.007036 0.103422 0.136376 0.067510 -0.124799 0.071245 -0.036215 -0.105656 -0.020776 0.087890 0.132177 -0.000869 -0.052425 0.059470 -0.176157 0.171026 0.272087 0.251987 -0.089876 0.014048 -0.157555 0.061251 0.060493 0.079033 0.110611 0.039244 -0.263015 -0.091594 0.023675 -0.035887 0.086118 -0.259548 -0.104300 0.113171 -0.135622 0.196916 0.200635 -0.184824 -0.137389 -0.249723 0.192588 -0.104754 0.139228 -0.217992 0.003338 
Hsb -0.184932 -0.070521 0.219965 -0.009541 -0.130561 -0.119261 0.138141 0.159902 0.055972 -0.126727 0.093697 0.017061 -0.081152 0.045865 0.008774 0.137585 0.033591 -0.019176 0.004900 -0.084335 0.066929 0.220952 0.121151 -0.077706 0.050690 -0.015191 0.000755 0.113629 0.117860 0.104035 0.054542 -0.109786 -0.074983 0.011477 -0.029887 0.075464 -0.186990 -0.007485 0.084784 -0.077339 0.049061 0.109381 -0.114433 -0.161291 -0.026817 0.111853 0.007666 0.088722 -0.227822 0.056676 
fEl -0.121076 -0.075763 0.167760 -0.014272 -0.111684 -0.046225 0.054635 0.103512 0.030667 -0.101895 0.043352 -0.020916 -0.029030 0.009758 0.003352 0.120115 -0.048644 -0.024997 0.014518 -0.028126 0.102980 0.137983 0.075642 -0.075346 0.018208 -0.033249 -0.011141 0.020659 0.062947 0.044309 -0.000952 -0.127251 -0.073337 -0.027498 -0.031385 0.017246 -0.099333 -0.041977 0.036725 -0.046056 0.077879 0.095773 -0.078703 -0.061036 -0.070493 0.030095 0.058695 0.085149 -0.240068 -0.048260 
Ajr -0.094630 -0.062546 0.218874 -0.020603 -0.172138 -0.052653 0.092784 0.124824 0.104754 -0.180203 0.071057 -0.045633 -0.058620 0.047096 0.078734 0.122508 -0.035804 0.017874 0.069487 -0.022800 0.107704 0.123017 0.137056 -0.107021 0.019432 -0.071996 -0.003738 0.032583 0.050633 0.043881 -0.037416 -0.164781 -0.023950 -0.001148 -0.025337 -0.006210 -0.053371 -0.025016 0.037898 -0.045300 0.118387 0.090045 -0.029254 -0.068502 -0.127360 0.052308 0.003369 0.040578 -0.183617 -0.013394 
wjd -0.029366 -0.022086 0.198659 -0.043270 -0.152429 -0.029811 0.103073 0.142518 0.047839 -0.067078 0.054153 -0.022559 -0.106508 -0.010398 0.043966 0.109812 -0.021168 -0.069888 0.052939 -0.130345 0.127081 0.215319 0.251101 -0.093734 -0.004780 -0.085671 0.029248 0.078364 0.059290 0.115261 0.028638 -0.200586 -0.086965 0.003629 -0.061640 0.097702 -0.213628 -0.084334 0.135873 -0.115398 0.102473 0.196361 -0.166157 -0.139276 -0.160656 0.140789 -0.071725 0.180336 -0.182800 -0.021238 
Edw -0.101154 -0.072900 0.204095 -0.070322 -0.161395 -0.052425 0.159966 0.180937 0.059995 -0.151555 0.070603 0.014180 -0.043932 0.002185 0.030740 0.179720 0.033012 -0.042865 0.025738 -0.069423 0.095097 0.234853 0.226354 -0.185535 0.072047 -0.172837 -0.043386 0.186143 0.117934 0.123965 0.027125 -0.179356 -0.079785 0.032453 -0.023038 0.086266 -0.188466 0.012620 0.152643 -0.193018 0.136827 0.188917 -0.134189 -0.173775 -0.116038 0.128561 -0.074010 0.127985 -0.180672 0.018108 
rjE -0.070701 -0.047601 0.204325 -0.029957 -0.134310 0.012268 0.085566 0.123285 0.062342 -0.067109 0.034224 -0.038639 -0.067606 -0.008326 0.043902 0.099711 -0.063490 -0.029598 0.065908 -0.054867 0.091454 0.123889 0.131141 -0.099479 -0.001964 -0.048472 0.013323 0.012376 0.078945 0.057941 0.007374 -0.124500 -0.027015 0.018197 -0.060496 0.009092 -0.144813 -0.062932 0.069907 -0.010838 0.095110 0.146244 -0.070815 -0.076399 -0.096681 0.069721 -0.008895 0.069196 -0.208848 -0.002835 
fDl -0.050035 -0.058301 0.224363 -0.016903 -0.147598 -0.061597 0.115906 0.156289 0.090278 -0.131757 0.088022 -0.039359 -0.072392 0.034507 0.110170 0.083696 -0.022238 -0.016173 0.067737 -0.065675 0.092968 0.152793 0.157554 -0.102657 -0.000328 -0.096948 -0.012047 0.083221 0.120725 0.054131 0.016509 -0.138944 -0.012564 0.047210 -0.027699 0.020238 -0.163250 -0.002517 0.067306 -0.026408 0.111206 0.082235 -0.070921 -0.093035 -0.109732 0.096586 -0.037358 0.061912 -0.166161 0.022415 
Sbr -0.129456 -0.080210 0.239203 -0.023366 -0.164597 -0.020475 0.078166 0.152679 0.075436 -0.187177 0.069044 -0.060427 -0.050690 0.031676 0.087656 0.134383 -0.085524 0.035069 0.085354 -0.014804 0.128407 0.139388 0.105309 -0.116623 0.065392 -0.065587 -0.014969 0.047179 0.087094 0.059034 -0.042710 -0.158023 -0.019757 -0.021917 -0.047765 -0.012873 -0.137792 -0.008059 0.018049 0.011894 0.133897 0.083837 -0.028351 -0.080794 -0.134884 0.063269 0.037742 0.009715 -0.248209 0.030351 
A*n -0.107410 -0.010169 0.184305 0.070987 -0.218806 -0.052079 0.055887 0.124760 0.150343 -0.104528 0.043493 -0.012093 -0.162450 0.058032 0.093073 0.139638 -0.018817 -0.036793 0.078136 -0.065209 0.150779 0.209901 0.195531 -0.058317 0.019778 -0.034162 0.027359 -0.086204 -0.013657 0.102210 0.030535 -0.165369 -0.048361 -0.017546 -0.094150 0.090611 -0.126262 -0.105980 0.024899 -0.046323 0.098905 0.205263 -0.109182 -0.104077 -0.145819 0.137231 -0.028775 0.127971 -0.246784 0.004944 
$dd -0.062845 -0.074796 0.182824 -0.086009 -0.065997 -0.068159 0.100060 0.101658 0.013459 -0.129654 0.049016 0.013767 -0.069608 -0.031178 0.030029 0.126718 0.026876 -0.063504 0.036798 -0.099417 0.121012 0.253294 0.233892 -0.111106 -0.012499 -0.148702 0.021531 0.086707 0.046135 0.083602 0.048447 -0.187122 -0.116398 0.008886 -0.032827 0.088087 -0.208989 -0.047409 0.120257 -0.137186 0.087451 0.143461 -0.133140 -0.130498 -0.144376 0.142065 -0.016307 0.150751 -0.155770 -0.008635 
wld 0.056822 -0.089964 0.172626 0.005219 -0.116473 0.021425 0.015532 0.076234 0.041604 -0.184431 -0.008437 -0.122145 -0.010624 -0.021546 0.100271 0.119522 -0.075256 0.018489 0.098731 -0.057942 0.214386 0.178965 0.182510 -0.131984 -0.025256 -0.231126 0.018733 0.000265 0.058523 -0.011386 -0.075839 -0.288973 -0.088161 -0.016633 -0.011402 -0.037095 -0.170507 -0.066004 0.016441 -0.085618 0.180442 0.088819 -0.076490 -0.054496 -0.247169 0.033009 0.009379 0.115418 -0.196895 -0.092610 
dyn -0.045538 -0.088918 0.289331 -0.045874 -0.206533 -0.044578 0.130607 0.187135 0.111912 -0.222897 0.062845 -0.063972 -0.030187 0.030691 0.101892 0.136013 -0.020663 0.011749 0.084066 -0.046826 0.168105 0.190300 0.204144 -0.173843 0.029306 -0.249488 -0.025121 0.092293 0.106813 0.048472 -0.039926 -0.230087 -0.040409 0.014837 -0.005101 -0.016814 -0.175206 -0.014495 0.092254 -0.099418 0.172445 0.115764 -0.055512 -0.091385 -0.203480 0.068195 -0.046279 0.054564 -0.195610 -0.022408 
Slw -0.101303 -0.059156 0.187170 -0.034957 -0.162890 -0.033114 0.051102 0.066320 0.030405 -0.165689 0.035328 0.009962 -0.118846 -0.028365 0.004721 0.165361 -0.020922 -0.032477 0.055215 -0.052475 0.186560 0.248848 0.221564 -0.100688 -0.005579 -0.134740 0.060598 -0.019642 -0.031133 0.098782 -0.000939 -0.242176 -0.152060 -0.062606 -0.063799 0.084375 -0.119983 -0.109757 0.092211 -0.131243 0.127233 0.178899 -0.114634 -0.086950 -0.207388 0.101282 0.034837 0.152784 -0.249312 -0.113310 
SHb 0.027216 -0.010776 0.096865 -0.062049 -0.097099 0.030170 0.113836 0.074990 0.067741 -0.009020 0.046935 -0.051429 -0.013552 -0.070753 0.056671 0.049557 -0.028931 -0.053581 0.011634 -0.088267 0.014778 0.099820 0.109977 -0.110006 0.004442 -0.105069 -0.033572 0.103063 0.110146 -0.000198 -0.017527 -0.140845 -0.026630 0.095349 -0.034839 0.021882 -0.132806 -0.084595 0.106096 -0.119839 0.117973 0.149781 -0.134251 -0.085841 -0.109552 0.090571 -0.051507 0.046504 -0.083730 -0.019656 
Ans -0.062587 -0.026445 0.166622 -0.089542 -0.090330 -0.033350 0.120423 0.122607 0.053660 -0.082947 0.106739 -0.019506 -0.081670 -0.006027 0.067992 0.085871 0.006358 -0.019350 0.042734 -0.129907 0.037045 0.154969 0.164681 -0.101430 0.040313 -0.050551 -0.006274 0.116902 0.065722 0.080547 0.038331 -0.124467 -0.041464 0.051790 -0.018659 0.075614 -0.182504 -0.030953 0.101395 -0.087928 0.089354 0.083973 -0.098226 -0.119781 -0.107747 0.144042 -0.048494 0.062860 -0.097002 0.077008 
qrb 0.015884 -0.040028 0.177655 -0.060256 -0.139272 -0.001327 0.081188 0.113784 0.071074 -0.107467 0.039093 -0.046082 -0.105944 -0.010923 0.097954 0.095136 -0.013956 -0.073280 0.076177 -0.140178 0.123866 0.176564 0.248704 -0.090331 -0.053797 -0.143805 0.034114 0.040341 0.005193 0.022878 0.019551 -0.203660 -0.072591 0.033802 -0.032874 0.063411 -0.130628 -0.057470 0.085655 -0.103265 0.116990 0.147349 -0.115891 -0.088162 -0.207369 0.110958 -0.093733 0.136276 -0.106008 -0.019918 
bgy -0.053741 -0.048909 0.176317 -0.029150 -0.175638 -0.030833 0.136959 0.133895 0.083954 -0.091137 0.062317 0.017604 -0.044727 -0.020866 0.048178 0.121826 0.004620 -0.070819 0.000029 -0.055778 0.066024 0.162949 0.167397 -0.123395 -0.011323 -0.136166 -0.033198 0.086243 0.042018 0.027133 -0.009988 -0.142386 -0.083190 0.053982 -0.028119 0.025509 -0.115816 -0.053235 0.128936 -0.142454 0.107453 0.190370 -0.132491 -0.101609 -0.136045 0.060609 -0.077113 0.108346 -0.175056 -0.026427 
Axw -0.100875 -0.113000 0.193277 -0.017152 -0.098442 -0.080509 0.028881 0.103301 0.019791 -0.177026 0.037015 -0.039943 -0.114323 0.036252 0.034615 0.119549 -0.000885 0.017444 0.097445 -0.128537 0.195314 0.264134 0.203510 -0.066700 -0.026095 -0.104928 0.057939 -0.029929 -0.002162 0.067501 0.018671 -0.228480 -0.097976 -0.089028 -0.036194 0.033792 -0.175347 -0.065917 0.035177 -0.067557 0.118523 0.039549 -0.097797 -0.096264 -0.218877 0.121621 0.054172 0.152032 -0.243608 -0.075527 
Hbb -0.079272 -0.043413 0.187961 -0.032813 -0.100049 -0.074542 0.105598 0.128075 0.050803 -0.123054 0.055808 -0.000629 -0.118764 0.019848 0.047323 0.110669 -0.006808 -0.038436 0.045618 -0.106170 0.099636 0.195233 0.192246 -0.079208 0.007203 -0.080208 0.026030 0.041947 0.047633 0.087181 0.054625 -0.140845 -0.061258 0.006691 -0.051996 0.085201 -0.203324 -0.059871 0.082663 -0.080823 0.080758 0.115188 -0.094423 -0.114212 -0.132407 0.130882 -0.020981 0.101740 -0.184039 0.040206 
sbH -0.126040 -0.060413 0.144177 -0.066564 -0.091286 -0.054345 0.112840 0.124752 0.013691 -0.087671 0.046385 0.026518 -0.015458 -0.007032 -0.025799 0.137036 0.012615 -0.016377 -0.013751 -0.040839 0.056547 0.157359 0.103134 -0.111534 0.038921 -0.090891 -0.039054 0.121054 0.057472 0.044471 -0.001986 -0.103105 -0.077821 0.007926 -0.001381 0.043303 -0.118618 -0.007932 0.109134 -0.116401 0.062689 0.124025 -0.084346 -0.103411 -0.064738 0.059981 -0.010070 0.073887 -0.164824 -0.001039 
sjd -0.079628 -0.043750 0.160772 -0.069042 -0.136753 -0.017675 0.113075 0.104674 0.071477 -0.117559 0.056819 0.004479 -0.035225 -0.001779 0.038386 0.107291 0.012611 -0.036686 0.010953 -0.035879 0.051659 0.124274 0.130848 -0.114501 0.018063 -0.077976 -0.022575 0.101843 0.036521 0.038824 0.006945 -0.129822 -0.067573 0.030439 -0.021028 0.053003 -0.091041 -0.010904 0.090717 -0.109888 0.095682 0.136225 -0.073263 -0.098641 -0.097023 0.061319 -0.033798 0.056293 -0.142701 0.021110 
lyl -0.148995 -0.085807 0.165701 -0.039375 -0.042796 -0.163900 0.110105 0.112071 0.059668 -0.167007 0.098844 0.029779 -0.133039 0.038437 0.024101 0.127793 0.091008 -0.043891 0.023066 -0.127793 0.071932 0.256979 0.174089 -0.049419 0.002080 -0.049989 0.031577 0.052435 -0.011295 0.072543 0.100685 -0.148085 -0.095651 -0.010203 -0.001700 0.120849 -0.175055 -0.023498 0.048594 -0.121535 0.042165 0.038184 -0.115935 -0.117193 -0.107756 0.162093 -0.009702 0.124471 -0.133322 0.054045 
lys -0.064313 -0.074132 0.194239 -0.058369 -0.115619 -0.016203 0.068000 0.092112 0.035526 -0.131548 0.028841 -0.027130 -0.044552 -0.006443 0.019425 0.097296 -0.023374 -0.005186 0.038322 -0.033409 0.103894 0.146010 0.138016 -0.108544 -0.016144 -0.123138 -0.013939 0.037090 0.023357 0.014775 -0.009435 -0.160049 -0.082904 -0.029943 -0.029317 0.006730 -0.110739 -0.041888 0.078569 -0.080567 0.110974 0.104491 -0.067741 -0.045942 -0.143555 0.026960 0.040817 0.066103 -0.195830 -0.087848 
$Tn -0.051331 -0.017724 0.193518 -0.000944 -0.166203 -0.004564 0.108267 0.152309 0.100081 -0.061413 0.039954 -0.041066 -0.103047 0.009518 0.093564 0.058823 -0.025859 -0.039032 0.069117 -0.094054 0.091284 0.130610 0.177885 -0.064117 -0.001527 -0.056078 0.034596 0.036064 0.103469 0.062199 0.008440 -0.111469 0.018287 0.044997 -0.051172 0.046493 -0.151402 -0.043653 0.072768 -0.011669 0.087100 0.133830 -0.086396 -0.107454 -0.124475 0.123047 -0.059574 0.093374 -0.148736 0.042950 
qrA -0.146425 -0.068997 0.180939 -0.014425 -0.100097 -0.103466 0.081776 0.127172 0.000608 -0.092354 0.045259 0.022740 -0.088370 0.017285 -0.036151 0.137355 0.022373 -0.048561 -0.003637 -0.097234 0.088175 0.226313 0.138510 -0.048446 0.002874 -0.057735 0.041069 0.051694 0.050240 0.067647 0.051311 -0.114543 -0.082932 -0.037329 -0.018846 0.054341 -0.145576 -0.018983 0.061647 -0.075749 0.032952 0.090615 -0.109721 -0.109463 -0.051464 0.068584 0.013499 0.120489 -0.192846 -0.025941 
xld -0.102739 -0.031283 0.164947 -0.031456 -0.093126 -0.074158 0.088021 0.108209 0.020128 -0.031638 0.049875 0.007281 -0.067524 0.012402 0.010316 0.104604 0.052154 -0.055018 -0.007955 -0.159390 0.055125 0.194818 0.128121 -0.039274 0.016741 -0.065702 0.023922 0.081519 0.093043 0.054103 0.050111 -0.124981 -0.074562 0.036657 -0.010620 0.058101 -0.160925 -0.039154 0.075572 -0.103137 0.067714 0.109416 -0.140865 -0.137227 -0.068369 0.107397 -0.052895 0.072837 -0.136077 0.027154 
twb -0.044729 -0.055731 0.099515 -0.035707 -0.027396 -0.052727 0.054547 0.042311 -0.015414 -0.078497 0.041986 0.015058 -0.030328 -0.007453 -0.034467 0.106264 0.036040 -0.048646 -0.009449 -0.059474 0.052921 0.156547 0.130640 -0.073594 0.010998 -0.076887 -0.010511 0.088261 0.002648 0.058711 0.022139 -0.149481 -0.103467 -0.020637 0.005049 0.063144 -0.088174 -0.014737 0.063661 -0.116603 0.049149 0.059987 -0.085825 -0.077699 -0.071584 0.046870 0.016608 0.104326 -0.084486 -0.035960 
mwl -0.030011 -0.024423 0.248435 -0.015531 -0.187463 0.034546 0.115266 0.143022 0.099172 -0.136883 0.060059 -0.112510 0.023677 0.007884 0.135040 0.074491 -0.097312 0.027875 0.094568 0.008181 0.117603 0.062132 0.094083 -0.131601 0.045332 -0.117244 -0.059643 0.123057 0.135046 0.029995 -0.082940 -0.189154 0.015259 0.045988 -0.022447 -0.050843 -0.134891 -0.007072 0.068778 0.000527 0.165138 0.096751 -0.038440 -0.048127 -0.138681 0.035878 -0.025065 -0.024893 -0.187475 0.026353 
AHd -0.080385 -0.054279 0.230795 -0.069103 -0.172014 -0.027602 0.130255 0.123079 0.057983 -0.122488 0.061279 -0.010964 -0.085023 -0.031606 0.037419 0.161756 -0.001750 -0.066177 0.030457 -0.085812 0.126972 0.237106 0.222209 -0.141684 0.019808 -0.155618 0.013838 0.067188 0.041114 0.051819 0.005127 -0.198027 -0.126575 0.029182 -0.055665 0.077930 -0.159113 -0.081180 0.122171 -0.134442 0.136977 0.232634 -0.150469 -0.136388 -0.173543 0.107066 -0.043156 0.124192 -0.210265 -0.054680 
njw -0.074524 -0.039792 0.125404 -0.016110 -0.057545 -0.055191 0.028527 0.074383 0.013048 -0.031630 0.022674 0.013991 -0.076787 0.018228 -0.004116 0.065383 -0.006710 -0.053270 0.006959 -0.095112 0.077282 0.135270 0.117826 -0.017612 -0.018170 -0.028681 0.039360 -0.018337 0.021537 0.051630 0.041087 -0.088027 -0.043725 -0.022896 -0.027557 0.058527 -0.119208 -0.049960 0.029968 -0.043444 0.019450 0.047732 -0.085321 -0.057184 -0.059868 0.084047 0.019132 0.091152 -0.122757 -0.013212 
swy -0.083052 -0.030015 0.187144 -0.029470 -0.094573 -0.070356 0.101972 0.133305 0.085632 -0.074485 0.075112 -0.016148 -0.096955 0.032123 0.086232 0.055750 0.010388 -0.031938 0.063413 -0.100688 0.064760 0.122201 0.142434 -0.057815 -0.009347 -0.015865 0.022734 0.031386 0.099199 0.046369 0.046395 -0.105819 -0.008411 0.018646 -0.050377 0.034266 -0.150433 -0.037187 0.043854 -0.016320 0.050801 0.071603 -0.070888 -0.100210 -0.062092 0.086760 -0.016257 0.053839 -0.133983 0.042493 
kyf -0.068270 -0.062264 0.217654 -0.052150 -0.145642 -0.013439 0.114468 0.132209 0.058770 -0.109256 0.056981 -0.028503 -0.059645 -0.013047 0.083820 0.109740 -0.017467 -0.002707 0.047353 -0.069738 0.100506 0.154389 0.138945 -0.116254 0.019664 -0.112568 -0.031174 0.080727 0.107024 0.049169 -0.006952 -0.138197 -0.035119 0.051915 -0.037614 0.012703 -0.155518 -0.023062 0.071489 -0.056592 0.100373 0.127658 -0.063103 -0.086110 -0.125306 0.087510 -0.020367 0.047675 -0.189394 0.018922 
Hrm 0.009277 -0.052550 0.245885 -0.145840 -0.152536 -0.009502 0.161545 0.129113 0.062243 -0.178868 0.066827 -0.018381 -0.059300 -0.063991 0.115604 0.095246 0.010789 -0.036813 0.065383 -0.057817 0.102998 0.145602 0.243978 -0.171842 -0.017228 -0.256639 -0.038780 0.112842 0.061099 0.075769 -0.001780 -0.198342 -0.054505 0.052082 -0.003071 0.031080 -0.170489 -0.009838 0.146694 -0.139869 0.170371 0.148578 -0.081634 -0.082125 -0.224618 0.143501 -0.100625 0.088789 -0.101048 -0.021551 
zwj -0.088965 -0.059350 0.220302 -0.068488 -0.074792 -0.098160 0.124174 0.165477 0.026674 -0.073571 0.100022 -0.031021 -0.130146 0.039545 0.072134 0.054043 0.010526 -0.014826 0.058525 -0.169693 0.089805 0.208341 0.212931 -0.060180 -0.017721 -0.048967 0.048664 0.110456 0.110399 0.110510 0.059837 -0.160844 -0.056084 0.025024 -0.028545 0.055038 -0.266614 -0.045835 0.088324 -0.039835 0.080122 0.054205 -0.110914 -0.146235 -0.113238 0.164043 -0.056018 0.106069 -0.141521 0.078767 
Eqb -0.056142 -0.040152 0.192021 0.022368 -0.169785 -0.009887 0.088047 0.109392 0.109261 -0.113667 0.029728 -0.044850 -0.032560 0.015110 0.087629 0.065362 -0.045874 -0.015843 0.049405 0.006927 0.096564 0.110468 0.092643 -0.090790 0.010261 -0.091101 -0.015512 0.017808 0.097242 0.018347 -0.009998 -0.108903 0.007496 0.041985 -0.047067 -0.013017 -0.069125 -0.002171 0.021365 -0.002280 0.103401 0.112018 -0.028442 -0.063063 -0.084253 0.009963 -0.008455 0.028340 -0.176278 -0.006675 
ErD -0.194511 -0.087367 0.151614 -0.037523 -0.053548 -0.098090 0.079517 0.107577 -0.038195 -0.093700 0.065535 0.060446 -0.064713 0.021491 -0.084675 0.152336 0.032934 -0.048742 -0.035178 -0.068623 0.057152 0.192963 0.078346 -0.062918 0.030007 -0.005279 0.017443 0.081038 0.039134 0.080541 0.052120 -0.110321 -0.101218 -0.064907 -0.004172 0.053928 -0.137186 -0.020635 0.078948 -0.103043 0.042201 0.067007 -0.098807 -0.103530 -0.030764 0.061104 0.056756 0.093679 -0.195114 -0.014605 
wjh -0.150548 -0.054994 0.227416 -0.094619 -0.155582 -0.018064 0.147537 0.162308 -0.026877 -0.097431 0.074741 0.009974 -0.064312 -0.061027 -0.042326 0.174569 -0.044254 -0.059792 0.011823 -0.091125 0.148678 0.270549 0.219253 -0.144459 0.049285 -0.118624 0.018993 0.142813 0.114398 0.135997 0.016893 -0.236530 -0.139308 -0.002579 -0.062932 0.079945 -0.278067 -0.083416 0.178314 -0.177482 0.133411 0.234325 -0.172320 -0.157133 -0.143549 0.144283 -0.005281 0.143040 -0.281646 -0.039291 
wHy -0.101245 -0.028876 0.159376 0.008583 -0.139202 -0.029482 0.081203 0.106033 0.040104 -0.108863 0.047446 0.006823 -0.061970 0.015522 0.016963 0.094341 -0.023212 -0.006761 0.040035 -0.032672 0.109483 0.169712 0.121160 -0.055057 0.028050 -0.041182 0.045640 0.009190 0.061561 0.085226 0.010321 -0.109063 -0.044602 -0.018941 -0.047816 0.036197 -0.125489 -0.049574 0.036480 -0.038082 0.070201 0.123363 -0.060059 -0.094382 -0.076789 0.078800 0.012149 0.055657 -0.206266 -0.007487 
Swb -0.091930 -0.049258 0.231261 -0.043764 -0.145557 -0.030653 0.098922 0.155342 0.059135 -0.091863 0.057341 -0.051447 -0.034591 -0.006906 0.046682 0.118675 -0.045952 -0.050999 0.044625 -0.091614 0.100495 0.183430 0.183777 -0.125683 0.024758 -0.089859 -0.016738 0.131389 0.110200 0.092800 0.016099 -0.205047 -0.057917 0.013074 -0.045182 0.033185 -0.187878 -0.036178 0.110162 -0.076473 0.124812 0.123733 -0.125882 -0.119699 -0.120688 0.096061 -0.022574 0.099285 -0.190176 0.025658 
blg -0.045186 -0.060994 0.209766 -0.091493 -0.117218 -0.038595 0.126185 0.103744 0.063451 -0.124170 0.085675 -0.004473 -0.096853 -0.010050 0.081921 0.116144 0.018115 -0.056098 0.048313 -0.096526 0.095666 0.213570 0.222407 -0.097676 -0.010270 -0.119723 0.011320 0.030881 -0.009356 0.051332 0.021245 -0.190144 -0.080489 0.059066 -0.030845 0.078208 -0.173886 -0.081212 0.106555 -0.105471 0.116934 0.158631 -0.129655 -0.121717 -0.180904 0.170703 -0.034758 0.138883 -0.177778 0.020741 
qll -0.156741 -0.068770 0.199417 -0.026602 -0.113506 -0.074961 0.113963 0.138578 0.006703 -0.101423 0.047038 0.014272 -0.039580 -0.014292 -0.047949 0.158246 0.025551 -0.056563 -0.018065 -0.064953 0.100250 0.215142 0.132875 -0.099703 0.039295 -0.122552 -0.010025 0.127855 0.097440 0.071816 0.016613 -0.156195 -0.097519 -0.011371 -0.006870 0.066140 -0.197726 -0.010579 0.109893 -0.140810 0.108530 0.142700 -0.148075 -0.146706 -0.099050 0.076384 -0.026101 0.139080 -0.199516 -0.006227 
Alm -0.080058 -0.047595 0.167443 -0.065689 -0.074236 -0.044768 0.119023 0.123381 0.021811 -0.040125 0.067044 0.021913 -0.051315 -0.010308 0.005163 0.090100 0.007453 -0.043965 -0.020142 -0.084424 0.041297 0.119922 0.122462 -0.092021 -0.013022 -0.085186 -0.021920 0.109633 0.087909 0.044887 0.023980 -0.087312 -0.068861 0.036424 -0.003133 0.035684 -0.156430 -0.026784 0.123457 -0.116582 0.063406 0.119649 -0.105327 -0.105599 -0.078081 0.073822 -0.051181 0.087929 -0.120325 0.009337 
klm -0.143210 -0.076079 0.222167 -0.044183 -0.112761 -0.040585 0.098968 0.143909 0.018081 -0.104707 0.043084 -0.002894 -0.010462 0.008298 -0.028883 0.133794 -0.011548 0.003015 -0.022280 0.023281 0.083778 0.125371 0.067752 -0.119164 0.025826 -0.079533 -0.066552 0.091954 0.094212 0.057104 -0.019935 -0.094723 -0.070939 -0.002231 -0.016608 0.019905 -0.150339 -0.020905 0.094392 -0.102612 0.085426 0.136566 -0.058193 -0.096140 -0.040402 0.037412 0.037920 0.059710 -0.231300 -0.028894 
$kr -0.133947 -0.053215 0.206884 -0.038041 -0.110928 -0.075645 0.111420 0.156851 0.028376 -0.079134 0.078417 0.009092 -0.086414 0.003342 0.005328 0.116986 0.018325 -0.053520 0.026250 -0.140525 0.103217 0.228521 0.161292 -0.067434 -0.001498 -0.059386 0.040506 0.083380 0.107908 0.078299 0.061119 -0.166684 -0.092621 0.014009 -0.043317 0.074490 -0.200111 -0.060433 0.103104 -0.099968 0.077042 0.133954 -0.157200 -0.144476 -0.084407 0.116827 -0.002148 0.124093 -0.211838 0.013564 
Drr -0.079063 -0.063754 0.238856 -0.056500 -0.165360 -0.023099 0.117100 0.134820 0.062128 -0.167299 0.072026 -0.031304 -0.019262 0.000142 0.076742 0.110904 -0.036959 0.013360 0.042870 -0.006785 0.087093 0.095168 0.096601 -0.124377 0.026232 -0.143973 -0.052418 0.070386 0.082715 0.030967 -0.051595 -0.154155 -0.034265 0.022649 -0.021365 -0.039916 -0.109307 -0.021445 0.065717 -0.063721 0.131379 0.093041 -0.038748 -0.078081 -0.149296 0.046174 -0.009770 0.010764 -0.189036 -0.007690 
bAs -0.112056 -0.057575 0.164139 -0.036423 -0.077250 -0.093120 0.069447 0.099571 -0.015502 -0.106343 0.069539 0.013887 -0.088854 0.010518 -0.019160 0.139795 0.020427 -0.024619 0.015518 -0.093714 0.109233 0.245079 0.176202 -0.063251 0.012513 -0.075160 0.044053 0.059499 0.021500 0.088583 0.044949 -0.181251 -0.120055 -0.052708 -0.014674 0.085005 -0.149954 -0.030461 0.060874 -0.098403 0.057955 0.068409 -0.098579 -0.116542 -0.092746 0.106333 0.010442 0.125017 -0.181299 -0.015278 
rDw -0.069583 -0.070304 0.237769 -0.021970 -0.192364 -0.070734 0.094438 0.109191 0.115347 -0.193517 0.061474 -0.034651 -0.053792 0.042608 0.103839 0.127022 0.007051 -0.006340 0.066067 -0.027535 0.131775 0.156449 0.176525 -0.112633 0.012536 -0.122443 -0.013966 0.040871 0.046686 0.046345 -0.012491 -0.182415 -0.029824 0.006512 -0.014802 0.001409 -0.054345 -0.021227 0.050213 -0.044066 0.127616 0.080862 -0.026993 -0.062507 -0.143448 0.048973 -0.009095 0.036164 -0.159298 -0.021444 
byt -0.177865 -0.115122 0.341600 -0.092734 -0.167087 -0.009090 0.059818 0.198275 0.031685 -0.139918 0.067338 -0.074208 -0.122823 0.052253 0.002361 0.142399 -0.120644 0.024244 0.085067 -0.128571 0.203363 0.268639 0.220877 -0.156087 -0.006644 -0.069682 0.032645 0.049514 0.145867 0.116816 -0.011029 -0.293205 -0.121868 -0.110623 -0.082963 -0.012023 -0.250221 -0.064055 0.129973 -0.016397 0.183002 0.104788 -0.123981 -0.089711 -0.210710 0.069102 0.096068 0.121479 -0.396406 -0.091245 
rjl -0.117279 -0.108800 0.193512 -0.051766 -0.082692 -0.063284 0.058781 0.077255 -0.020740 -0.109774 0.041074 0.019468 -0.083843 -0.027010 -0.061589 0.171524 0.003363 -0.066018 0.013375 -0.069372 0.105399 0.208240 0.146773 -0.077622 -0.030019 -0.062999 0.034116 0.000054 -0.033423 0.035710 0.033635 -0.176421 -0.142947 -0.068994 -0.045920 0.073645 -0.122574 -0.068556 0.091222 -0.116391 0.074325 0.116259 -0.126335 -0.077233 -0.138786 0.076155 0.086370 0.162112 -0.225309 -0.097464 
gny -0.064194 -0.032659 0.180088 0.030929 -0.137317 -0.026239 0.075266 0.151068 0.094753 -0.089895 0.036752 -0.057967 -0.077766 0.048388 0.110251 0.055367 -0.054354 -0.003900 0.086226 -0.095458 0.096259 0.150187 0.130380 -0.054852 0.004868 -0.036345 0.022493 0.034620 0.116423 0.080915 0.014785 -0.120167 0.032187 0.020583 -0.057802 0.031435 -0.178825 -0.007274 0.026519 0.043854 0.081394 0.069742 -0.064661 -0.092267 -0.089261 0.099261 -0.038989 0.046536 -0.181810 0.078593 
frq -0.145233 -0.072909 0.176790 -0.032695 -0.089860 -0.019300 0.082648 0.084283 -0.043329 -0.106612 0.026832 0.023445 0.033341 -0.020985 -0.071272 0.139411 -0.034565 -0.006464 -0.040062 0.047084 0.080115 0.111711 0.019039 -0.110626 0.058962 -0.078899 -0.050038 0.092899 0.080902 0.055042 -0.032119 -0.108142 -0.084684 -0.033390 -0.012060 -0.014358 -0.113933 -0.019045 0.077945 -0.077056 0.080076 0.096072 -0.040564 -0.058451 -0.039830 0.001666 0.069327 0.054622 -0.218361 -0.065261 
ymn -0.023128 -0.097254 0.134293 -0.110001 -0.076723 -0.047576 0.091881 0.068464 -0.027737 -0.105931 0.034237 -0.000777 -0.057199 -0.060831 -0.022243 0.150848 0.036008 -0.091372 0.014544 -0.134303 0.139152 0.285902 0.227747 -0.125863 -0.028804 -0.189485 0.012963 0.078314 0.027060 0.032843 0.015183 -0.235464 -0.165228 0.016038 -0.013790 0.063313 -0.172449 -0.078804 0.140120 -0.196524 0.114828 0.156756 -0.194041 -0.128097 -0.191938 0.120503 0.012580 0.199046 -0.210501 -0.112332 
mtE -0.069615 -0.053732 0.154813 -0.044178 -0.079798 -0.065736 0.061307 0.091206 -0.009939 -0.088430 0.043277 -0.005491 -0.134179 0.002267 0.019921 0.095995 -0.003608 -0.064397 0.028459 -0.107955 0.122193 0.239617 0.201175 -0.035547 -0.034010 -0.061202 0.044977 0.012251 0.002771 0.078679 0.037342 -0.169161 -0.114538 -0.045690 -0.035921 0.092175 -0.169078 -0.076956 0.080982 -0.073451 0.064786 0.112586 -0.131889 -0.087890 -0.146706 0.124802 0.015094 0.179261 -0.196862 -0.035794 
Erf -0.128379 -0.107384 0.223926 -0.008805 -0.127183 -0.080384 0.079743 0.130555 0.023103 -0.170512 0.048434 -0.023520 -0.060847 0.023823 0.041257 0.140288 -0.032984 -0.008554 0.043093 -0.055862 0.129565 0.210382 0.133110 -0.105239 0.025158 -0.099045 -0.001275 0.064241 0.063743 0.044473 -0.015099 -0.184285 -0.079109 -0.035588 -0.012490 0.000170 -0.139860 -0.010068 0.058893 -0.070215 0.107013 0.064371 -0.084670 -0.082861 -0.143566 0.050368 0.037493 0.079207 -0.258076 -0.035940 
Elw -0.072024 -0.040576 0.208678 -0.032071 -0.167392 -0.010185 0.115328 0.156008 0.091166 -0.101020 0.076731 -0.023481 -0.074446 0.002040 0.097327 0.090278 -0.036415 -0.012008 0.066803 -0.082000 0.091447 0.147839 0.141107 -0.115055 0.024342 -0.081879 -0.028507 0.069408 0.108937 0.065689 -0.003474 -0.149344 -0.012246 0.054133 -0.030849 0.022911 -0.155396 -0.021416 0.077781 -0.022633 0.108951 0.118994 -0.060491 -0.085288 -0.126416 0.113142 -0.038428 0.034452 -0.178242 0.048142 
wkl -0.160734 -0.064303 0.229118 0.023479 -0.168719 -0.039156 0.059391 0.126433 0.070078 -0.140994 0.045454 -0.021552 -0.061408 0.044519 0.026056 0.125976 -0.085403 0.018073 0.039948 0.020401 0.100630 0.103205 0.049156 -0.073338 0.041644 0.018500 -0.003092 -0.010563 0.067059 0.067298 -0.033409 -0.114044 -0.037523 -0.047990 -0.043515 -0.029026 -0.057159 -0.019723 0.008073 0.034938 0.086549 0.074242 -0.003205 -0.048534 -0.051855 0.009859 0.083530 0.004051 -0.265122 -0.006390 
skn -0.082764 -0.029369 0.201475 -0.081977 -0.133518 -0.000131 0.062221 0.163386 0.083141 -0.133096 0.092695 -0.095915 -0.085875 0.051331 0.171102 0.068060 -0.089894 0.053603 0.124912 -0.153319 0.073764 0.114848 0.167700 -0.082768 0.064356 -0.057470 -0.016227 0.140692 0.121095 0.126863 -0.018848 -0.192290 0.050280 0.047809 -0.028351 0.016251 -0.198792 0.029696 0.048444 0.027014 0.164540 0.005134 -0.044135 -0.076880 -0.190639 0.172972 -0.065651 -0.009315 -0.098106 0.197668 
Znn -0.109747 -0.095645 0.206580 -0.030580 -0.117296 -0.035310 0.095404 0.137985 0.050114 -0.137674 0.047688 -0.019507 -0.020067 0.013959 0.011110 0.138168 -0.020515 -0.014349 0.002693 -0.035694 0.088592 0.178181 0.099439 -0.133090 0.005918 -0.067456 -0.020013 0.084313 0.103318 0.041049 0.002038 -0.158943 -0.077364 -0.016033 -0.037231 0.010158 -0.136882 -0.019381 0.076317 -0.074247 0.086301 0.123906 -0.082150 -0.105840 -0.074496 0.018703 0.038560 0.081939 -0.236829 -0.026148 
wHd -0.152846 -0.086810 0.305226 -0.083238 -0.156479 -0.009210 0.085022 0.232277 0.070322 -0.203743 0.123364 -0.086283 -0.022295 0.078647 0.136882 0.140479 -0.105660 0.110214 0.090116 -0.088823 0.083493 0.095435 0.112521 -0.138471 0.104108 -0.094650 -0.051433 0.212339 0.163005 0.111422 -0.085260 -0.216789 0.039870 0.019805 -0.007192 -0.059136 -0.211669 0.058219 0.026458 0.040557 0.209349 -0.036541 0.013845 -0.077178 -0.184283 0.104716 -0.001355 -0.078339 -0.198053 0.164692 
hlk -0.181531 -0.070373 0.181482 0.009993 -0.079420 -0.091571 0.089198 0.136731 0.021209 -0.085516 0.039374 0.019279 -0.047196 0.038838 -0.037068 0.110455 0.003283 -0.031930 -0.006087 -0.051618 0.057830 0.170501 0.054031 -0.055557 0.031456 0.005149 0.024354 0.030559 0.098229 0.042045 0.049377 -0.092151 -0.056484 -0.031090 -0.028474 0.022147 -0.146653 -0.028198 0.039708 -0.055398 0.035098 0.088542 -0.064346 -0.108709 -0.030223 0.028718 0.027544 0.071206 -0.216245 -0.004122 
bEv -0.202413 -0.079666 0.216697 -0.006785 -0.154340 -0.117782 0.101696 0.142383 0.049096 -0.129953 0.097005 0.035088 -0.091923 0.054648 0.006180 0.137574 0.008450 -0.000303 0.016789 -0.049033 0.086847 0.187366 0.103846 -0.056698 0.088816 0.026669 0.010787 0.025484 0.073872 0.107922 0.025166 -0.096840 -0.055714 -0.014932 -0.046263 0.057482 -0.112943 -0.014859 0.034256 -0.020585 0.037961 0.078168 -0.065197 -0.104941 -0.023179 0.115969 0.061813 0.044718 -0.235482 0.045633 
ksb -0.114437 -0.054245 0.211980 -0.005844 -0.130999 -0.060445 0.071398 0.166765 0.076838 -0.108239 0.059541 -0.051560 -0.067032 0.051018 0.053746 0.101110 -0.057627 -0.008566 0.053538 -0.077732 0.111831 0.143905 0.124520 -0.049566 0.027282 -0.024515 0.013937 0.044340 0.085773 0.056005 0.015959 -0.149826 -0.027864 -0.011461 -0.043912 0.013477 -0.185557 -0.016670 0.045828 -0.010551 0.088913 0.071451 -0.080541 -0.091458 -0.094862 0.077721 -0.001619 0.080270 -0.205454 0.029717 
wfy -0.105712 -0.075968 0.214170 -0.016686 -0.102887 -0.061787 0.072174 0.113420 0.046964 -0.102854 0.053610 -0.013623 -0.103546 0.028601 0.034023 0.106458 -0.030770 -0.026576 0.055247 -0.088030 0.128391 0.206971 0.158340 -0.053276 -0.014281 -0.035113 0.044796 0.010683 0.049133 0.074686 0.024175 -0.147304 -0.061995 -0.016177 -0.054494 0.045974 -0.151535 -0.059329 0.043835 -0.022796 0.078766 0.071936 -0.069240 -0.085968 -0.113771 0.092397 0.025345 0.108178 -0.220812 0.003343 
jrm -0.014455 -0.004952 0.179830 -0.020411 -0.143382 -0.013141 0.100594 0.130925 0.077261 -0.068408 0.053421 -0.044910 -0.105478 -0.008792 0.087382 0.064344 -0.013651 -0.061794 0.073422 -0.131051 0.124314 0.192584 0.231567 -0.066482 -0.028123 -0.104444 0.033857 0.035452 0.094074 0.079873 0.037638 -0.173856 -0.044141 0.030826 -0.056142 0.065907 -0.201519 -0.061325 0.083141 -0.036025 0.088751 0.163053 -0.134760 -0.122024 -0.129583 0.125594 -0.060969 0.125406 -0.154635 0.022321 
xsr -0.046468 -0.017753 0.178644 -0.018306 -0.137167 0.040259 0.067915 0.116664 0.079390 -0.089446 0.041641 -0.070868 -0.051846 0.010577 0.091173 0.055625 -0.102989 0.013144 0.073374 -0.038271 0.096408 0.077766 0.107390 -0.078005 0.009350 -0.053369 -0.000244 0.037858 0.076707 0.051876 -0.023361 -0.133376 0.002278 0.018146 -0.052526 -0.015153 -0.121215 -0.036490 0.047452 0.009606 0.121473 0.080877 -0.047631 -0.041781 -0.118364 0.051342 -0.020554 0.029619 -0.152768 0.029416 
Eyn -0.057071 -0.032885 0.156249 -0.072401 -0.103939 0.005433 0.118097 0.118083 0.002660 -0.053261 0.032164 -0.000194 -0.053568 -0.044761 -0.013206 0.130679 -0.011357 -0.070823 -0.010335 -0.087657 0.106418 0.227413 0.202990 -0.111184 0.003933 -0.120536 -0.005883 0.106246 0.072602 0.082332 0.025878 -0.191277 -0.114670 0.003963 -0.045797 0.074561 -0.214105 -0.089075 0.152056 -0.150552 0.095544 0.223009 -0.167228 -0.140127 -0.111634 0.109859 -0.046780 0.171410 -0.190590 -0.026465 
jry -0.063606 -0.069615 0.099905 -0.081144 0.024613 -0.111300 0.073795 0.024958 -0.072066 -0.120716 0.064219 0.036972 -0.045885 -0.038756 -0.039502 0.143755 0.125326 -0.027456 -0.038380 -0.111194 0.057801 0.241833 0.160324 -0.070875 -0.000279 -0.164978 -0.003614 0.117001 -0.023150 0.032130 0.065786 -0.163865 -0.147085 -0.018575 0.053740 0.089865 -0.133391 -0.036718 0.067321 -0.201818 0.069379 0.052752 -0.137599 -0.111974 -0.129642 0.103318 -0.002165 0.118641 -0.062768 -0.046800 
Hml -0.075386 -0.047796 0.220807 -0.046381 -0.177157 -0.053220 0.091625 0.156441 0.102418 -0.106651 0.072360 -0.004886 -0.127711 0.026540 0.100872 0.097481 -0.026496 -0.052480 0.059022 -0.118595 0.082976 0.187972 0.221983 -0.098774 0.003918 -0.076897 0.019745 0.055085 0.062518 0.071052 0.014618 -0.136643 -0.041470 0.026939 -0.071400 0.067423 -0.164690 -0.038226 0.103421 -0.057541 0.113013 0.140780 -0.106236 -0.112487 -0.121880 0.150195 -0.043255 0.098470 -0.164793 0.047217 
Hmd -0.140283 -0.052050 0.180468 -0.025800 -0.091694 -0.114104 0.100723 0.147244 0.031833 -0.073966 0.072189 0.011043 -0.089803 0.039378 -0.000411 0.104210 0.017333 -0.044033 0.000277 -0.109106 0.063917 0.193017 0.130775 -0.025161 0.009096 0.005505 0.036176 0.044253 0.070320 0.070932 0.059605 -0.102748 -0.061064 -0.013112 -0.032172 0.071810 -0.161283 -0.028192 0.063340 -0.059856 0.032780 0.085134 -0.121369 -0.123787 -0.039568 0.100348 0.018680 0.118027 -0.191564 0.028018 
mwh -0.238150 -0.044623 0.272640 -0.075615 -0.096103 -0.186793 0.213798 0.232481 0.001970 -0.027546 0.110575 0.040416 -0.182466 0.019882 -0.050187 0.190121 0.107041 -0.160751 -0.035796 -0.408666 0.058157 0.440671 0.276965 -0.025186 0.058016 -0.035517 0.112700 0.216768 0.174189 0.163735 0.218000 -0.258156 -0.167194 0.058404 -0.048668 0.232672 -0.463541 -0.087956 0.215095 -0.238912 0.080301 0.217771 -0.370193 -0.345612 -0.115360 0.316224 -0.120694 0.233864 -0.224424 0.102993 
tlw -0.080824 -0.059090 0.157974 -0.040597 -0.058770 -0.048932 0.078752 0.122368 0.001796 -0.048481 0.031598 0.026230 -0.040863 0.014239 -0.024115 0.065778 0.003387 -0.052017 -0.014624 -0.043338 0.043073 0.128011 0.104622 -0.064048 -0.009643 -0.040492 0.008038 0.053059 0.053464 0.044162 0.037331 -0.063925 -0.042814 0.007332 -0.023032 0.038903 -0.119830 -0.015931 0.086097 -0.067833 0.023536 0.099657 -0.070713 -0.086189 -0.035366 0.048034 0.001671 0.097297 -0.148779 0.006898 
sHr -0.115628 -0.033586 0.184738 -0.009660 -0.128369 -0.008328 0.073052 0.105097 0.024618 -0.063361 0.023925 -0.009865 -0.039830 0.016097 0.003975 0.106846 -0.052373 -0.036115 -0.002521 -0.028368 0.077728 0.117533 0.077997 -0.079295 0.018126 -0.034098 -0.008035 0.009456 0.074856 0.040716 0.004543 -0.090769 -0.045997 0.002043 -0.034143 0.006951 -0.092411 -0.040111 0.059101 -0.026063 0.058200 0.128056 -0.073870 -0.079828 -0.046024 0.020891 0.032735 0.065187 -0.204709 -0.017393 
qDy -0.197206 -0.059565 0.238003 -0.014418 -0.122274 -0.114436 0.110656 0.190289 0.051210 -0.084742 0.097090 0.001584 -0.103097 0.066607 0.044623 0.081187 0.010630 -0.033938 0.026801 -0.105104 0.048156 0.153644 0.120179 -0.050465 0.040065 0.041123 0.029363 0.061881 0.126351 0.110040 0.067746 -0.061991 -0.010469 0.002165 -0.052650 0.056465 -0.163565 -0.003660 0.045412 0.016018 0.028734 0.066809 -0.069912 -0.109270 -0.004190 0.080156 0.011002 0.053327 -0.218372 0.094998 
Ewd -0.142216 -0.091793 0.210885 -0.040238 -0.084018 -0.084461 0.104243 0.128778 0.014069 -0.122531 0.054619 0.022126 -0.043224 0.010161 -0.015876 0.121353 0.012136 -0.018612 0.002622 -0.060719 0.096033 0.193412 0.106017 -0.084795 0.010035 -0.091082 -0.010970 0.072677 0.092253 0.070598 0.022037 -0.149744 -0.066838 -0.036136 -0.021897 0.022197 -0.137376 -0.005256 0.052396 -0.079985 0.032558 0.050721 -0.049668 -0.095182 -0.038257 0.041110 0.048187 0.069226 -0.185577 -0.024268 
*wq -0.049746 -0.047020 0.155874 -0.060051 -0.091504 -0.007973 0.079461 0.094527 0.049598 -0.087790 0.041347 -0.028081 -0.050084 -0.011207 0.040252 0.095480 -0.031921 -0.031279 0.035311 -0.081856 0.087422 0.154957 0.141039 -0.086116 -0.004936 -0.092364 0.006161 0.044804 0.068877 0.033517 -0.000619 -0.156487 -0.043946 0.018404 -0.034424 0.044468 -0.146377 -0.056726 0.076142 -0.069896 0.090563 0.109862 -0.098116 -0.082450 -0.112715 0.078381 -0.005636 0.079980 -0.168846 -0.007292 
zyd -0.048208 -0.039025 0.172660 0.033568 -0.157358 -0.052273 0.085579 0.163622 0.117067 -0.091940 0.037155 -0.026749 -0.098107 0.048100 0.088667 0.064054 -0.012416 -0.043258 0.067721 -0.105710 0.095925 0.151223 0.146563 -0.039408 -0.005606 -0.071217 0.026380 0.010855 0.095056 0.058659 0.037392 -0.110537 0.004480 0.036230 -0.042327 0.044782 -0.114088 -0.008887 0.040863 -0.006013 0.067470 0.100996 -0.090822 -0.078713 -0.103143 0.061132 -0.048875 0.084840 -0.137730 0.036161 
mss -0.049316 -0.042625 0.183587 -0.054294 -0.093363 -0.060053 0.082518 0.136705 0.068446 -0.097018 0.075881 -0.022895 -0.111258 0.026580 0.084244 0.083296 -0.007865 -0.047020 0.063086 -0.109617 0.074574 0.155729 0.183896 -0.062553 -0.042650 -0.054338 0.021625 0.030175 0.035265 0.052436 0.033006 -0.118576 -0.043384 0.020198 -0.024642 0.052191 -0.116871 -0.023520 0.049126 -0.047052 0.067437 0.069514 -0.088944 -0.066117 -0.144104 0.113596 -0.050467 0.108454 -0.120332 0.036728 
gyb -0.097081 -0.043170 0.163368 -0.018871 -0.111698 -0.057245 0.089690 0.133221 0.052367 -0.053158 0.055350 0.021010 -0.075429 0.037403 0.017784 0.063667 0.013872 -0.036985 0.007534 -0.068393 0.045886 0.136458 0.110039 -0.057281 0.013461 -0.034766 0.006619 0.019890 0.084604 0.057995 0.037035 -0.055476 -0.025416 0.018814 -0.036326 0.055613 -0.122338 -0.013060 0.058541 -0.041530 0.029709 0.091391 -0.077208 -0.079319 -0.024979 0.068565 -0.017981 0.047418 -0.147091 0.038471 
ftn -0.054902 -0.037475 0.163478 -0.018464 -0.137445 -0.017759 0.094409 0.099453 0.069070 -0.092909 0.045778 -0.000928 -0.069338 0.004254 0.026107 0.106193 0.006256 -0.035451 0.021787 -0.045275 0.085393 0.137810 0.126602 -0.087840 0.006894 -0.099379 -0.006840 0.032014 0.046722 0.045002 0.010684 -0.115457 -0.051963 0.017239 -0.028794 0.031143 -0.089697 -0.036401 0.068274 -0.092296 0.095874 0.136228 -0.082760 -0.083896 -0.112897 0.045723 -0.022307 0.071958 -0.140327 -0.037365 
fry -0.030797 -0.025071 0.138219 -0.051326 -0.061386 0.030515 0.058381 0.073977 0.022865 -0.032673 0.015969 -0.016761 -0.049015 -0.026841 0.026143 0.053242 -0.044827 -0.032337 0.040035 -0.059254 0.069494 0.104102 0.107528 -0.045724 -0.016992 -0.058675 0.010646 0.039091 0.054147 0.019019 0.005018 -0.096124 -0.028001 0.032565 -0.043555 0.008511 -0.147516 -0.049547 0.063654 -0.027627 0.062320 0.113407 -0.070103 -0.050091 -0.104720 0.056677 -0.014574 0.085103 -0.148560 -0.009102 
zkw -0.102725 -0.057362 0.155466 -0.036604 -0.091704 -0.044493 0.080672 0.083806 0.044578 -0.090256 0.057834 0.004417 -0.049055 0.017133 0.005524 0.109798 0.021986 -0.017324 0.010911 -0.026388 0.040482 0.115466 0.107726 -0.081462 0.024924 -0.062477 -0.018820 0.028961 0.007841 0.036662 0.004878 -0.104613 -0.068590 -0.012354 -0.006111 0.035302 -0.052727 -0.043641 0.045339 -0.086156 0.065441 0.082215 -0.067302 -0.056826 -0.078880 0.065227 0.026249 0.050028 -0.138080 -0.029666 
nsw -0.089927 -0.106054 0.228003 -0.002203 -0.123250 -0.094981 0.042222 0.119119 0.041273 -0.238129 0.055132 -0.046965 -0.125249 0.029151 0.045524 0.188071 -0.037462 -0.016869 0.099148 -0.128798 0.210081 0.301501 0.250121 -0.095429 -0.020654 -0.155194 0.066792 0.036991 0.005164 0.089822 0.002822 -0.345452 -0.135497 -0.112438 -0.006204 0.071028 -0.188891 -0.048394 0.038706 -0.100435 0.158128 0.048605 -0.136279 -0.077912 -0.281796 0.102688 0.050390 0.162212 -0.275759 -0.092984 
Zhr -0.079756 -0.057264 0.237815 -0.015761 -0.145840 -0.045934 0.097765 0.164502 0.092024 -0.121057 0.053310 -0.042782 -0.092203 0.029255 0.069231 0.104709 -0.033588 -0.037922 0.053093 -0.094882 0.097314 0.165367 0.176538 -0.093415 -0.008291 -0.091450 -0.003082 0.039271 0.086338 0.058965 0.026141 -0.150238 -0.024204 0.021662 -0.057917 0.022192 -0.159818 -0.036266 0.069933 -0.038094 0.096478 0.128130 -0.093684 -0.092780 -0.125978 0.082805 -0.023750 0.089414 -0.206669 0.015245 
rdd -0.058042 -0.035731 0.181139 -0.036214 -0.151120 0.022742 0.104350 0.119272 0.076977 -0.080027 0.039099 -0.021558 -0.036087 0.018334 0.086633 0.080956 -0.044647 -0.022506 0.051920 -0.052501 0.074941 0.116271 0.113341 -0.107872 0.007512 -0.086956 -0.004330 0.039006 0.100028 0.055961 -0.004782 -0.103428 -0.001594 0.049574 -0.056206 0.007996 -0.129129 -0.029057 0.060251 -0.024762 0.103055 0.116981 -0.048822 -0.067766 -0.085954 0.066388 -0.025846 0.033742 -0.151208 0.027789 
Drb -0.038139 -0.032537 0.204484 -0.082825 -0.090995 -0.051582 0.124176 0.182377 0.051463 -0.052029 0.114896 -0.042726 -0.117091 0.018124 0.098579 0.057777 -0.009559 -0.075836 0.059780 -0.229377 0.044783 0.225903 0.267008 -0.078564 0.023243 -0.060188 0.016069 0.184383 0.142515 0.121352 0.059771 -0.189305 -0.042546 0.086191 -0.037318 0.100433 -0.304218 -0.028372 0.130218 -0.059567 0.115444 0.094515 -0.178439 -0.181174 -0.131540 0.224863 -0.109877 0.136759 -0.132012 0.156064 
Edd -0.032993 -0.059594 0.186232 -0.060506 -0.139475 -0.054392 0.083313 0.113158 0.055880 -0.139857 0.062964 -0.024768 -0.081987 0.003614 0.072644 0.122464 -0.007518 -0.022360 0.054667 -0.084210 0.110658 0.186311 0.211407 -0.118407 -0.003990 -0.163248 -0.008714 0.072423 0.029864 0.064903 0.016581 -0.200030 -0.098801 0.008667 -0.030336 0.071123 -0.134246 -0.035649 0.099273 -0.127643 0.132815 0.115185 -0.112696 -0.074956 -0.174535 0.104378 -0.011788 0.111919 -0.150778 -0.037754 
qry -0.199906 -0.107103 0.268063 0.007740 -0.160410 -0.067274 0.094145 0.163821 0.052917 -0.158136 0.070443 -0.021644 -0.031499 0.039775 0.009200 0.131226 -0.053282 0.019793 0.020002 0.004253 0.097784 0.133306 0.036160 -0.097915 0.051714 -0.024598 -0.019425 0.051503 0.106071 0.057749 -0.017952 -0.119709 -0.041622 -0.043859 -0.015340 -0.016345 -0.128014 -0.007851 0.030838 -0.014483 0.104723 0.065764 -0.018453 -0.080516 -0.064951 0.038581 0.081568 0.025047 -0.294887 0.002230 
rwH -0.126845 -0.066197 0.175517 -0.050386 -0.081424 -0.121846 0.113418 0.144959 0.031163 -0.089471 0.064182 0.024043 -0.089889 -0.003143 0.037091 0.125090 0.056368 -0.049559 -0.010628 -0.127502 0.048297 0.218073 0.143034 -0.070419 0.010222 -0.090762 0.005163 0.107661 0.075310 0.060741 0.073828 -0.103192 -0.078657 0.031569 -0.000237 0.074079 -0.179495 -0.020535 0.080154 -0.121159 0.053397 0.099977 -0.139377 -0.135521 -0.069373 0.132944 -0.024564 0.112550 -0.143888 0.046921 
*hb -0.137407 -0.090893 0.208908 -0.071453 -0.124977 -0.061936 0.131050 0.130312 -0.020165 -0.090492 0.073348 0.050473 -0.084146 -0.036876 -0.068102 0.157035 0.019859 -0.062724 -0.016085 -0.097194 0.098087 0.260599 0.167966 -0.121447 0.016945 -0.097568 0.005912 0.092371 0.070065 0.083369 0.021939 -0.164405 -0.153282 -0.009394 -0.049030 0.087093 -0.196062 -0.070708 0.135149 -0.180424 0.095603 0.192298 -0.163003 -0.142209 -0.098894 0.113547 0.022127 0.169612 -0.260879 -0.056916 
nhy -0.121378 -0.044855 0.225440 -0.002879 -0.167739 -0.051534 0.113023 0.161321 0.071084 -0.107247 0.061565 -0.009765 -0.083251 0.032642 0.038598 0.129582 -0.005076 -0.037077 0.017755 -0.101853 0.111025 0.193686 0.159301 -0.082651 -0.001759 -0.079204 0.008549 0.057093 0.056409 0.060994 0.015637 -0.164407 -0.056431 -0.005859 -0.034158 0.033038 -0.147803 -0.032681 0.069458 -0.072635 0.105159 0.129816 -0.120624 -0.115565 -0.129590 0.065419 -0.035136 0.109155 -0.221158 -0.016899 
Ajl -0.124558 -0.083660 0.182315 -0.064932 -0.055506 -0.048535 0.074342 0.088772 0.001664 -0.102152 0.039175 0.033844 -0.042889 -0.017618 -0.021987 0.119390 0.009210 -0.047478 -0.012829 -0.044689 0.066740 0.172731 0.106940 -0.084303 -0.003035 -0.083914 -0.001647 0.048098 0.024408 0.033646 0.017798 -0.111295 -0.098767 0.010274 -0.016519 0.033990 -0.099086 -0.031934 0.082783 -0.102159 0.064624 0.115886 -0.083607 -0.093132 -0.076767 0.066271 0.032349 0.095755 -0.191984 -0.035423 
dwr -0.087223 -0.059651 0.186388 -0.057220 -0.119217 0.012813 0.086661 0.118829 0.020125 -0.089047 0.025594 -0.016900 -0.024507 -0.015044 -0.003890 0.118333 -0.051061 -0.022734 0.012907 -0.018788 0.106862 0.145574 0.110092 -0.122027 0.020696 -0.093651 -0.016389 0.080426 0.096280 0.046958 -0.017210 -0.131110 -0.067017 -0.005064 -0.041363 0.003987 -0.144082 -0.032149 0.090325 -0.085989 0.099282 0.151472 -0.066871 -0.094476 -0.068468 0.038822 0.024699 0.079237 -0.234125 -0.018451 
fsq -0.104886 -0.075971 0.248629 -0.011915 -0.193825 -0.026392 0.131007 0.157859 0.098344 -0.168547 0.046251 -0.021329 -0.010164 0.024010 0.038730 0.136220 -0.015238 -0.007342 0.031206 -0.006095 0.099850 0.143587 0.091228 -0.136824 0.044786 -0.122228 -0.038035 0.077788 0.111541 0.037608 -0.029232 -0.147130 -0.035027 0.013955 -0.017514 -0.014374 -0.117502 -0.009363 0.069390 -0.069569 0.126193 0.144677 -0.059935 -0.098813 -0.104428 0.023548 -0.019143 0.011912 -0.204884 -0.021475 
ndw -0.161103 -0.051910 0.188363 -0.030716 -0.087060 -0.092873 0.099071 0.145402 0.019763 -0.092873 0.067198 0.013648 -0.073839 0.040524 -0.008124 0.121844 0.030584 -0.021713 0.001266 -0.116794 0.069540 0.189775 0.129862 -0.055048 0.049609 -0.032463 0.024555 0.080104 0.085084 0.099935 0.060451 -0.128273 -0.059627 -0.018468 -0.015316 0.062647 -0.159790 -0.017151 0.071563 -0.068543 0.057192 0.072831 -0.102114 -0.125751 -0.052922 0.114170 -0.006140 0.085400 -0.176032 0.037714 
xbr -0.091543 -0.065158 0.114549 -0.038480 -0.091312 -0.026060 0.137855 0.070470 -0.011557 -0.064439 0.051332 -0.004700 -0.038325 -0.073275 -0.030883 0.135013 0.016703 -0.048657 -0.023121 -0.075476 0.050099 0.216524 0.100817 -0.121388 0.061536 -0.094791 0.006785 0.101657 0.098505 0.048270 0.007092 -0.133958 -0.114767 0.039749 -0.030007 0.089930 -0.204349 -0.072125 0.131305 -0.174785 0.091101 0.194561 -0.145087 -0.151821 -0.085769 0.104426 0.008354 0.123396 -0.208594 -0.033364 
DEf -0.018100 -0.057538 0.244749 -0.084704 -0.163728 0.024082 0.126522 0.119967 0.071990 -0.104475 0.055349 -0.040357 -0.011384 -0.025138 0.092471 0.101045 -0.058403 -0.027994 0.039825 -0.020873 0.083295 0.106049 0.153854 -0.157817 0.000918 -0.133008 -0.057525 0.081572 0.076875 0.014754 -0.043137 -0.171416 -0.041738 0.072983 -0.037302 0.002524 -0.127905 -0.036797 0.090768 -0.081263 0.126226 0.149758 -0.077885 -0.062015 -0.124553 0.055045 -0.012809 0.055596 -0.172255 -0.010759 
tHt -0.108796 -0.086577 0.137226 -0.031693 -0.023494 -0.079869 0.019777 0.048719 -0.021919 -0.123602 0.033489 0.009769 -0.059082 0.006208 -0.027828 0.118833 0.021544 -0.002644 0.016423 -0.033483 0.120208 0.187359 0.104138 -0.047385 -0.031268 -0.071076 0.024459 -0.009082 -0.010317 0.012464 0.027864 -0.150589 -0.108585 -0.072372 -0.012643 0.035039 -0.105796 -0.043614 0.014330 -0.064589 0.048740 0.024325 -0.057029 -0.040406 -0.103620 0.037384 0.070271 0.096168 -0.164281 -0.075893 
Hll -0.030215 -0.064200 0.252248 -0.096679 -0.183345 0.039494 0.120160 0.125218 0.108665 -0.150799 0.061741 -0.053384 -0.050346 -0.027768 0.123338 0.135776 -0.054185 -0.031203 0.058678 -0.057567 0.110093 0.160579 0.212997 -0.169369 -0.005166 -0.177813 -0.033232 0.071801 0.063076 0.037049 -0.045655 -0.241765 -0.082616 0.055932 -0.031597 0.014773 -0.127636 -0.054324 0.133583 -0.104165 0.184171 0.203132 -0.114638 -0.073803 -0.242007 0.092188 -0.060660 0.096823 -0.195847 -0.042611 
fsd -0.064667 -0.050035 0.183369 -0.035642 -0.124733 -0.016148 0.100980 0.110261 0.057907 -0.114621 0.039308 -0.005459 -0.043797 -0.015810 0.047292 0.103529 -0.022539 -0.024837 0.034822 -0.033076 0.097370 0.159233 0.147992 -0.099650 0.010971 -0.120087 -0.023628 0.057630 0.055825 0.034474 -0.014967 -0.128632 -0.042119 0.035436 -0.039046 0.024750 -0.149679 -0.028369 0.073022 -0.071331 0.096095 0.151379 -0.072115 -0.082937 -0.129544 0.084874 -0.011440 0.079964 -0.174209 -0.021287 
Tyb -0.069573 -0.053137 0.236757 -0.063559 -0.160115 -0.002853 0.077082 0.157758 0.046342 -0.110151 0.071204 -0.050752 -0.093407 0.000597 0.078524 0.110290 -0.070780 0.000847 0.063481 -0.113866 0.137267 0.168623 0.195853 -0.106157 -0.000987 -0.079755 0.014685 0.064003 0.064246 0.098298 -0.012034 -0.207197 -0.073132 -0.014169 -0.048665 0.054294 -0.198060 -0.063633 0.095061 -0.046754 0.140375 0.123093 -0.107012 -0.088976 -0.160351 0.115124 -0.022449 0.099207 -0.196519 -0.000755 
nfE -0.045152 -0.037231 0.157064 -0.080886 -0.053036 -0.004621 0.078725 0.080043 -0.017290 -0.025359 0.044864 0.030094 -0.038069 -0.021596 0.002960 0.065782 -0.024882 -0.040216 -0.020446 -0.051475 0.029925 0.098393 0.099014 -0.071296 -0.029235 -0.052264 -0.021319 0.059161 0.046782 0.039745 0.007185 -0.087309 -0.068841 0.021578 -0.040054 0.011715 -0.124182 -0.035491 0.090618 -0.056004 0.047117 0.087516 -0.079921 -0.069672 -0.062899 0.061339 -0.002895 0.082860 -0.140692 -0.022621 
Eql -0.059880 -0.030485 0.177817 -0.009982 -0.142935 -0.020892 0.087593 0.138405 0.070131 -0.081931 0.044406 -0.007866 -0.059008 0.008567 0.072393 0.070030 -0.017325 -0.043585 0.042449 -0.099217 0.069423 0.163588 0.135901 -0.056297 0.003910 -0.073801 0.006841 0.033238 0.075737 0.044140 0.037748 -0.108772 -0.019260 0.048763 -0.029301 0.042117 -0.132425 -0.022811 0.077234 -0.059582 0.094432 0.141266 -0.108977 -0.101061 -0.111298 0.072308 -0.046695 0.072104 -0.170424 0.013265 
swE -0.230429 -0.095836 0.232931 -0.016140 -0.098555 -0.139385 0.111366 0.146624 0.034266 -0.125233 0.083292 0.047455 -0.080023 0.052251 -0.029389 0.158785 0.051256 -0.018465 -0.021602 -0.064085 0.034376 0.197722 0.079960 -0.071842 0.045474 -0.020280 0.001581 0.069182 0.056918 0.064446 0.042661 -0.088119 -0.091674 -0.031023 -0.007661 0.048182 -0.098432 -0.005213 0.045284 -0.094823 0.022484 0.036430 -0.061473 -0.092345 -0.022402 0.064094 0.064547 0.057695 -0.194619 0.003857 
TEm -0.186016 -0.058709 0.223174 -0.102773 -0.117143 -0.035250 0.102171 0.132132 -0.000891 -0.135280 0.101650 -0.025323 -0.068178 -0.016765 0.027995 0.155785 -0.036218 -0.006581 0.031685 -0.130467 0.058165 0.184166 0.127675 -0.080967 0.109589 -0.072334 0.004551 0.168918 0.109551 0.132348 0.006077 -0.206343 -0.059070 0.000933 -0.011696 0.036734 -0.252794 -0.003242 0.105439 -0.073322 0.146928 0.067124 -0.111733 -0.143151 -0.153519 0.168628 -0.013304 0.040863 -0.201109 0.096739 
x$y -0.085315 -0.058127 0.263687 -0.051260 -0.205172 -0.059563 0.161354 0.170707 0.088991 -0.197117 0.077535 -0.034960 -0.057079 -0.001033 0.081021 0.124012 -0.003027 -0.006382 0.057644 -0.085976 0.140861 0.194125 0.207289 -0.156872 0.017994 -0.200500 -0.012614 0.137213 0.114281 0.095022 -0.008274 -0.209643 -0.064445 0.023419 -0.050145 0.010231 -0.180966 -0.018469 0.117319 -0.112039 0.176241 0.138009 -0.093908 -0.114489 -0.181647 0.108070 -0.056019 0.066058 -0.195259 -0.005459 
